{
  "model_type": "lightgbm",
  "feature_names": [
    "adx",
    "atr_pct",
    "di_spread",
    "ema_fast_gap",
    "ema_slow_gap",
    "ema_trend_gap",
    "boll_width_pct",
    "volume_log",
    "plan_confidence",
    "reward_risk",
    "risk_fraction",
    "leverage",
    "higher_aligned",
    "market_breadth",
    "strength_rank",
    "direction_long",
    "style_pullback",
    "style_breakout",
    "agent_trend_pullback",
    "agent_trend_breakout",
    "agent_range_reversion",
    "agent_volatility_breakout",
    "ret_4",
    "ret_16",
    "ret_48",
    "realized_vol_4",
    "realized_vol_16",
    "realized_vol_48",
    "atr_pct_rank_100",
    "volume_z_20",
    "adx_delta_16",
    "pullback_depth_atr",
    "distance_to_stop_atr"
  ],
  "booster_text": "tree\nversion=v4\nnum_class=1\nnum_tree_per_iteration=1\nlabel_index=0\nmax_feature_idx=32\nobjective=binary sigmoid:1\nfeature_names=adx atr_pct di_spread ema_fast_gap ema_slow_gap ema_trend_gap boll_width_pct volume_log plan_confidence reward_risk risk_fraction leverage higher_aligned market_breadth strength_rank direction_long style_pullback style_breakout agent_trend_pullback agent_trend_breakout agent_range_reversion agent_volatility_breakout ret_4 ret_16 ret_48 realized_vol_4 realized_vol_16 realized_vol_48 atr_pct_rank_100 volume_z_20 adx_delta_16 pullback_depth_atr distance_to_stop_atr\nfeature_infos=[7.4502827369332039:74.417110396260298] [0.00059507467169610001:0.076143498780093299] [-76.55141377350354:68.711727940882184] [-0.27074688950193482:0.37750749220741597] [-0.33334860656970278:0.43685572014320789] [-0.36130760772341891:0.4661777407287222] [0.0016555256556756001:0.58598343171832445] [7.008685997560578:17.040854181456005] [0.55000000000000004:0.94999999999999996] [2.2000000000000002:4] [0.0060000000000000001:0.021999999999999999] [2:10] [0:1] none none [0:1] [0:1] [0:1] [0:1] [0:1] [0:1] [0:1] [-0.30515769944341359:0.29429892141756531] [-0.3135882115758219:0.62822458270106196] [-0.33720312887127019:0.61038571214167781] [0.0001218169440176:0.1165320139349852] [0.00039698490746130003:0.11510035599930141] [0.00047360892481930001:0.065791639334086605] [0.01:1] [-1.8870980631787:4.2461702567873383] [-36.825242468574203:43.190111615674176] [0.00037690974907409998:7.0073647084351522] [0.1299894193041469:1.8101521135462668]\ntree_sizes=1604 1714 1633 1713 1716 1711 1498 1501 1616 1399 1416 1696 1319 1613 1527 1313 1508 1526 1186 1516 1734 1420 1618 1408 1295 1730 1405 1745 1419 1530 1538 1619 1752 1747 1427 1520 1529 1429 1740 1318 1644 1422 1321 1311 1212 1212 1534 1541 1322 1100 1327 1004 1338 1539 1107 1209 1428 1323 1442 1435 1206 1217 1651 1434 1211 1772 1438 1544 1000 1767 1535 1551 1203 1551 1428 1322 1760 1321 1331 1334 1318 1540 1539 1420 1313 1119 1542 1106 1011 1427 1547 1522 1550 1440 1434 1321 1218 1317 1314 1543 1224 1646 1436 1538 1338 1429 1654 1102 1213 1011 1109 1651 1110 1126 1440 1555 799 1437 1118 1214 1544 1762 1442 1431 1217 1447 1523 1348 1655 1550 1653 1442 1756 1002 1331 1766 1010 1219 1456 1666 1516 1787 1221 1439 1558 1450 1336 1458 1224 1116 1664 1327 1682 913 1214 1448 1451 1325 1332 905 1667 1009 1439 1119 1763 1432 1307 1323 1223 921 1445 1444 1764 1552 1325 1667 800 1220 1241 1119 1671 1445 1225 1544 1538 1661 1221 1546 1766 1223 1004 1542 1653 1669 1422 1341 1115 917 1773 1115 1439 1122 1650 1226 900 1016 1223 1338 1657 1555 1654 1228 1338 1119 1334 1774 1020 1332 1563 1760\n\nTree=0\nnum_leaves=14\nnum_cat=0\nsplit_feature=0 28 5 30 1 22 6 7 30 28 5 7 0\nsplit_gain=69.2535 55.8776 42.6779 43.2463 29.4011 25.398 22.6516 22.9447 19.9439 17.8818 13.5522 13.4279 1.47353\nthreshold=21.108999087400417 0.82500000000000007 0.045881417462859307 -17.262698568790558 0.0083562535079537512 0.010103833506142803 0.035396184291104658 12.616407867546377 10.636747496565063 0.83500000000000008 0.012848776012413703 12.276503844930582 19.252879059589652\ndecision_type=2 2 2 2 2 2 2 2 2 2 2 2 2\nleft_child=6 2 3 -2 5 -3 7 10 -6 -9 -1 -4 -8\nright_child=1 4 11 -5 8 -7 12 9 -10 -11 -12 -13 -14\nleaf_value=-0.97017601068144477 -0.96749862031186151 -0.96784467959924425 -1.0068172700571443 -0.99007809178754769 -0.99445933840378009 -0.99025927748996601 -0.96330181775033252 -1.0009121238435401 -0.97306024762272292 -0.96552105290653889 -0.99160355568063574 -1.0413406799434988 -0.9414467946863696\nleaf_weight=545.38345044851303 117.01244947314262 383.3311727643013 40.083419948816299 1147.2879848778248 166.8718666434288 81.873759359121323 30.807986229658127 69.600788176059723 85.205005824565887 24.143823713064194 45.650514990091324 19.771406203508377 30.710376173257828\nleaf_count=1788 377 1240 158 4181 621 298 96 267 283 76 167 91 83\ninternal_value=-0.981577 -0.984971 -0.989309 -0.987942 -0.977026 -0.9717 -0.972363 -0.974375 -0.987038 -0.991235 -0.971767 -1.01837 -0.951183\ninternal_weight=2787.73 2041.44 1324.16 1264.3 717.282 465.205 746.297 684.779 252.077 93.7446 591.034 59.8548 61.5184\ninternal_count=9726 7249 4807 4558 2442 1538 2477 2298 904 343 1955 249 179\nis_linear=0\nshrinkage=1\n\n\nTree=1\nnum_leaves=15\nnum_cat=0\nsplit_feature=8 32 5 31 30 7 6 5 25 26 31 6 1 8\nsplit_gain=83.4048 49.971 26.4449 37.5292 24.838 26.619 25.9502 24.8265 22.8154 27.6557 17.8537 16.6917 15.2087 12.424\nthreshold=0.63 1.4068298609892416 0.012559916320118502 2.1076205912493875 22.274984347727784 12.314731491421268 0.027297711963546956 0.015343221487453351 0.0021670403552300006 0.0051697925771773011 3.0613940531042645 0.026051858831414251 0.0085952015606588512 0.83222007336988757\ndecision_type=2 2 2 2 2 2 2 2 2 2 2 2 2 2\nleft_child=2 8 3 11 6 -6 -3 -4 13 -10 -5 -1 -9 -2\nright_child=1 4 7 10 5 -7 -8 12 9 -11 -12 -13 -14 -15\nleaf_value=0.051704686302913506 0.048600194430961613 0.035338224549470679 0.00044675643423772036 0.039406940090249656 0.037092542782979881 -0.010624516190538788 0.044708625592013031 0.054011966027960649 -0.0024951709826788928 0.028344568163331571 0.0052364604688596014 0.067320209695301933 0.022530078876584023 0.021857051619648758\nleaf_weight=552.63394942879677 40.810996890068054 1023.273897215724 24.033234909176826 101.93040606379509 29.260405480861664 26.362395897507668 609.03644546866417 47.182046204805374 77.108554989099503 64.674238875508308 23.606274798512459 117.48793387413025 35.469075128436089 51.239421203732491\nleaf_count=1765 133 3603 100 349 101 115 2043 149 325 236 96 340 132 193\ninternal_value=0.0401398 0.0359651 0.0489774 0.0512109 0.0380744 0.014627 0.0388618 0.031966 0.0206271 0.0116479 0.0331012 0.0545439 0.0409744 0.0341462\ninternal_weight=2824.11 1921.77 902.343 795.659 1687.93 55.6228 1632.31 106.684 233.833 141.783 125.537 670.122 82.6511 92.0504\ninternal_count=9680 6749 2931 2550 5862 216 5646 381 887 561 445 2105 281 326\nis_linear=0\nshrinkage=0.035\n\n\nTree=2\nnum_leaves=14\nnum_cat=0\nsplit_feature=32 28 5 28 27 7 32 26 22 28 0 25 25\nsplit_gain=68.3307 31.0952 44.232 35.5219 32.402 29.1414 16.8072 14.8819 14.8232 12.1588 20.6401 12.8407 9.26757\nthreshold=1.4068298609892416 0.82500000000000007 0.045881417462859307 0.045000000000000005 0.0086186053565391017 12.885506155472237 1.7999706516411782 0.0019323949418494502 0.0027108436194335003 0.36500000000000005 33.317018717393417 0.0022502436239108005 0.0034300096201180506\ndecision_type=2 2 2 2 2 2 2 2 2 2 2 2 2\nleft_child=8 2 3 -2 7 -6 -4 -3 9 11 -11 -1 -10\nright_child=1 4 6 -5 5 -7 -8 -9 12 10 -12 -13 -14\nleaf_value=0.039797519132610981 0.053345578248585622 0.024650681941564518 -0.015126239236086645 0.036284114971579684 0.038330556451660412 -0.012026853528109888 0.022353624795486717 0.04830154529281272 0.047237930086177493 -0.00022445070262366992 0.036610641772205167 0.0079210802386593671 0.018875039762252778\nleaf_weight=37.061457186937332 171.23559460043907 38.100310131907463 24.129877537488937 1583.7247147858143 36.507999792695045 21.780332684516907 34.161223188042641 746.65512309968472 33.133112668991089 89.218774855136871 22.489223346114159 27.645262852311134 28.686052113771439\nleaf_count=124 523 136 107 5386 122 94 127 2357 107 368 77 111 108\ninternal_value=0.0380287 0.0396438 0.0369837 0.0379803 0.0453104 0.0195692 0.00678618 0.0471906 0.0199159 0.0145696 0.00741922 0.0265597 0.0346423\ninternal_weight=2894.53 2656.3 1813.25 1754.96 843.044 58.2883 58.2911 784.755 238.234 176.415 111.708 64.7067 61.8192\ninternal_count=9747 8852 6143 5909 2709 216 234 2493 895 680 445 235 215\nis_linear=0\nshrinkage=0.035\n\n\nTree=3\nnum_leaves=15\nnum_cat=0\nsplit_feature=8 28 24 25 5 2 31 1 1 4 31 7 30 23\nsplit_gain=64.6159 34.4527 37.697 36.8709 20.54 20.0181 33.2683 32.6522 18.0856 28.6482 14.9599 6.80373 5.9792 5.01199\nthreshold=0.63 0.81500000000000006 0.074912729991446367 0.0073624176864724505 0.012559916320118502 -10.080460241402886 1.2223675274525334 0.0096376092144205509 0.0080802250939378019 -0.012456984392018399 2.2629117379990054 11.963572604811267 -3.219954776436341 0.023192939390886905\ndecision_type=2 2 2 2 2 2 2 2 2 2 2 2 2 2\nleft_child=4 2 3 -2 8 6 -3 -7 9 -1 11 -6 -4 -10\nright_child=1 5 12 -5 10 7 -8 -9 13 -11 -12 -13 -14 -15\nleaf_value=0.020148618199766429 0.028833611341048795 0.058157153329212001 0.066493952356635938 -0.00051168692196005747 0.026534018061998607 0.037943073880979596 0.035251139747944867 0.01115819659067213 0.0616785215400764 0.045226964470927028 0.043939274478596413 0.0033990914373599507 0.039295107916094307 0.041343587139143954\nleaf_weight=64.238974913954735 1190.3499358296394 140.07133603096008 34.811162874102592 54.584025502204895 40.880672946572304 284.61465077102184 195.47493958473206 71.075600609183311 106.19253894686699 639.73372632265091 47.638601884245872 25.912259295582771 23.785485327243805 29.565536290407181\nleaf_count=230 4148 404 95 221 143 929 645 270 292 1980 150 102 77 93\ninternal_value=0.0359328 0.0323017 0.0288848 0.0275448 0.0434784 0.0386892 0.0449679 0.0326469 0.0454112 0.0429753 0.0289945 0.017793 0.0563568 0.0576102\ninternal_weight=2948.93 1994.77 1303.53 1244.93 954.162 691.237 335.546 355.69 839.731 703.973 114.432 66.7929 58.5966 135.758\ninternal_count=9779 6789 4541 4369 2990 2248 1049 1199 2595 2210 395 245 172 385\nis_linear=0\nshrinkage=0.035\n\n\nTree=4\nnum_leaves=15\nnum_cat=0\nsplit_feature=8 28 5 30 2 29 27 5 27 5 6 2 23 6\nsplit_gain=64.3815 39.5465 39.321 23.8414 23.7164 24.8135 24.7293 23.5952 15.4212 14.2487 13.8894 20.5342 10.6059 9.4044\nthreshold=0.63 0.81500000000000006 0.045881417462859307 -16.800188913404003 -7.9687784622094009 -0.7040427244469678 0.0058668642647629011 0.012559916320118502 0.0079143172651568016 0.014983453674630902 0.026051858831414251 -18.623670224063954 -0.0046176083088724498 0.038127163765646961\ndecision_type=2 2 2 2 2 2 2 2 2 2 2 2 2 2\nleft_child=7 2 3 -2 5 -3 -6 10 -4 -9 11 -1 -12 -11\nright_child=1 4 8 -5 6 -7 -8 9 -10 13 12 -13 -14 -15\nleaf_value=0.013072820734242464 0.043397470167100903 0.064250692959650399 0.014163071876110432 0.02701936364600074 0.035353745529887681 0.039584828575663922 0.010560920028531791 0.0018154141947260402 -0.022433416742994029 0.039604247784387106 0.068583005901481614 0.043037846419849195 0.046969730382632885 0.01386792449815368\nleaf_weight=30.706201866269112 124.13693895936012 64.235953718423843 32.335825219750404 1131.7723752558231 276.62706308066845 301.20463311672211 61.748221173882484 22.925781920552254 23.434138968586922 68.318305566906929 48.513454467058182 671.34409898519516 115.6732472628355 25.83011893928051\nleaf_count=111 384 170 123 3904 893 943 233 91 106 216 121 2041 339 94\ninternal_value=0.0346765 0.0310494 0.0273981 0.0286742 0.0378007 0.0440936 0.0308842 0.0420684 -0.00127715 0.026829 0.0440907 0.0417527 0.0537537 0.0328001\ninternal_weight=2998.81 2015.5 1311.68 1255.91 703.816 365.441 338.375 983.311 55.77 117.074 866.237 702.05 164.187 94.1484\ninternal_count=9769 6756 4517 4288 2239 1113 1126 3013 229 401 2612 2152 460 310\nis_linear=0\nshrinkage=0.035\n\n\nTree=5\nnum_leaves=15\nnum_cat=0\nsplit_feature=8 0 31 25 31 1 2 5 1 22 5 1 2 15\nsplit_gain=55.9899 22.1834 34.7277 35.8396 26.8236 23.3128 23.077 18.5437 18.2034 18.0624 16.908 22.395 15.2468 12.3711\nthreshold=0.63 33.183636262031001 3.029262130125796 0.010649668100425802 2.9884172498342649 0.0025262788140462508 -30.64512007182401 0.012559916320118502 0.0080802250939378019 0.013349250702353552 0.029490946170449603 0.0057452570506890009 -18.93560781922125 1.0000000180025095e-35\ndecision_type=2 2 2 2 2 2 2 2 2 2 2 2 2 2\nleft_child=7 4 6 -4 5 -2 -3 8 12 -6 11 -9 -1 -10\nright_child=1 2 3 -5 9 -7 -8 10 13 -11 -12 -13 -14 -15\nleaf_value=0.013504547629992706 0.042672030402688237 0.062359433541165923 0.025505542989853931 -0.019175067692346285 0.052032060630164419 0.022229921622913561 0.03472776972273578 0.041961235057332187 0.065303643491363736 0.022309057488863894 0.048812019950301655 0.0043622713719463782 0.04025307590563533 0.042413178470825055\nleaf_weight=28.842057183384895 75.316661819815636 40.056865721940994 116.86388312280178 26.169071480631828 75.848525121808052 860.91868390142918 803.21183583140373 29.237384915351868 65.398186132311821 41.4346534460783 29.069804787635803 55.624241203069687 707.3787228167057 73.377116769552231\nleaf_count=103 231 105 392 111 218 2979 2573 90 160 142 85 211 2123 212\ninternal_value=0.0329301 0.0295733 0.0334016 0.0172302 0.0259576 0.0239219 0.0361168 0.0398136 0.0415739 0.0418383 0.0260205 0.0176948 0.0392297 0.0536154\ninternal_weight=3028.75 2039.82 986.302 143.033 1053.52 936.235 843.269 988.928 874.996 117.283 113.931 84.8616 736.221 138.775\ninternal_count=9735 6751 3181 503 3570 3210 2678 2984 2598 360 386 301 2226 372\nis_linear=0\nshrinkage=0.035\n\n\nTree=6\nnum_leaves=13\nnum_cat=0\nsplit_feature=32 8 28 31 1 31 5 22 30 4 2 0\nsplit_gain=62.4239 32.4054 24.1275 30.3806 22.4205 15.842 13.5391 12.245 13.6218 24.436 15.8008 9.74382\nthreshold=1.4068298609892416 0.63 0.81500000000000006 2.284773449377306 0.0020093828064239004 3.0917424993033626 -0.025145718694896946 0.0027900908488685504 3.7030940243431485 0.0032236957470802006 3.8469596079778161 29.547618083714394\ndecision_type=2 2 2 2 2 2 2 2 2 2 2 2\nleft_child=7 5 4 -4 -3 6 -2 8 9 -1 -10 -9\nright_child=1 2 3 -5 -6 -7 -8 11 10 -11 -12 -13\nleaf_value=0.019855163708005292 0.062477091482910307 0.052154840137415018 0.041954097893057478 0.026220504452629172 0.026032488644927913 0.015643575039729379 0.038115717749334359 0.039470787469705781 0.036396687319278184 -0.010752803112949388 0.00093314749616573659 0.0096037842543333449\nleaf_weight=58.445510417222977 31.022924393415451 42.192355871200562 383.22963264584541 262.93552872538567 1124.0831537991762 39.452324703335762 932.7839879244566 36.596258163452148 40.215789243578911 68.024177804589272 24.977071285247803 22.589241400361061\nleaf_count=205 76 118 1126 857 3747 137 2766 114 128 279 97 82\ninternal_value=0.0314633 0.0329564 0.0301043 0.0356076 0.0270244 0.0380702 0.0389674 0.0146257 0.0102041 0.00340941 0.0230819 0.0284786\ninternal_weight=3066.55 2815.7 1812.44 646.165 1166.28 1003.26 963.807 250.848 191.663 126.47 65.1929 59.1855\ninternal_count=9732 8827 5848 1983 3865 2979 2842 905 709 484 225 196\nis_linear=0\nshrinkage=0.035\n\n\nTree=7\nnum_leaves=13\nnum_cat=0\nsplit_feature=8 32 28 7 31 22 28 23 31 28 0 7\nsplit_gain=60.4137 38.1293 25.5812 28.9123 24.6192 17.457 13.4974 12.2296 11.8565 12.0568 16.9231 12.3864\nthreshold=0.63 1.4068298609892416 0.82500000000000007 12.35925928766847 3.2315907058852527 0.0025228729136186003 0.38500000000000006 -0.0081666567179341978 3.0917424993033626 0.99500000000000011 26.744451707095614 12.957765923449998\ndecision_type=2 2 2 2 2 2 2 2 2 2 2 2\nleft_child=8 5 3 -3 -4 6 -2 -7 9 10 -1 -11\nright_child=1 2 4 -5 -6 7 -8 -9 -10 11 -12 -13\nleaf_value=0.036935255003249921 0.019288388688094127 0.027384766377973154 0.037222119162290179 0.012672949119513756 0.019643085875028513 0.045328158471999849 -0.00013646580821996264 0.014739158398572517 0.017515412757864744 0.040226073637283602 0.010680675470549655 0.06719395557000421\nleaf_weight=832.17146560549736 71.400884866714478 995.58323094248772 508.47559002041817 200.07342910766602 126.59433352947235 29.018375337123871 110.07320001721382 38.570000782608986 41.070430725812912 82.747331455349922 32.617776766419411 33.717577829957008\nleaf_count=2424 249 3231 1500 707 424 85 428 135 140 233 112 78\ninternal_value=0.0297252 0.0262652 0.0280173 0.0249386 0.0337598 0.0133117 0.00755087 0.0283927 0.0367283 0.0375103 0.0359625 0.0485689\ninternal_weight=3102.11 2079.79 1830.73 1195.66 635.07 249.062 181.474 67.5884 1022.32 981.254 864.789 116.465\ninternal_count=9746 6759 5862 3938 1924 897 677 220 2987 2847 2536 311\nis_linear=0\nshrinkage=0.035\n\n\nTree=8\nnum_leaves=14\nnum_cat=0\nsplit_feature=8 24 2 3 5 1 0 1 7 27 26 27 24\nsplit_gain=33.4458 25.0207 29.5076 21.7487 16.7692 17.4139 21.5632 16.5445 16.1428 16.0862 10.3742 7.96104 6.82981\nthreshold=0.63 0.074912729991446367 -8.9207939808542047 0.005222753139894001 0.012559916320118502 0.0083562535079537512 26.744451707095614 0.0096376092144205509 12.170852106777049 0.0023691770169655501 0.0067369668756856503 0.0048992314917856005 0.012936697411704952\ndecision_type=2 2 2 2 2 2 2 2 2 2 2 2 2\nleft_child=4 2 9 -4 5 6 -1 -3 -9 -2 11 -6 -7\nright_child=1 7 3 -5 10 12 -8 8 -10 -11 -12 -13 -14\nleaf_value=0.034399427675697383 0.041038584201746199 0.060878677220677614 0.021939362288729773 -0.0089042801932414928 0.019186109526754428 0.053965641424066006 0.0069528554635251072 0.045062380702936389 0.0080934207354214759 0.027659954356386799 0.0024236421217074902 0.042378298791896682 0.035712190986303301\nleaf_weight=745.09062671661377 137.50737726688385 39.295900300145149 1110.2562467604876 28.060698330402374 63.197413474321365 81.83492985367775 37.735574349761009 36.833010658621788 24.688590332865715 721.76062239706516 29.023128062486649 27.590212538838387 53.056266754865646\nleaf_count=2153 398 98 3653 109 209 198 130 103 89 2278 106 79 147\ninternal_value=0.0283885 0.025806 0.024918 0.0211688 0.0335785 0.0352074 0.0330914 0.0429486 0.0306495 0.0298502 0.0208845 0.0266572 0.0471275\ninternal_weight=3135.93 2098.4 1997.58 1138.32 1037.53 917.717 782.826 100.818 61.5216 859.268 119.811 90.7876 134.891\ninternal_count=9750 6728 6438 3762 3022 2628 2283 290 192 2676 394 288 345\nis_linear=0\nshrinkage=0.035\n\n\nTree=9\nnum_leaves=12\nnum_cat=0\nsplit_feature=8 32 30 28 24 31 0 1 30 22 26\nsplit_gain=40.1133 23.8764 22.7409 19.0751 28.6483 15.8821 12.925 11.1045 8.55632 14.3633 7.62219\nthreshold=0.63 1.1104352828093067 5.6036056701947592 0.78500000000000014 0.074912729991446367 3.2315907058852527 30.557473105640884 0.0071399755023610007 0.26399560784174098 -0.01409432453513375 0.0016318584522057502\ndecision_type=2 2 2 2 2 2 2 2 2 2 2\nleft_child=6 2 7 4 -3 -5 8 -2 9 -1 -10\nright_child=1 3 -4 5 -6 -7 -8 -9 10 -11 -12\nleaf_value=0.014319134628264967 -0.014337442352828482 0.021437865302279438 0.031542487918898944 0.032061437191343904 0.046782255594171873 0.018885606549886996 0.011984932213064273 0.015663039132311988 0.024716185578860711 0.033011636425104345 0.040923386925350712\nleaf_weight=58.011006444692612 43.65242500603199 1160.5936821699142 31.453485667705536 659.52340000867844 57.485182255506516 143.19425700604916 36.067965626716614 21.817382618784904 48.468066051602364 608.9159432053566 288.78050482273102\nleaf_count=190 177 3801 98 1954 154 469 120 76 146 1735 789\ninternal_value=0.0274825 0.0246817 0.00756563 0.0254967 0.0226742 0.0297418 0.0331517 -0.00420209 0.0338958 0.0314148 0.0386845\ninternal_weight=3157.96 2117.72 96.9233 2020.8 1218.08 802.718 1040.24 65.4698 1004.18 666.927 337.249\ninternal_count=9709 6729 351 6378 3955 2423 2980 253 2860 1925 935\nis_linear=0\nshrinkage=0.035\n\n\nTree=10\nnum_leaves=12\nnum_cat=0\nsplit_feature=32 5 27 5 5 28 2 29 4 7 8\nsplit_gain=30.0527 28.9335 32.6373 24.322 29.4367 27.952 23.8926 16.7704 17.7961 14.8897 10.3966\nthreshold=1.4068298609892416 0.047373512584613059 0.0050711623475087004 -0.011890551934129247 -0.029126874945675146 0.81500000000000006 -22.427685795673931 -0.13455412625601998 -0.0052963178740341984 10.856148782744443 0.84730879899898104\ndecision_type=2 2 2 2 2 2 2 2 2 2 2\nleft_child=7 3 -3 4 -2 -5 -4 8 -1 -10 -9\nright_child=1 2 6 5 -6 -7 -8 10 9 -11 -12\nleaf_value=0.029395169365957444 0.030579892706832954 -0.023495902240051502 0.031742393822513169 0.027378266980719386 0.017948666969350054 0.036984305853118855 0.0037535077300047408 0.044665008215866712 0.011812382946292138 -0.010606831925745193 0.012143672410604196\nleaf_weight=43.408070504665375 396.53960713744164 24.630727767944336 83.037697404623032 1254.6388491690159 547.16867008805275 550.79413205385208 68.371167376637459 31.070137053728104 106.94574652612209 53.615225538611412 21.420780718326569\nleaf_count=139 1186 99 247 3773 1756 1512 244 89 375 211 75\ninternal_value=0.0260276 0.0270388 0.0131368 0.0279226 0.0232867 0.0303296 0.0192341 0.0144211 0.00976335 0.00428508 0.0319341\ninternal_weight=3181.64 2925.18 176.04 2749.14 943.708 1805.43 151.409 256.46 203.969 160.561 52.4909\ninternal_count=9706 8817 590 8227 2942 5285 491 889 725 586 164\nis_linear=0\nshrinkage=0.035\n\n\nTree=11\nnum_leaves=15\nnum_cat=0\nsplit_feature=8 8 4 28 28 30 27 5 5 2 1 29 24 7\nsplit_gain=28.1824 24.0112 29.0557 35.5338 26.8158 24.2716 17.9842 11.5012 12.2775 11.6784 16.3702 14.051 8.53572 7.54129\nthreshold=0.63 0.92790618125134594 0.018569831852466256 0.8650000000000001 0.095000000000000015 -6.5215664589486755 0.0043409950543890517 0.012559916320118502 0.015902080304305555 18.453052705622941 0.011542801100186352 2.4556129827902811 -0.0052614561108158993 12.67775153822401\ndecision_type=2 2 2 2 2 2 2 2 2 2 2 2 2 2\nleft_child=7 4 5 -4 12 -3 -6 9 -9 10 -1 -11 -2 -10\nright_child=1 2 3 -5 6 -7 -8 8 13 11 -12 -13 -14 -15\nleaf_value=0.030736816730993131 0.018887640107510983 0.039706828722782632 0.002751241419262679 0.028614114141797511 0.013413913208630814 0.025566712369693677 0.023577597308740046 0 0.032271236261414489 -0.0030496279287808704 0.056133002563213186 0.027152286859966002 0.042452156598251078 0.0096436343606729012\nleaf_weight=818.20575834810734 29.858501553535461 205.71954609453678 131.45993791520596 128.97703117132187 675.66392524540424 602.70654571056366 318.64401283860207 31.905830204486847 60.097730740904808 26.766128525137901 33.388583704829216 59.994804531335831 70.469436913728714 27.908441871404648\nleaf_count=2275 96 569 466 376 2240 1833 1002 115 173 92 73 176 195 93\ninternal_value=0.0244907 0.0221673 0.0259258 0.0156332 0.0184738 0.0292139 0.016695 0.0292118 0.0186464 0.030537 0.0318013 0.0178664 0.0357293 0.0253239\ninternal_weight=3221.77 2163.5 1068.86 260.437 1094.64 808.426 994.308 1058.27 119.912 938.355 851.594 86.7609 100.328 88.0062\ninternal_count=9774 6777 3244 842 3533 2402 3242 2997 381 2616 2348 268 291 266\nis_linear=0\nshrinkage=0.035\n\n\nTree=12\nnum_leaves=11\nnum_cat=0\nsplit_feature=32 30 28 5 4 25 23 28 26 8\nsplit_gain=30.4048 29.152 24.6725 26.0526 17.0397 12.3874 14.0748 18.9315 14.1242 9.32341\nthreshold=1.4068298609892416 25.700698633397305 0.80500000000000016 0.037790283868985509 -0.0027053228155151494 0.0018597504140299502 -0.0058328992683261494 0.65500000000000014 0.0045864531578448508 0.82816413120036569\ndecision_type=2 2 2 2 2 2 2 2 2 2\nleft_child=5 2 3 -2 -4 9 7 -7 -8 -1\nright_child=1 -3 4 -5 -6 6 8 -9 -10 -11\nleaf_value=0.037578408176997036 0.023841112412870034 -0.010320021021992833 0.023967639136429544 0.0059059285071986246 0.033514780915091226 0.040191032494336164 -0.010437758214078311 0.00016188794127563097 0.013778145270765894 0.012897218502433874\nleaf_weight=33.271540239453316 1821.372999176383 27.918781712651253 401.40412174165249 106.3017550855875 599.64699004590511 29.237844914197922 67.678214848041534 28.115506574511528 50.727645739912987 46.550773069262505\nleaf_count=96 5462 104 1184 374 1645 84 265 102 174 158\ninternal_value=0.0238688 0.0248728 0.0252129 0.0228575 0.0297178 0.0121892 0.00689847 0.0209672 -5.32288e-06 0.0235658\ninternal_weight=3212.23 2956.64 2928.73 1927.67 1001.05 255.582 175.759 57.3534 118.406 79.8223\ninternal_count=9648 8769 8665 5836 2829 879 625 186 439 254\nis_linear=0\nshrinkage=0.035\n\n\nTree=13\nnum_leaves=14\nnum_cat=0\nsplit_feature=8 32 3 27 5 6 6 5 31 24 1 7 6\nsplit_gain=29.3811 18.8024 17.9895 36.8288 29.6681 13.3697 14.0261 12.3609 17.1892 12.4445 16.4556 9.62662 8.0591\nthreshold=0.63 1.4068298609892416 0.00031365936916010004 0.0030849979831607502 0.015902080304305555 0.007544449276219601 0.019197506883360305 0.012559916320118502 2.4685874704176358 0.021358308262437006 0.0080802250939378019 11.120715788953923 0.028480396176835752\ndecision_type=2 2 2 2 2 2 2 2 2 2 2 2 2\nleft_child=7 5 3 -3 -4 -2 -7 9 11 10 -1 -9 -11\nright_child=1 2 4 -5 -6 6 -8 8 -10 12 -12 -13 -14\nleaf_value=0.02787035403859538 0.035117371940193751 0.0081508237064657364 0.036345494753785609 0.022788862725759765 0.021318037829071747 -0.00065212168781633554 0.016066224905857893 0.023020224430452096 0.033551310954919283 0.0075459703411394439 0.042728063525859734 -0.0020376586352838888 0.02781857034247746\nleaf_weight=739.54341381788254 25.203896254301071 329.53635869920254 206.0431123226881 594.59024073183537 795.72958442568779 109.6190257370472 137.62648740410805 27.654112368822098 45.28093533217907 57.287764489650726 109.68165424466133 53.473896011710167 42.615758970379829\nleaf_count=2045 73 1090 566 1796 2417 404 458 83 126 181 260 188 116\ninternal_value=0.0222928 0.019945 0.0211673 0.0175873 0.0244455 0.0112462 0.00866709 0.0270655 0.0164934 0.028451 0.0298414 0.0066375 0.0164183\ninternal_weight=3273.89 2198.35 1925.9 924.127 1001.77 272.449 247.246 1075.54 126.409 949.129 849.225 81.128 99.9035\ninternal_count=9803 6804 5869 2886 2983 935 862 2999 397 2602 2305 271 297\nis_linear=0\nshrinkage=0.035\n\n\nTree=14\nnum_leaves=13\nnum_cat=0\nsplit_feature=32 28 0 3 27 26 1 24 27 6 24 2\nsplit_gain=25.5092 22.6016 31.6791 31.3725 19.4056 26.1209 18.8467 16.8607 15.1091 19.797 17.1387 13.3842\nthreshold=1.4217529113428875 0.82500000000000007 25.593662917378484 0.0066482203643347011 0.0086186053565391017 0.013224567577671301 0.0028453893337326004 0.037391766126925054 0.0062395459217313006 0.031778420526973959 -0.016770806859150496 -7.2674099795421521\ndecision_type=2 2 2 2 2 2 2 2 2 2 2 2\nleft_child=8 2 7 -4 6 -6 -3 -2 9 10 -1 -10\nright_child=1 4 3 -5 5 -7 -8 -9 11 -11 -12 -13\nleaf_value=-0.010687269250015594 0.025595717332730531 0.0057897632426593499 0.018558174198853021 0.0015742903534522561 -0.018965117929706312 0.025435214655357214 0.029380495653186026 0.0027805315138571675 0.044365112153829482 -0.022385183665636344 0.015655388582538923 0.008875076733744592\nleaf_weight=36.201163113117218 985.7993827611208 44.54675729572773 839.22088761627674 159.11694553494453 25.383674055337906 41.221227169036865 864.81885997951031 41.972084119915962 27.685040652751923 23.723659098148346 162.73945198953152 25.503445491194725\nleaf_count=140 2794 142 2592 553 95 120 2370 137 75 95 541 88\ninternal_value=0.0215433 0.022482 0.0203407 0.015859 0.0268984 0.00843188 0.0282363 0.024671 0.0112703 0.00717764 0.0108148 0.0278903\ninternal_weight=3277.93 3002.08 2026.11 998.338 975.971 66.6049 909.366 1027.77 275.853 222.664 198.941 53.1885\ninternal_count=9742 8803 6076 3145 2727 215 2512 2931 939 776 681 163\nis_linear=0\nshrinkage=0.035\n\n\nTree=15\nnum_leaves=11\nnum_cat=0\nsplit_feature=32 30 28 5 5 24 2 29 3 28\nsplit_gain=20.9223 21.1073 19.2329 26.1186 17.4581 13.0941 18.8713 15.5833 13.4064 9.68935\nthreshold=1.4068298609892416 25.700698633397305 0.82500000000000007 0.045881417462859307 -0.011635029518118048 -0.016770806859150496 -6.940965929679936 -0.55372277549108817 0.00084601593674545007 0.43500000000000005\ndecision_type=2 2 2 2 2 2 2 2 2 2\nleft_child=5 2 3 -2 -4 6 -1 8 -7 -9\nright_child=1 -3 4 -5 -6 7 -8 9 -10 -11\nleaf_value=0.011158200247585206 0.021056045305913991 -0.006296388506358953 0.019168148464431482 -0.0015187988503515334 0.0295706766028659 0.014961874752715211 -0.027525678717674085 0.039325804603742132 -0.011515105247302395 0.015442416764711555\nleaf_weight=46.12536695599556 1997.2490440607071 31.379896566271782 295.72345849871635 64.386623606085777 670.38335871696472 81.159642532467842 21.969729542732239 41.914276987314224 31.779686838388443 45.945575967431068\nleaf_count=157 5879 113 872 237 1793 269 93 117 122 152\ninternal_value=0.0211708 0.0219968 0.0222932 0.0203489 0.0264132 0.0117137 -0.00148959 0.0161938 0.0074452 0.0271899\ninternal_weight=3328.02 3059.12 3027.74 2061.64 966.107 268.894 68.0951 200.799 112.939 87.8599\ninternal_count=9804 8894 8781 6116 2665 910 250 660 391 269\nis_linear=0\nshrinkage=0.035\n\n\nTree=16\nnum_leaves=13\nnum_cat=0\nsplit_feature=32 32 30 29 2 30 32 25 26 7 0 7\nsplit_gain=31.4502 18.7986 20.9242 22.8198 17.1867 15.8406 12.3062 13.2469 17.5522 9.71323 9.19585 9.0498\nthreshold=1.4068298609892416 1.8022354735966599 20.553826742362961 1.7365861801617386 -40.586566570153529 8.9983230819687545 1.3191743620087606 0.0019647191670882505 0.0053005544489468015 11.415957395126926 28.691739097698406 10.369687080231285\ndecision_type=2 2 2 2 2 2 2 2 2 2 2 2\nleft_child=6 2 4 -4 -2 9 7 11 -9 -3 -8 -1\nright_child=1 5 3 -5 -6 -7 10 8 -10 -11 -12 -13\nleaf_value=0.036090456956045361 0.045984356167365972 0.019683980526434958 0.017464429101871824 -0.019698032155711177 0.020617501905161168 0.0567689073109287 0.0062308476291872026 -0.0048198968098282224 0.020239907504818404 0.040125368420321619 -0.023883025332656033 0.01077527301106525\nleaf_weight=36.70711275935173 33.035610720515251 83.586386457085609 51.118517428636551 32.070819988846779 2799.1170141994953 28.204045042395592 26.435445249080658 81.831253990530968 57.324991017580032 47.203209266066551 21.712427347898483 35.12742306292057\nleaf_count=103 79 242 155 122 8113 63 91 308 182 118 88 117\ninternal_value=0.0200911 0.0210794 0.0204224 0.00303233 0.0209308 0.0329016 0.00831637 0.0119576 0.00554919 0.0273365 -0.00748751 0.0240772\ninternal_weight=3333.47 3074.34 2915.34 83.1893 2832.15 158.994 259.139 210.991 139.156 130.79 48.1479 71.8345\ninternal_count=9781 8892 8469 277 8192 423 889 710 490 360 179 220\nis_linear=0\nshrinkage=0.035\n\n\nTree=17\nnum_leaves=13\nnum_cat=0\nsplit_feature=28 28 24 20 27 7 32 30 3 27 23 31\nsplit_gain=25.6073 35.5633 29.2448 23.8556 18.2925 28.9069 16.0945 12.372 11.5647 13.18 13.0052 10.4837\nthreshold=0.045000000000000005 0.80500000000000016 0.074912729991446367 1.0000000180025095e-35 0.0080659130224670517 12.885506155472237 1.4217529113428875 -3.5397280799712809 -0.0048861347900992997 0.0024820900449771502 -0.0032030542388547995 1.211233932059596\ndecision_type=2 2 2 2 2 2 2 2 2 2 2 2\nleft_child=8 2 3 -2 6 -6 -3 -4 -1 11 -11 -10\nright_child=1 4 7 -5 5 -7 -8 -9 9 10 -12 -13\nleaf_value=0.044061006787448072 0.012926362573468119 0.0079266057287388295 0.050217099055224874 0.022706128778398702 0.022249390386860909 -0.017772724050233783 0.02600732066873274 0.018204580477924465 0.045728772651804292 0.026487654341468408 -0.0030979275047711926 0.018409382232071773\nleaf_weight=62.711055904626846 1517.8323432356119 66.001314148306847 41.289490476250648 386.85975663363934 64.656294718384743 32.352437198162079 983.8351171463728 25.954780369997025 48.291966617107391 44.082334786653519 29.877717345952988 30.477753177285194\nleaf_count=145 4743 225 92 1060 185 120 2658 75 115 119 100 85\ninternal_value=0.019439 0.0186179 0.0157454 0.0149254 0.0235359 0.00882114 0.0248826 0.0383601 0.0311687 0.0256002 0.0146074 0.0355655\ninternal_weight=3334.22 3118.78 1971.94 1904.69 1146.85 97.0087 1049.84 67.2443 215.441 152.73 73.9601 78.7697\ninternal_count=9722 9158 5970 5803 3188 305 2883 167 564 419 219 200\nis_linear=0\nshrinkage=0.035\n\n\nTree=18\nnum_leaves=10\nnum_cat=0\nsplit_feature=8 2 8 4 28 31 5 31 1\nsplit_gain=22.0957 17.4336 17.7586 31.247 25.5101 7.78667 9.25361 17.9796 12.4543\nthreshold=0.63 -40.586566570153529 0.92790618125134594 0.018569831852466256 0.095000000000000015 3.0613940531042645 0.012559916320118502 2.2629117379990054 0.0083562535079537512\ndecision_type=2 2 2 2 2 2 2 2 2\nleft_child=5 -2 4 -4 -3 6 8 -8 -1\nright_child=1 2 3 -5 -6 -7 7 -9 -10\nleaf_value=0.023183120868914817 0.037935637282456983 0.029933426058450056 0.023030816958833727 0.0090562142230028592 0.011697012475949344 0.0088282474758643193 0.0035063114602453325 0.034272666257339553 0.034774055817194845\nleaf_weight=815.49690572917461 47.99943508207798 103.73523010313511 846.96429984271526 258.53239871561527 997.4056663364172 46.664870858192444 71.410236611962318 33.931812912225723 138.94439755380154\nleaf_count=2188 120 285 2402 813 3127 145 232 87 328\ninternal_value=0.0191104 0.0170976 0.0166258 0.019777 0.0134438 0.0231896 0.0238097 0.0136785 0.0249088\ninternal_weight=3361.09 2254.64 2206.64 1105.5 1101.14 1106.45 1059.78 105.342 954.441\ninternal_count=9727 6747 6627 3215 3412 2980 2835 319 2516\nis_linear=0\nshrinkage=0.035\n\n\nTree=19\nnum_leaves=13\nnum_cat=0\nsplit_feature=28 2 4 0 1 30 27 1 1 2 32 29\nsplit_gain=18.9964 34.8263 26.0436 28.972 21.3828 20.3988 19.43 34.7091 17.7669 16.4056 15.3794 9.09476\nthreshold=0.80500000000000016 21.468732945303604 0.025645250880444954 29.745751088455254 0.0020093828064239004 2.2408389476032373 0.0086186053565391017 0.017436527104512455 0.0026299230864622503 33.269237635362508 1.4217529113428875 3.3765771296786675\ndecision_type=2 2 2 2 2 2 2 2 2 2 2 2\nleft_child=1 2 4 -4 -1 11 8 -8 -2 -7 -10 -3\nright_child=6 5 3 -5 -6 9 7 -9 10 -11 -12 -13\nleaf_value=0.032700201453699985 -0.0019901726275004311 0.00096753580536210779 0.020698467996015116 -0.019559934434625073 0.017080562453686682 -0.021198303602562186 -0.022016966886533592 0.024077321628945849 0.0071773613233242434 0.01144514605643498 0.024823396509690617 0.029215503711821932\nleaf_weight=114.9262198060751 33.644282326102257 27.281913995742798 38.563885554671288 48.014883205294609 1883.073773637414 60.532036542892456 33.267705976963043 47.07524798810482 66.206560090184212 26.287311047315598 965.85283268988132 28.337347880005836\nleaf_count=291 108 88 115 188 5520 223 125 132 223 82 2574 77\ninternal_value=0.0179473 0.0160389 0.0171825 -0.0015565 0.0179967 -0.000676933 0.0216356 0.00491195 0.0228873 -0.0112568 0.0237028 0.0156832\ninternal_weight=3373.06 2227.02 2084.58 86.5788 1998 142.439 1146.05 80.343 1065.7 86.8193 1032.06 55.6193\ninternal_count=9746 6584 6114 303 5811 470 3162 257 2905 305 2797 165\nis_linear=0\nshrinkage=0.035\n\n\nTree=20\nnum_leaves=15\nnum_cat=0\nsplit_feature=8 28 5 24 27 2 1 31 4 5 31 26 26 5\nsplit_gain=16.3446 15.0637 23.5643 20.1969 14.3849 14.0151 38.533 20.1499 8.16767 17.0859 12.2199 8.40902 20.3963 13.8856\nthreshold=0.63 0.81500000000000006 0.045881417462859307 0.074912729991446367 0.0079143172651568016 -7.9687784622094009 0.0096376092144205509 3.2767834741435613 -0.011859465738362848 -0.020178271763139348 1.9242399620898525 0.0021627157098274004 0.0027405175693321505 0.0041761936780459509\ndecision_type=2 2 2 2 2 2 2 2 2 2 2 2 2 2\nleft_child=8 2 3 -2 -4 7 -7 -3 9 -1 -11 13 -13 -10\nright_child=1 5 4 -5 -6 6 -8 -9 11 10 -12 12 -14 -15\nleaf_value=0.02634594582999044 0.013330012724012436 0.027264607786405465 0.0061654133562047044 0.03267470747945108 -0.029051539637294087 0.019617250130705761 -0.009537240381049238 0.0061984014858198627 0.020294773967105367 0.016146310164030269 -0.010379202200051672 0.035155461269557091 0.020622493617308515 0.00028657142454859577\nleaf_weight=63.677514582872391 1358.4895182698965 349.97611053287983 33.137072905898094 69.392818138003349 23.369144827127457 312.55076776444912 66.674003675580025 67.450923606753349 258.73515133559704 39.716165646910667 43.490820482373238 160.03997002542019 500.00288891792297 51.260212004184723\nleaf_count=165 4154 911 114 174 99 883 234 206 695 109 145 387 1343 158\ninternal_value=0.0172496 0.0155274 0.0134161 0.0142948 -0.00859024 0.0194353 0.0144706 0.0238919 0.0207467 0.0128453 0.00228172 0.0219251 0.0241994 0.0170091\ninternal_weight=3397.96 2281.04 1484.39 1427.88 56.5062 796.652 379.225 417.427 1116.92 146.885 83.207 970.038 660.043 309.995\ninternal_count=9777 6775 4541 4328 213 2234 1117 1117 3002 419 254 2583 1730 853\nis_linear=0\nshrinkage=0.035\n\n\nTree=21\nnum_leaves=12\nnum_cat=0\nsplit_feature=32 2 5 27 6 27 6 6 6 29 2\nsplit_gain=28.0094 18.6799 19.6675 30.2707 18.0952 37.3393 15.657 11.1054 16.1172 14.5274 7.06487\nthreshold=1.4068298609892416 23.112182543755988 0.047373512584613059 0.0050038045399865014 0.012334864506272952 0.0032525824152441507 0.027297711963546956 0.0074271203243175508 0.012622259350442302 -0.63189156978415151 2.7130163746891776\ndecision_type=2 2 2 2 2 2 2 2 2 2 2\nleft_child=7 2 6 -4 -3 -6 -2 -1 10 -10 -9\nright_child=1 4 3 -5 5 -7 -8 8 9 -11 -12\nleaf_value=0.028349902601853307 0.018019654212828463 0.034109074589536235 -0.025743597086521519 0.013590517368940007 -0.013425869115387996 0.015537867503382787 0.024185416085150572 -0.02606236915084106 0.017095684955623275 -0.0019531463923185572 0.0012475434757812432\nleaf_weight=24.029340162873268 1998.2431275695562 30.778821885585785 26.967573314905167 166.81358525156975 80.56445474922657 163.40380655229092 698.60979741811752 26.473139151930809 103.78138665854931 91.293184727430344 19.529416725039482\nleaf_count=66 5601 79 102 508 282 479 1866 106 329 321 67\ninternal_value=0.0171036 0.0180196 0.018851 0.00799455 0.00922351 0.00594326 0.0196265 0.00612621 0.00378864 0.00819865 -0.0146142\ninternal_weight=3430.49 3165.38 2890.63 193.781 274.747 243.968 2696.85 265.106 241.077 195.075 46.0026\ninternal_count=9806 8917 8077 610 840 761 7467 889 823 650 173\nis_linear=0\nshrinkage=0.035\n\n\nTree=22\nnum_leaves=14\nnum_cat=0\nsplit_feature=28 5 28 30 32 6 30 30 30 7 28 25 3\nsplit_gain=18.4308 21.7658 19.1184 22.9441 14.8676 13.1134 11.2971 15.1275 14.7319 10.4471 9.12697 8.289 6.31792\nthreshold=0.78500000000000014 0.045881417462859307 0.045000000000000005 -17.262698568790558 1.8000084482598209 0.014819337222130852 8.4326545202148839 3.3301593484266072 13.085612801169576 11.067827498785995 0.85500000000000009 0.0036065686520079005 -0.0064454676204813493\ndecision_type=2 2 2 2 2 2 2 2 2 2 2 2 2\nleft_child=1 2 12 -4 -3 9 7 -7 -8 10 -2 -11 -1\nright_child=5 4 3 -5 -6 6 8 -9 -10 11 -12 -13 -14\nleaf_value=0.03645623755271632 0.030246150237621276 -0.02119087109917334 0.027029624779882303 0.011938732269839204 0.014162188009712189 0.017412756606860078 0.031029534718946112 0.0046474940952342869 0.0162193884121298 0.026452915268646356 0.0050951913995287137 0.046683990185453973 0.020807416224169886\nleaf_weight=41.710593208670616 31.496153146028519 35.789367750287056 133.06538631021976 1756.100785985589 23.133303582668304 543.86719860136509 147.17936472594738 145.86405710875988 200.08323793113232 81.589636221528053 40.740031898021698 41.64028088748455 181.37543639540672\nleaf_count=96 80 144 358 5212 76 1509 370 439 565 210 121 90 487\ninternal_value=0.0155536 0.0135927 0.0141789 0.0130173 -0.00724798 0.0189913 0.0173797 0.0147289 0.0225775 0.027391 0.0163725 0.0336381 0.0238985\ninternal_weight=3403.63 2171.17 2112.25 1889.17 58.9227 1232.46 1036.99 689.731 347.263 195.466 72.2362 123.23 223.086\ninternal_count=9757 6373 6153 5570 220 3384 2883 1948 935 501 201 300 583\nis_linear=0\nshrinkage=0.035\n\n\nTree=23\nnum_leaves=12\nnum_cat=0\nsplit_feature=28 32 2 5 7 28 25 7 29 29 24\nsplit_gain=17.4182 13.0631 17.084 28.5362 16.6859 15.1 13.5839 9.14906 9.93743 16.93 5.04121\nthreshold=0.045000000000000005 1.8000963509093406 19.503354459799766 -0.047406345734677294 13.949376645930561 0.35500000000000004 0.0026573896818167506 9.4771818206085108 0.92220450459255454 0.037792056406808307 0.0035520641716239505\ndecision_type=2 2 2 2 2 2 2 2 2 2 2\nleft_child=7 2 3 -2 5 -3 -4 -1 9 -9 -10\nright_child=1 4 6 -5 -6 -7 -8 8 10 -11 -12\nleaf_value=0.037604450669391269 0.037181733765881561 0.010816523782940027 -0.012349083231975583 0.01324838873823537 -0.0057246112939645377 0.022002435422300782 0.0082749255374439182 0.023537754570192367 0.038250281949752947 -0.0050599071336555994 0.018293163018925741\nleaf_weight=50.748008444905281 62.436183899641037 203.23948436975479 48.32481823861599 2056.4181799888611 33.791003957390785 590.72718173265457 187.46353122591972 70.362381592392921 42.85927702486515 38.589510351419449 30.448716625571251\nleaf_count=119 149 588 165 5978 110 1598 567 185 97 119 80\ninternal_value=0.0150134 0.0143252 0.0129774 0.0139725 0.0181349 0.0191607 0.00399895 0.0242952 0.0203854 0.0134231 0.0303659\ninternal_weight=3415.41 3182.4 2354.64 2118.85 827.758 793.967 235.788 233.008 182.26 108.952 73.308\ninternal_count=9755 9155 6859 6127 2296 2186 732 600 481 304 177\nis_linear=0\nshrinkage=0.035\n\n\nTree=24\nnum_leaves=11\nnum_cat=0\nsplit_feature=32 8 0 31 32 32 1 23 6 22\nsplit_gain=17.7319 16.6359 12.9586 28.4973 15.9862 8.11239 6.35109 6.319 4.93864 7.44545\nthreshold=1.8022354735966599 0.63 33.183636262031001 1.0495817916629198 1.0782321494079417 1.7971993580830692 0.0035572845845780504 0.0079286600115893516 0.017625990308026553 -0.00010704684064844999\ndecision_type=2 2 2 2 2 2 2 2 2 2\nleft_child=1 5 4 -4 -3 -1 -7 8 9 -2\nright_child=7 2 3 -5 -6 6 -8 -9 -10 -11\nleaf_value=0.0027092273287461772 0.01252107102700117 -0.005253480179161535 0.020175468153430482 0.0084156159746104128 0.01123199570886552 0.013877146909087357 0.020363710087230879 0.013200225016783196 0.039687643122318761 0.034319797554005889\nleaf_weight=41.291668176651001 38.916621625423431 76.325059831142426 641.88623942434788 421.51364441215992 1082.4936968535185 263.95732867717743 756.89900001883507 38.603908464312553 45.762711018323898 42.269046947360039\nleaf_count=121 109 269 1776 1258 3232 722 1980 108 106 102\ninternal_value=0.0150413 0.0144668 0.0127263 0.0155296 0.0101396 0.0180897 0.0187052 0.0262618 0.0300722 0.0241926\ninternal_weight=3449.92 3284.37 2222.22 1063.4 1158.82 1062.15 1020.86 165.552 126.948 81.1857\ninternal_count=9783 9358 6535 3034 3501 2823 2702 425 317 211\nis_linear=0\nshrinkage=0.035\n\n\nTree=25\nnum_leaves=15\nnum_cat=0\nsplit_feature=0 28 1 5 31 26 2 32 22 5 6 26 2 31\nsplit_gain=16.7585 14.4582 21.5137 19.0575 14.9019 23.9521 17.3353 14.1995 12.8727 14.4937 10.463 13.0305 7.21209 7.0764\nthreshold=21.108999087400417 0.82500000000000007 0.0020770705732259501 -0.053675387191017693 3.2767834741435613 0.0081445622903174517 -7.9687784622094009 1.8003302394013574 0.012359739416701402 -0.013697300492731998 0.023390292469684656 0.0028167402561487505 7.559932698791898 1.9242399620898525\ndecision_type=2 2 2 2 2 2 2 2 2 2 2 2 2 2\nleft_child=7 2 12 -4 6 -6 -3 8 9 -1 11 -9 -2 -10\nright_child=1 4 3 -5 5 -7 -8 10 13 -11 -12 -13 -14 -15\nleaf_value=-0.0068932530636291178 0.040770875037939386 0.023320047632568269 0.028312744613766521 0.0088738388668181904 0.012694841857250276 -0.022998826636835168 0.012447869449120578 0.029257433946865599 0.03509152539291488 0.015194779378305627 0.045116756719301571 0.0080669373772087084 0.016122674916824727 0.015282981472623695\nleaf_weight=37.96513868868351 35.685769140720367 385.00465725362301 63.921835482120514 1487.9465886801481 119.15922038257122 27.482836991548538 348.85264621675014 114.91562195122242 60.148106098175049 598.3020488768816 31.273619413375854 53.419846192002296 28.566824525594711 39.825470671057701\nleaf_count=118 82 985 161 4523 342 102 991 279 135 1612 65 151 80 109\ninternal_value=0.0140321 0.012519 0.0105333 0.0096945 0.0161434 0.00587116 0.0181805 0.0180476 0.0157491 0.0138626 0.026387 0.0226408 0.0302809 0.0274648\ninternal_weight=3432.47 2496.62 1616.12 1551.87 880.499 146.642 733.857 935.85 736.241 636.267 199.609 168.335 64.2526 99.9736\ninternal_count=9735 7266 4846 4684 2420 444 1976 2469 1974 1730 495 430 162 244\nis_linear=0\nshrinkage=0.035\n\n\nTree=26\nnum_leaves=12\nnum_cat=0\nsplit_feature=8 6 1 30 23 7 25 0 30 7 7\nsplit_gain=17.3674 18.0438 31.2684 24.6444 19.0327 13.064 12.3854 8.83265 10.6547 32.023 25.9057\nthreshold=0.63 0.026379619455561356 0.0094054923781549029 20.553826742362961 0.0064802471498482507 10.279605599048748 0.0057551630702418009 30.557473105640884 -1.1409277411518708 12.810281603703404 11.444866218250555\ndecision_type=2 2 2 2 2 2 2 2 2 2 2\nleft_child=7 2 4 5 -2 -3 -5 8 9 -1 -10\nright_child=1 3 -4 6 -6 -7 -8 -9 10 -11 -12\nleaf_value=0.017380862850329384 0.011905899776576691 0.026986989682480395 -0.027280747703585781 0.0087923294209496603 0.0014108843520173144 0.015202605148161233 -0.018778644224363573 0.00042369331208617586 0.012474612834644992 -0.0070987302804633263 0.028944484939264485\nleaf_weight=546.15268762409687 1093.9423482865095 140.84227566421032 27.342437863349915 45.033818751573563 263.72945067286491 709.17639401555061 34.187608331441879 38.61563828587532 217.40768657624722 73.590544432401657 261.65584896504879\nleaf_count=1431 3200 368 102 134 828 2014 123 117 590 228 637\ninternal_value=0.0134234 0.011667 0.0091172 0.0154497 0.00987234 0.0171887 -0.00314793 0.0169807 0.0175585 0.0144617 0.021519\ninternal_weight=3451.68 2314.25 1385.01 929.24 1357.67 850.019 79.2214 1137.42 1098.81 619.743 479.064\ninternal_count=9772 6769 4130 2639 4028 2382 257 3003 2886 1659 1227\nis_linear=0\nshrinkage=0.035\n\n\nTree=27\nnum_leaves=15\nnum_cat=0\nsplit_feature=5 5 26 22 32 27 7 27 8 30 28 0 0 30\nsplit_gain=14.7792 30.1162 24.4375 20.844 18.8643 19.0629 21.3375 18.1931 13.8168 15.9682 13.6333 13.8726 13.1666 0.836998\nthreshold=-0.011635029518118048 -0.027573607481451396 0.0030018141706189506 0.0052392706494650007 1.4068298609892416 0.0083828983189620006 12.78418805367607 0.0067220113626518503 0.56500000000000006 -7.9674006861648357 0.35500000000000004 27.742583143489803 33.317018717393417 -0.16005885294381891\ndecision_type=2 2 2 2 2 2 2 2 2 2 2 2 2 2\nleft_child=1 2 -1 -4 10 7 -7 -6 13 -10 11 -2 -12 -3\nright_child=4 8 3 -5 5 6 -8 -9 9 -11 12 -13 -14 -15\nleaf_value=-0.011788013580043218 0.028151226619408637 0.015457321213279881 0.028067823751351681 0.012555140276726705 0.015761952280185863 0.011137203589220141 -0.025849051860382725 0.029410137400330581 0.012924629762141008 -0.00063252522857386046 -0.0073962586846944125 -0.0037030796136998979 0.015702057943259688 0.025365592115747033\nleaf_weight=34.071199923753738 48.382727965712547 35.0703015178442 175.42874141037464 278.01012712717056 1923.0404784083366 63.130385160446167 26.215217605233192 128.9791988581419 143.58755801618099 401.3272609859705 107.35991829633713 24.748459100723267 40.907408654689789 27.610945984721184\nleaf_count=114 133 93 444 794 5223 187 98 322 413 1263 383 84 123 68\ninternal_value=0.0133756 0.00998635 0.0164614 0.018613 0.0149402 0.0159467 8.01985e-05 0.0166354 0.00476678 0.00295057 0.0051615 0.0174196 -0.000937415 0.0202066\ninternal_weight=3457.87 1095.11 487.51 453.439 2362.76 2141.37 89.3456 2052.02 607.596 544.915 221.399 73.1312 148.267 62.6812\ninternal_count=9742 3189 1352 1238 6553 5830 285 5545 1837 1676 723 217 506 161\nis_linear=0\nshrinkage=0.035\n\n\nTree=28\nnum_leaves=12\nnum_cat=0\nsplit_feature=5 6 6 2 3 30 2 23 30 30 3\nsplit_gain=13.4623 16.9527 24.5692 23.5159 17.1003 12.9913 12.9776 14.9415 12.0702 7.8262 4.0391\nthreshold=-0.049579327452029642 0.014819337222130852 0.019544707271849506 23.112182543755988 -0.0031041954737375493 0.5086891373795962 13.704902209364533 0.0040569656299747512 10.449843799225077 -3.5397280799712809 -0.0084366033192399981\ndecision_type=2 2 2 2 2 2 2 2 2 2 2\nleft_child=5 6 4 -4 -3 10 7 -2 -7 -8 -1\nright_child=1 2 3 -5 -6 8 9 -9 -10 -11 -12\nleaf_value=0.025148015331748808 0.014676285315378595 0.012110902538854471 0.013495089477456384 -0.0019830780580787862 -0.001238696647372324 -0.0033350761257605792 -0.0042780612342430977 0.025315740806856626 0.024375018072463842 0.01135322725108031 0.043728522180189709\nleaf_weight=43.087430775165558 802.74746733903885 179.2892159819603 1459.3176788538694 130.34788002073765 336.18712650239468 33.379206508398056 54.702594220638275 207.02126823365688 43.218959659337997 131.65708312392235 29.896051943302155\nleaf_count=110 2223 503 4088 412 1044 105 171 521 115 374 63\ninternal_value=0.0124501 0.0119754 0.01007 0.0122233 0.00341215 0.0227546 0.0153146 0.0168839 0.0123673 0.00674791 0.0332946\ninternal_weight=3450.85 3301.27 2105.14 1589.67 515.476 149.582 1196.13 1009.77 76.5982 186.36 72.9835\ninternal_count=9729 9336 6047 4500 1547 393 3289 2744 220 545 173\nis_linear=0\nshrinkage=0.035\n\n\nTree=29\nnum_leaves=13\nnum_cat=0\nsplit_feature=32 27 27 30 1 5 31 28 27 27 4 1\nsplit_gain=15.3893 19.6767 19.1985 30.0898 15.6972 24.0738 16.7585 15.6898 13.4462 10.6132 16.5045 14.438\nthreshold=1.4068298609892416 0.0083828983189620006 0.0068702857628406009 -9.3810323844859305 0.017436527104512455 0.047373512584613059 1.146301579495018 0.80500000000000016 0.0016597694463975001 0.0042776282162592513 -0.0052963178740341984 0.0075497336413676511\ndecision_type=2 2 2 2 2 2 2 2 2 2 2 2\nleft_child=8 2 7 -4 5 -3 -6 -2 -1 10 -10 -11\nright_child=1 4 3 -5 6 -7 -8 -9 9 11 -12 -13\nleaf_value=0.029747087453078171 0.011528650977813292 0.0029863296810084317 0.048661990730546285 0.016186585653975037 0.026693620652979956 -0.037135433719966873 -0.0066280863586660483 0.017087252857281382 0.022163783699730683 0.031263048800887372 -0.0091448025980306966 0.0026447187244344242\nleaf_weight=23.099507883191109 1926.1192433387041 64.315655723214149 48.240283027291298 129.07094632089138 44.707133591175079 24.474079325795174 30.258467838168144 936.84397438168526 23.823219269514084 29.05656524002552 120.55040775239468 78.640838414430618\nleaf_count=60 5440 191 100 347 115 100 99 2455 70 80 427 255\ninternal_value=0.0127385 0.0134215 0.014058 0.025265 0.0015688 -0.0083243 0.0132877 0.0133541 0.00475358 0.00234088 -0.00383755 0.0106147\ninternal_weight=3479.2 3204.03 3040.27 177.311 163.755 88.7897 74.9656 2862.96 275.171 252.071 144.374 107.697\ninternal_count=9739 8847 8342 447 505 291 214 7895 892 832 497 335\nis_linear=0\nshrinkage=0.035\n\n\nTree=30\nnum_leaves=13\nnum_cat=0\nsplit_feature=32 31 30 2 4 2 15 22 22 25 1 2\nsplit_gain=17.4356 14.1756 18.8503 23.0071 16.3659 22.6071 16.2641 14.1629 9.54786 8.5817 15.9999 7.82173\nthreshold=1.4068298609892416 2.1076205912493875 19.075716021557351 -38.752174024337229 0.019838518668482453 -17.166878656920328 1.0000000180025095e-35 -0.011059278927164398 0.0071618325140504003 0.0021670403552300006 0.0074338891106442003 5.0538392970127459\ndecision_type=2 2 2 2 2 2 2 2 2 2 2 2\nleft_child=8 4 3 -3 6 -6 -2 -4 9 11 -11 -1\nright_child=1 2 7 -5 5 -7 -8 -9 -10 10 -12 -13\nleaf_value=0.013900782099549307 0.017449544270578137 0.035141965811510752 -0.02679034335064925 0.0083667527047513058 0.020674224870151057 -0.0054311998004706484 0.011408759178813069 0.0030376523106951984 0.02302172162357341 -0.015449306511457653 0.0076677018478452461 -0.0077950925485437772\nleaf_weight=79.353495851159096 1086.570321470499 41.042432755231857 29.122108101844788 665.66229404509068 60.225909888744354 119.68329282104969 1129.8830101191998 54.334134817123413 25.445893153548241 77.118686854839325 68.062682285904884 26.307345315814018\nleaf_count=239 2856 95 107 1917 161 388 3130 168 71 288 216 89\ninternal_value=0.0114775 0.0122091 0.00811448 0.00997415 0.0135538 0.00335441 0.0143782 -0.00752337 0.00301353 0.000886609 -0.00460953 0.00844371\ninternal_weight=3462.81 3186.52 790.161 706.705 2396.36 179.909 2216.45 83.4562 276.288 250.842 145.181 105.661\ninternal_count=9725 8822 2287 2012 6535 549 5986 275 903 832 504 328\nis_linear=0\nshrinkage=0.035\n\n\nTree=31\nnum_leaves=14\nnum_cat=0\nsplit_feature=8 5 1 27 1 3 30 5 29 30 31 32 6\nsplit_gain=14.756 12.6089 29.7818 23.8374 22.7903 19.2727 14.7168 10.5624 11.3518 10.0851 9.58024 11.361 8.86705\nthreshold=0.63 -0.027573607481451396 0.0096376092144205509 0.0034682653843856504 0.015907064795474806 -0.012937419131983699 4.5501294540717021 0.0067642909730335011 3.7017115481836185 -1.1409277411518708 2.1076205912493875 1.7998592842436538 0.025484876733619002\ndecision_type=2 2 2 2 2 2 2 2 2 2 2 2 2\nleft_child=7 2 3 -2 -4 -3 -7 10 9 -9 12 -12 -1\nright_child=1 5 4 -5 -6 6 -8 8 -10 -11 11 -13 -14\nleaf_value=0.016644306546342948 -0.0014033228871328275 -0.018369849782578759 -0.0087503611394710041 0.024811939129473017 0.02464771823160419 0.0069306097607690935 0.01337256297446866 -0.0008651144301450532 0.026862649601878928 0.01345438150683693 -0.0085235942205056734 0.014270726816000633 0.026676989309811442\nleaf_weight=604.12826636433601 49.574353963136673 30.1587935090065 87.922419756650925 282.1932809650898 33.826631858944893 1146.6417655646801 707.69084711372852 122.01239164173603 36.952612802386284 116.99210806190968 35.397112131118774 100.72548605501652 137.36198917031288\nleaf_count=1544 155 105 282 720 86 3402 1983 360 90 315 111 270 316\ninternal_value=0.0118279 0.0102156 0.0154723 0.0208918 0.000625616 0.00894116 0.0093969 0.015081 0.00902883 0.00615651 0.0169676 0.00829887 0.018541\ninternal_weight=3491.58 2338.01 453.517 331.768 121.749 1884.49 1854.33 1153.57 275.957 239.004 877.613 136.123 741.49\ninternal_count=9739 6733 1243 875 368 5490 5385 3006 765 675 2241 381 1860\nis_linear=0\nshrinkage=0.035\n\n\nTree=32\nnum_leaves=15\nnum_cat=0\nsplit_feature=28 1 8 2 1 25 26 26 31 4 2 24 1 31\nsplit_gain=19.2163 29.8081 19.7438 20.0687 17.1051 28.0175 19.6655 16.5501 15.9654 15.7744 15.7173 14.3958 10.0666 8.07871\nthreshold=0.80500000000000016 0.0020093828064239004 0.56500000000000006 -8.6581512784953834 0.0081769278678993015 0.0083406779065363021 0.0067369668756856503 0.00087289454937480003 2.8690567404514664 -0.0027053228155151494 13.341321584762728 0.037391766126925054 0.0074699672193069009 1.2223675274525334\ndecision_type=2 2 2 2 2 2 2 2 2 2 2 2 2 2\nleft_child=1 7 3 -3 9 6 -6 -1 -7 11 -4 -2 -11 -9\nright_child=4 2 10 -5 5 8 -8 13 -10 12 -12 -13 -14 -15\nleaf_value=0.0058991742673307514 0.0071607083413537274 0.0035026133742523803 0.0079662848058511902 0.018823153327050861 -0.010889805073371513 0.024494101459792993 0.010092374485584373 0.044514050244037547 0.0033727491843966559 0.019666923873915651 -0.00073376153953491087 0.023274304982507408 0.034237939272789293 0.022732906224718588\nleaf_weight=39.251987740397453 234.1694855093956 150.43187695741653 1360.4517853856087 352.63229876756668 102.67546902596951 145.0970695912838 114.86804609000683 43.203728407621384 63.727608099579811 367.4363919198513 311.73587988317013 96.219414919614792 72.266736626625061 49.865642070770264\nleaf_count=109 661 426 3997 883 320 358 320 90 193 928 965 243 163 124\ninternal_value=0.0110521 0.00917389 0.00818224 0.0142648 0.014661 0.00898687 0.000168745 0.0252658 0.0181119 0.0177822 0.00634283 0.0119201 0.0221419 0.0332469\ninternal_weight=3504.03 2307.57 2175.25 503.064 1196.46 426.368 217.544 132.321 208.825 770.092 1672.19 330.389 439.703 93.0694\ninternal_count=9780 6594 6271 1309 3186 1191 640 323 551 1995 4962 904 1091 214\nis_linear=0\nshrinkage=0.035\n\n\nTree=33\nnum_leaves=15\nnum_cat=0\nsplit_feature=28 4 1 28 30 26 30 2 5 4 5 28 28 2\nsplit_gain=14.6516 20.4611 20.7878 23.5615 22.3117 18.1563 35.8235 12.8764 20.2961 21.8138 16.0304 17.9785 14.588 10.4788\nthreshold=0.82500000000000007 0.015972914732425205 0.0073872152255080011 0.15500000000000003 -11.666562802385416 0.0060536187372240502 -14.793655191450283 -6.4277518065418997 0.0064691267433728003 -0.0025465577796676495 0.027030251364409452 0.96500000000000008 0.93500000000000016 -17.914283126552437\ndecision_type=2 2 2 2 2 2 2 2 2 2 2 2 2 2\nleft_child=1 2 3 -1 -4 6 -3 10 9 -9 11 -2 -12 -7\nright_child=7 5 4 -5 -6 13 -8 8 -10 -11 12 -13 -14 -15\nleaf_value=0.015014063502169123 0.015339893745790929 0.042959366871437102 0.034057948882418018 0.0059156494990797014 0.013042784351629125 0.0030654161970233977 -4.630727410865748e-05 0.0094838719569396226 -0.0107151109725949 0.033434584142229551 0.021088271530936748 0.033290629066003621 0.0047961228107322269 -0.023414371542959271\nleaf_weight=485.1573481708765 158.46610622107983 26.245623350143433 79.092402473092079 1251.8329480886459 291.31017643213272 27.644520491361618 182.49332132935524 435.06159770488739 52.034849360585213 51.659152090549469 113.75608842074871 125.50679725408554 166.62113273143768 50.828282669186592\nleaf_count=1278 410 59 182 3674 799 88 564 1207 167 111 285 280 474 188\ninternal_value=0.0104395 0.00889027 0.0100841 0.00846611 0.0176192 0.000113591 0.00552333 0.0137881 0.00987098 0.0120964 0.0174973 0.0233748 0.0114702 -0.0141208\ninternal_weight=3497.71 2394.6 2107.39 1736.99 370.403 287.212 208.739 1103.11 538.756 486.721 564.35 283.973 280.377 78.4728\ninternal_count=9766 6832 5933 4952 981 899 623 2934 1485 1318 1449 690 759 276\nis_linear=0\nshrinkage=0.035\n\n\nTree=34\nnum_leaves=12\nnum_cat=0\nsplit_feature=27 1 28 1 26 29 0 28 6 26 26\nsplit_gain=17.0964 28.5737 21.9882 20.499 18.8475 18.778 16.807 12.7352 12.5997 13.1953 10.6676\nthreshold=0.0083828983189620006 0.015907064795474806 0.81500000000000006 0.0020093828064239004 0.00087289454937480003 -0.30318246251960168 25.685875863074923 0.77500000000000013 0.014819337222130852 0.0018963660856864501 0.0071070324512282511\ndecision_type=2 2 2 2 2 2 2 2 2 2 2\nleft_child=2 7 3 4 -1 -3 -5 -2 9 -4 -10\nright_child=1 5 8 6 -6 -7 -8 -9 10 -11 -12\nleaf_value=0.0013036734227370459 -0.0041952662095483271 0.025120454031814822 0.006322225860848422 0.011151975062604725 0.030947712405705975 -0.0048250856553566117 0.0049177343364542785 -0.032659776468489471 0.01128984878757369 0.029152253093537885 0.020901660983762674\nleaf_weight=37.260497242212296 48.807388201355934 57.535399928689003 41.960578292608261 1064.64029969275 90.959441840648651 44.875683695077896 1064.7471319288015 31.557389944791794 703.54646667838097 130.81050047278404 180.55794896185398\nleaf_count=106 154 148 117 2913 209 144 3184 119 1889 302 455\ninternal_value=0.0102561 -0.000145235 0.0108306 0.0088689 0.022437 0.012045 0.00804011 -0.0156797 0.0150053 0.023696 0.0132782\ninternal_weight=3497.26 182.776 3314.48 2257.61 128.22 102.411 2129.39 80.3648 1056.88 172.771 884.104\ninternal_count=9740 565 9175 6412 315 292 6097 273 2763 419 2344\nis_linear=0\nshrinkage=0.035\n\n\nTree=35\nnum_leaves=13\nnum_cat=0\nsplit_feature=0 6 28 30 30 7 30 22 0 2 29 23\nsplit_gain=15.3661 15.1666 13.2484 20.2904 20.072 12.4782 26.2288 13.6282 12.2648 10.7323 9.44643 6.68207\nthreshold=21.747859082639796 0.0063289221162559509 0.85500000000000009 -14.066675621894298 -16.800188913404003 12.810281603703404 0.77784899081012526 0.0010820315191164003 19.382091363331423 7.72449953811683 0.54840262037142173 -0.0068519850543457992\ndecision_type=2 2 2 2 2 2 2 2 2 2 2 2\nleft_child=5 9 4 -4 -3 7 11 8 -1 -2 -9 -7\nright_child=1 2 3 -5 -6 6 -8 10 -10 -11 -12 -13\nleaf_value=0.0062035774325706347 0.03328983163390372 0.016968460934437865 -0.013230345486140278 0.01260172146943178 0.0042556752716287009 0.003504765931685516 0.025233131111470127 0.024799092945690191 0.019239249174682223 0.0072903596247550859 0.014501809723710403 -0.016808853254778901\nleaf_weight=317.92925517261028 47.543687894940376 169.42933650314808 38.401157781481743 705.5253150165081 1455.5425970256329 31.561400189995766 40.155460804700851 182.81072363257408 123.21272152662277 34.279902637004852 296.17009101808071 50.035592406988144\nleaf_count=869 110 459 124 1893 4353 89 97 427 306 98 760 160\ninternal_value=0.00941858 0.007895 0.00737421 0.0112476 0.00559296 0.012988 0.00240119 0.0143809 0.00988769 0.0226592 0.0184827 -0.00896194\ninternal_weight=3492.6 2450.72 2368.9 743.926 1624.97 1041.88 121.752 920.123 441.142 81.8236 478.981 81.597\ninternal_count=9745 7037 6829 2017 4812 2708 346 2362 1175 208 1187 249\nis_linear=0\nshrinkage=0.035\n\n\nTree=36\nnum_leaves=13\nnum_cat=0\nsplit_feature=0 1 4 8 31 8 22 7 0 1 4 30\nsplit_gain=12.4901 17.4759 22.3129 15.0945 15.8327 14.4768 14.2469 20.4451 15.4807 12.8788 8.16049 6.49846\nthreshold=21.747859082639796 0.0021972411954932504 -0.0025465577796676495 0.92872196102780058 1.146301579495018 0.9156355060038569 0.0033838098493249005 12.810281603703404 19.382091363331423 0.0035292035818134007 -0.011709863010165298 -7.03339124275755\ndecision_type=2 2 2 2 2 2 2 2 2 2 2 2\nleft_child=6 2 -2 5 -5 -3 8 10 9 -1 -8 -10\nright_child=1 3 -4 4 -6 -7 7 -9 11 -11 -12 -13\nleaf_value=-0.003308251682415914 0.0024677066970338439 0.0054707211324562703 0.038820575104407985 0.012941579697876657 0.0041566088381355002 -0.010437402060281504 0.011121272979062789 -0.0035399339604865027 0.0047333903025291646 0.009576420759579294 0.022711030956292948 0.021637552743744095\nleaf_weight=144.40786042809486 36.437342673540115 1152.8350173383951 47.954564332962036 778.69369094073772 374.72464716434479 73.557017639279366 105.37652970850468 51.746870934963226 37.283176302909851 272.8132695555687 296.13555617630482 125.71159961819649\nleaf_count=417 106 3388 103 2131 1093 239 277 153 102 729 704 305\ninternal_value=0.00914883 0.00778422 0.0233784 0.00722016 0.0100966 0.004506 0.0123885 0.0170488 0.00871887 0.00511118 0.0197132 0.0178447\ninternal_weight=3497.68 2464.2 84.3919 2379.81 1153.42 1226.39 1033.47 453.259 580.216 417.221 401.512 162.995\ninternal_count=9747 7060 209 6851 3224 3627 2687 1134 1553 1146 981 407\nis_linear=0\nshrinkage=0.035\n\n\nTree=37\nnum_leaves=12\nnum_cat=0\nsplit_feature=32 27 7 1 27 30 28 7 22 30 3\nsplit_gain=15.9392 15.1071 25.0559 26.4723 15.2023 24.6448 13.6094 11.4058 12.5822 8.81371 8.42969\nthreshold=1.4068298609892416 0.0083828983189620006 13.011485093813555 0.015907064795474806 0.0067220113626518503 -9.5211170448865214 0.78500000000000014 9.0628433403666744 0.0022897852382037505 0.69575217476220896 0.00031365936916010004\ndecision_type=2 2 2 2 2 2 2 2 2 2 2\nleft_child=7 4 3 -3 6 -6 -2 -1 9 -9 -10\nright_child=1 2 -4 -5 5 -7 -8 8 10 -11 -12\nleaf_value=0.022779870355641205 0.0082638033857207888 -0.009521759863280084 -0.02603864331673517 0.021499939587529757 0.040830017121503102 0.012688296307095238 0.013327401184392743 -0.013083753364135057 -0.0038537542662800536 0.0026372240089021274 0.019701926410909135\nleaf_weight=26.60362933576107 1855.8457118868828 62.790210291743279 34.872243866324425 70.427069470286369 51.234515696763992 149.87954296171665 1015.5268053561449 97.204781398177147 29.276933535933495 77.617513045668602 47.786190450191498\nleaf_count=74 5193 202 129 181 108 400 2644 346 95 248 134\ninternal_value=0.00947138 0.0101619 -3.41946e-05 0.00689019 0.0107207 0.0200414 0.0100599 0.00141599 -0.000907736 -0.00610875 0.0107734\ninternal_weight=3519.07 3240.58 168.09 133.217 3072.49 201.114 2871.37 278.489 251.885 174.822 77.0631\ninternal_count=9754 8857 512 383 8345 508 7837 897 823 594 229\nis_linear=0\nshrinkage=0.035\n\n\nTree=38\nnum_leaves=15\nnum_cat=0\nsplit_feature=0 2 5 5 3 7 28 7 30 0 28 32 2 28\nsplit_gain=14.232 13.1699 21.9007 18.1071 16.697 16.2025 12.9493 10.9839 20.298 10.2805 11.9196 9.32906 7.5714 6.7729\nthreshold=22.37309464045455 -4.9122088018820769 0.010651776255171651 -0.026087676719690849 -0.013322018903284849 11.245147316609158 0.81500000000000006 12.67775153822401 -0.81639925412342851 16.549549706285017 0.12500000000000003 1.4850494316872307 -8.4098662379205162 0.36500000000000005\ndecision_type=2 2 2 2 2 2 2 2 2 2 2 2 2 2\nleft_child=7 2 11 5 -5 -3 -4 9 13 12 -11 -2 -1 -9\nright_child=1 3 6 4 -6 -7 -8 8 -10 10 -12 -13 -14 -15\nleaf_value=0.0009015729346320869 0.010075835171038407 0.018131642986200805 0.0046773514266999112 -0.023151322765380226 0.0022709822372687116 0.0048573376754178846 0.012517156563441519 -0.021325165216309127 0.01716629188217975 0.024794999547278308 0.013405871977716723 0.027708417608302071 0.012036640575300505 -0.00071355656607577941\nleaf_weight=103.62074436247349 58.792788207530975 181.53710915148258 608.25908510386944 32.2497518658638 651.82475954294205 299.71107624471188 452.71644675731659 28.858284771442413 72.321313366293907 156.56375120580196 432.27748827636242 109.02624113857746 276.36223992705345 57.749814063310623\nleaf_count=293 176 473 1817 112 1952 865 1190 96 184 367 1117 255 708 166\ninternal_value=0.00891866 0.00738198 0.00991269 0.00470421 0.00103533 0.00989916 0.00803452 0.0121684 0.00358284 0.013568 0.0164769 0.0216481 0.00901965 -0.00778643\ninternal_weight=3521.87 2394.12 1228.79 1165.32 684.075 481.248 1060.98 1127.75 158.929 968.824 588.841 167.819 379.983 86.6081\ninternal_count=9771 6840 3438 3402 2064 1338 3007 2931 446 2485 1484 431 1001 262\nis_linear=0\nshrinkage=0.035\n\n\nTree=39\nnum_leaves=11\nnum_cat=0\nsplit_feature=1 28 7 7 27 26 27 28 32 31\nsplit_gain=13.7895 20.2722 25.0638 25.3996 13.2594 25.2725 12.7151 12.6698 10.8308 9.33648\nthreshold=0.0020093828064239004 0.81500000000000006 12.35925928766847 11.415957395126926 0.0086186053565391017 0.013224567577671301 0.0010791005507716502 0.7350000000000001 1.4217529113428875 1.3470696929304664\ndecision_type=2 2 2 2 2 2 2 2 2 2\nleft_child=6 2 3 -2 8 -6 -1 -4 -3 -8\nright_child=1 4 7 -5 5 -7 9 -9 -10 -11\nleaf_value=0.0057754639142610807 0.0049724167398456556 -0.0013036702310490803 0.00045873125046870495 0.014064183011504413 -0.027681550311547076 0.012936153852278984 0.036935064522447575 -0.017232088845839738 0.01357382023067095 0.013323018669516403\nleaf_weight=57.160938188433647 1307.8653338551521 63.144631534814835 328.12143947184086 530.015510648489 28.90206153690815 49.338117077946663 50.544172883033752 57.343395888805389 996.22012287378311 37.85859377682209\nleaf_count=155 3765 204 979 1430 105 136 107 194 2560 97\ninternal_value=0.00831627 0.00785304 0.00590089 0.00760246 0.0116567 -0.00218391 0.0188615 -0.00220175 0.0126833 0.0271245\ninternal_weight=3506.51 3360.95 2223.35 1837.88 1137.6 78.2402 145.564 385.465 1059.36 88.4028\ninternal_count=9732 9373 6368 5195 3005 241 359 1173 2764 204\nis_linear=0\nshrinkage=0.035\n\n\nTree=40\nnum_leaves=14\nnum_cat=0\nsplit_feature=32 27 7 1 28 0 25 26 6 1 27 26 26\nsplit_gain=11.4734 12.4215 20.6983 29.759 15.2611 16.7387 11.2866 14.1726 21.9309 13.7588 12.054 10.4453 7.78962\nthreshold=1.4068298609892416 0.0086186053565391017 12.957765923449998 0.015907064795474806 0.80500000000000016 25.593662917378484 0.0019647191670882505 0.0044295541930162007 0.031778420526973959 0.0059978240495051011 0.0034534763602301006 0.0071070324512282511 0.0021465631244035003\ndecision_type=2 2 2 2 2 2 2 2 2 2 2 2 2\nleft_child=6 4 3 -3 5 -2 10 9 -9 -8 12 -6 -1\nright_child=1 2 -4 -5 11 -7 7 8 -10 -11 -12 -13 -14\nleaf_value=0.012292825269249208 0.01048119725382058 -0.013212947893693662 -0.023964390311632666 0.022391774534471987 0.011077241081978516 0.0041586685027334043 -0.0051097040709657997 0.024513920211980234 -0.0082243019910903849 -0.03626029331449953 0.031038621431865959 0.020504389919119067 -0.012172118830110417\nleaf_weight=41.69787722826004 1080.6964609622955 51.73838147521019 35.699405610561371 62.220595374703407 871.82890778779984 984.4102944880724 62.975591793656349 41.594796985387802 59.858693554997444 23.404313668608665 26.034181386232376 175.45723007619381 24.391102641820908\nleaf_count=118 2878 171 131 157 2274 2884 217 114 200 95 67 428 84\ninternal_value=0.00817151 0.00875514 -0.00106657 0.00622215 0.00922873 0.00747249 0.00135166 -0.00355689 0.0052721 -0.0139083 0.0113282 0.012678 0.00316466\ninternal_weight=3542.01 3262.05 149.658 113.959 3112.39 2065.11 279.957 187.833 101.453 86.3799 92.1232 1047.29 66.089\ninternal_count=9818 8923 459 328 8464 5762 895 626 314 312 269 2702 202\nis_linear=0\nshrinkage=0.035\n\n\nTree=41\nnum_leaves=12\nnum_cat=0\nsplit_feature=5 5 4 27 2 11 30 30 2 30 27\nsplit_gain=13.3347 16.7997 18.016 21.0962 15.2926 13.676 18.0583 12.6846 15.7638 6.03938 4.14349\nthreshold=-0.049579327452029642 -0.0085933351902223471 0.014349567408605551 0.0048414084636586004 -25.012645875873663 4.0000000000000009 -16.800188913404003 1.2621963217484222 34.60330150402789 0.35602066700192125 0.0086186053565391017\ndecision_type=2 2 2 2 2 2 2 2 2 2 2\nleft_child=7 5 3 -3 -4 9 -7 10 -9 -2 -1\nright_child=1 2 4 -5 -6 6 -8 8 -10 -11 -12\nleaf_value=0.035481829860396726 0.018712777325698232 0.0097777150664412303 0.011370517382025477 0.021859566502019659 0.00085479049677805166 0.018094023739339563 0.00073604814111263633 -0.0074327606204091295 0.025769959274813587 0.0058469035285846557 0.018216818689096945\nleaf_weight=42.016239941120148 96.393504574894905 1321.4744635224342 267.00181517004967 205.32632204890251 463.21139241755009 79.455638706684113 847.66012696921825 39.211657896637917 30.037522256374359 86.88093176484108 37.16537207365036\nleaf_count=91 239 3562 723 506 1360 206 2506 121 76 243 94\ninternal_value=0.00797759 0.0075188 0.00925398 0.011418 0.00471494 0.00398353 0.00224532 0.0182425 0.00708125 0.0126976 0.0277501\ninternal_weight=3515.83 3367.4 2257.01 1526.8 730.213 1110.39 927.116 148.431 69.2492 183.274 79.1816\ninternal_count=9727 9345 6151 4068 2083 3194 2712 382 197 482 185\nis_linear=0\nshrinkage=0.035\n\n\nTree=42\nnum_leaves=11\nnum_cat=0\nsplit_feature=5 2 6 4 23 28 7 26 23 7\nsplit_gain=11.3991 15.9014 15.9268 17.5336 13.676 12.4083 26.7722 14.5004 10.2406 0.283424\nthreshold=-0.049579327452029642 23.112182543755988 0.012412041801667753 -0.020661091089955296 0.047193631578876558 0.99500000000000011 12.418755632927367 0.0085060596193758508 0.026996905255129402 12.757460304011106\ndecision_type=2 2 2 2 2 2 2 2 2 2\nleft_child=4 5 -3 -4 8 6 -2 -7 -1 -6\nright_child=1 2 3 -5 9 7 -8 -9 -10 -11\nleaf_value=0.013652986742365109 0.0083040246928996163 0.020988883913258691 0.0018516413764202457 -0.021020552326899627 0.0048821334683513901 0.017521354831251449 -0.0010299263306175453 -0.0034302744743028727 0.036848725997368742 -2.765172864318232e-05\nleaf_weight=53.155911132693291 2418.9022119343281 29.229603439569473 111.64342521131039 63.589964151382446 27.545541256666183 259.20543758571148 444.76316899061203 47.247751832008362 44.541827216744423 26.237876310944557\nleaf_count=136 6672 75 330 219 79 637 1314 140 96 81\ninternal_value=0.00739368 0.00696615 -0.00247079 -0.00650071 0.0167867 0.0075765 0.00685327 0.0142791 0.0245299 0.00246626\ninternal_weight=3526.06 3374.58 204.463 175.233 151.481 3170.12 2863.67 306.453 97.6977 53.7834\ninternal_count=9779 9387 624 549 392 8763 7986 777 232 160\nis_linear=0\nshrinkage=0.035\n\n\nTree=43\nnum_leaves=11\nnum_cat=0\nsplit_feature=28 0 5 29 5 30 28 23 4 6\nsplit_gain=13.5853 22.4162 14.5327 12.94 12.771 20.6563 11.8497 11.7291 11.5229 11.1533\nthreshold=0.12500000000000003 33.032626277131222 -0.05930749819876089 0.037792056406808307 -0.0085933351902223471 -16.800188913404003 0.96500000000000008 0.0027958584925631001 -0.0025465577796676495 0.052959270148124953\ndecision_type=2 2 2 2 2 2 2 2 2 2\nleft_child=1 3 9 7 5 -4 -6 -1 -5 -2\nright_child=2 -3 4 8 6 -7 -8 -9 -10 -11\nleaf_value=0.01481365462697341 0.035751673141675544 -0.0171741401636573 0.019841366594087355 0.0033635653889942181 0.0069043628048903773 0.0018810671572372954 0.014170538780189161 0.034350389662329679 0.017404031725025311 0.010278890433186662\nleaf_weight=93.270284846425056 35.678208708763123 26.975691750645638 84.56462687253952 139.71229493618011 1577.6010067462921 957.48210583627224 335.37661735713482 66.875247687101364 148.78632465004921 53.579260319471359\nleaf_count=243 76 89 213 380 4408 2793 847 145 368 149\ninternal_value=0.00778057 0.013291 0.00691443 0.0151647 0.00648745 0.00335957 0.00818681 0.0231563 0.0106518 0.020783\ninternal_weight=3519.9 475.62 3044.28 448.644 2955.02 1042.05 1912.98 160.146 288.499 89.2575\ninternal_count=9711 1225 8486 1136 8261 3006 5255 388 748 225\nis_linear=0\nshrinkage=0.035\n\n\nTree=44\nnum_leaves=10\nnum_cat=0\nsplit_feature=32 6 26 30 2 4 6 25 31\nsplit_gain=13.9034 12.9324 19.9933 12.493 15.7504 16.7019 11.8485 11.3594 9.76363\nthreshold=1.4068298609892416 0.03345830759571481 0.0083102426475481512 25.700698633397305 -35.80333422895928 0.025645250880444954 0.024743588920134851 0.0035794378639214005 3.6993963270876731\ndecision_type=2 2 2 2 2 2 2 2 2\nleft_child=1 6 -3 4 8 -6 7 -1 -2\nright_child=3 2 -4 -5 5 -7 -8 -9 -10\nleaf_value=0.0028065375408321889 0.035978897679673556 -0.032580645845616908 0.0084015100889382188 -0.013309504980446477 0.0079344016437979063 -0.0019117702346678474 0.019183705078409798 -0.021478621914174285 0.011245440610111073\nleaf_weight=155.15251941978931 36.762837514281273 33.352405041456223 24.563269898295403 34.330367177724838 2885.611616641283 226.70554640889168 44.043943539261818 26.781821668148041 44.54916600883007\nleaf_count=487 79 127 73 115 7832 682 123 100 118\ninternal_value=0.00673913 -0.000673272 -0.0152923 0.00739212 0.00761985 0.00721568 0.00310885 -0.00084712 0.0227717\ninternal_weight=3511.85 283.894 57.9157 3227.96 3193.63 3112.32 225.978 181.934 81.312\ninternal_count=9736 910 200 8826 8711 8514 710 587 197\nis_linear=0\nshrinkage=0.035\n\n\nTree=45\nnum_leaves=10\nnum_cat=0\nsplit_feature=30 7 28 7 11 6 4 7 5\nsplit_gain=15.8913 20.8654 14.4232 15.1797 14.5587 12.9716 11.6944 17.3714 13.183\nthreshold=22.274984347727784 12.314731491421268 0.82500000000000007 12.418755632927367 4.0000000000000009 0.016312179194963802 -0.0027053228155151494 12.936294005028033 0.0051761391167704516\ndecision_type=2 2 2 2 2 2 2 2 2\nleft_child=2 -2 3 4 -1 -5 7 -4 -8\nright_child=1 -3 6 5 -6 -7 8 -9 -10\nleaf_value=0.011379835886638127 0.007488059823736553 -0.03008525677604601 0.0016176845032651842 -0.010181890928563033 0.0047672403750157908 0.0035090068663422322 0.026318308051259655 0.018319462475668683 0.011325674270547885\nleaf_weight=569.42591413855553 38.866094201803207 32.229384168982506 312.31002180278301 124.77131630480289 1455.9648199975491 258.78702986240387 83.079490199685097 100.29380233585835 555.66567914187908\nleaf_count=1460 109 120 875 389 4193 757 182 256 1438\ninternal_value=0.00658599 -0.00967737 0.00692384 0.005424 0.00663276 -0.000950429 0.0103487 0.00572041 0.0133193\ninternal_weight=3531.39 71.0955 3460.3 2408.95 2025.39 383.558 1051.35 412.604 638.745\ninternal_count=9779 229 9550 6799 5653 1146 2751 1131 1620\nis_linear=0\nshrinkage=0.035\n\n\nTree=46\nnum_leaves=13\nnum_cat=0\nsplit_feature=4 24 1 27 28 30 24 29 4 32 8 6\nsplit_gain=12.1603 32.7107 16.7704 24.7196 21.0531 18.695 13.0885 23.6983 12.9706 14.0283 12.7202 10.9924\nthreshold=0.014349567408605551 -0.040086681707507843 0.0076901605000354008 0.0050711623475087004 0.8650000000000001 9.158385302282392 -0.023711370027877945 3.4450001626888302 0.012882242213224602 1.8018658488526833 0.87960533280984843 0.027539618174671401\ndecision_type=2 2 2 2 2 2 2 2 2 2 2 2\nleft_child=1 -1 6 4 -4 -5 11 -8 9 -3 -10 -2\nright_child=2 8 3 5 -6 -7 7 -9 10 -11 -12 -13\nleaf_value=0.035668116931867652 0.0062786645934851315 0.0060995619297818373 -0.040779761098940881 -0.0026625354552116598 -0.0047359241925186103 0.015910818811945865 -0.019425529754387733 0.021248473297616574 0.0043418719418917024 0.016416425290458194 0.031587006489549138 0.021597892285647229\nleaf_weight=49.543263703584671 138.77407938241959 2499.373005643487 31.837980583310127 245.77040353417397 51.634000733494759 89.759967669844627 45.597047880291939 27.129182204604149 36.393838360905647 172.59909923374653 50.929661050438881 99.45378640294075\nleaf_count=110 385 6921 121 746 149 232 147 67 101 432 115 244\ninternal_value=0.00668368 0.00773016 0.00264701 -0.00191633 -0.0188453 0.00232826 0.00879365 -0.00412296 0.00721452 0.00677319 0.0204494 0.0127522\ninternal_weight=3538.8 2808.84 729.956 419.002 83.472 335.53 310.954 72.7262 2759.3 2671.97 87.3235 238.228\ninternal_count=9770 7679 2091 1248 270 978 843 214 7569 7353 216 629\nis_linear=0\nshrinkage=0.035\n\n\nTree=47\nnum_leaves=13\nnum_cat=0\nsplit_feature=4 2 30 31 4 31 26 7 31 7 6 23\nsplit_gain=14.0795 22.1007 21.5491 14.1348 17.6311 13.5211 13.3113 11.5418 11.2642 20.7387 12.0561 2.61537\nthreshold=0.025645250880444954 -21.912949663174548 20.553826742362961 0.11297186676423136 -0.0094988698341702971 0.083449787290867564 0.0068873328959317007 11.358352016831471 2.3572864567417349 11.558321625133315 0.019544707271849506 -0.016422666769911897\ndecision_type=2 2 2 2 2 2 2 2 2 2 2 2\nleft_child=3 2 6 4 -1 -6 -2 -3 10 -10 -5 -9\nright_child=1 7 -4 8 5 -7 -8 11 9 -11 -12 -13\nleaf_value=0.023322850599976751 0.0014771642526904204 -0.00062649427480403175 -0.022521884398851673 0.0060085999330992826 -0.0012185388753100917 -0.024624007818247268 0.021195647218047838 -0.031889544989634935 -0.011554423814752232 0.0060789386107630199 0.01087486512439749 -0.014430010838439216\nleaf_weight=26.097340002655983 100.20940186083317 38.290643364191055 28.561560600996017 1489.4549606889486 119.44705244898796 39.699490562081337 71.849466428160667 33.709983348846436 103.96068973839283 367.07440559566021 1086.6530068665743 20.373060837388039\nleaf_count=66 286 116 99 4090 362 137 178 122 325 1031 2885 71\ninternal_value=0.0059189 -0.00141364 0.00509776 0.00658486 -0.00277575 -0.00719625 0.00980646 -0.015496 0.00715579 0.00216349 0.00806607 -0.0257575\ninternal_weight=3525.38 292.994 200.62 3232.39 185.244 159.147 172.059 92.3737 3047.14 471.035 2576.11 54.083\ninternal_count=9768 872 563 8896 565 499 464 309 8331 1356 6975 193\nis_linear=0\nshrinkage=0.035\n\n\nTree=48\nnum_leaves=11\nnum_cat=0\nsplit_feature=10 25 32 6 6 7 7 7 2 30\nsplit_gain=10.9236 21.5746 12.4536 10.9914 18.6034 11.7934 9.85906 9.70148 14.6753 9.45988\nthreshold=0.018000000000000002 0.0092486660199838523 1.4068298609892416 0.025844497311713805 0.014819337222130852 10.24845033307974 9.0136013505230412 12.885506155472237 23.112182543755988 -12.484835563799242\ndecision_type=2 2 2 2 2 2 2 2 2 2\nleft_child=2 7 6 4 -4 -5 -1 8 -2 -8\nright_child=1 -3 3 5 -6 -7 9 -9 -10 -11\nleaf_value=0.018403495303339665 0.0036632535213158303 -0.029702126086246165 0.0085083007221611311 0.019880734859616708 0.0017032847503542063 0.0084505447121893656 -0.018603246846219463 0.015124303431497432 -0.020480336231754683 -5.0255495626023728e-05\nleaf_weight=28.467302247881889 140.02991612255573 27.900983139872551 1084.0972798615694 127.53833515942097 904.40965729951859 861.47096286714077 39.004011824727058 54.57129530608654 38.447616934776306 214.96183176338673\nleaf_count=78 399 99 2890 312 2553 2322 140 144 129 682\ninternal_value=0.00570809 -0.00116708 0.00625969 0.00692586 0.00541742 0.00994666 -0.000750641 0.00234654 -0.00160339 -0.00297513\ninternal_weight=3520.9 260.95 3259.95 2977.52 1988.51 989.009 282.433 233.049 178.478 253.966\ninternal_count=9748 771 8977 8077 5443 2634 900 672 528 822\nis_linear=0\nshrinkage=0.035\n\n\nTree=49\nnum_leaves=9\nnum_cat=0\nsplit_feature=30 5 15 30 5 30 31 27\nsplit_gain=15.6633 10.7046 16.2005 21.4793 11.9004 10.6318 18.3669 4.56223\nthreshold=25.700698633397305 -0.049579327452029642 1.0000000180025095e-35 -16.800188913404003 0.011419190676510002 0.5086891373795962 3.5189160748375587 0.0081981571230912518\ndecision_type=2 2 2 2 2 2 2 2\nleft_child=1 5 4 -4 -3 7 -7 -1\nright_child=-2 2 3 -5 -6 6 -8 -9\nleaf_value=0.033524770412560717 -0.0179848447466638 0.011720354394944317 0.01936840288712215 0.0020924925027822872 0.0059713208864796523 -0.0093009787334003523 0.02612291299106435 0.015313387988712974\nleaf_weight=37.464595720171928 31.609250441193581 704.79032552242279 93.317364037036896 1375.6797150373459 1201.6588230878115 41.15212094783783 30.185148000717163 37.328350365161896\nleaf_count=79 110 1804 233 3911 3361 126 73 94\ninternal_value=0.00615826 0.00638101 0.00597419 0.00320475 0.00810353 0.0156497 0.00579357 0.0248038\ninternal_weight=3553.19 3521.58 3375.45 1469 1906.45 146.13 71.3373 74.7929\ninternal_count=9791 9681 9309 4144 5165 372 199 173\nis_linear=0\nshrinkage=0.035\n\n\nTree=50\nnum_leaves=11\nnum_cat=0\nsplit_feature=28 28 30 31 22 28 3 3 29 29\nsplit_gain=10.9701 10.4795 17.0461 12.2783 21.2916 13.0397 10.0135 6.07727 8.09461 9.70838\nthreshold=0.045000000000000005 0.9850000000000001 21.40352444404704 2.1076205912493875 0.016418627943857903 0.93500000000000016 -0.0075952642505262491 -0.0048861347900992997 -0.63189156978415151 0.92220450459255454\ndecision_type=2 2 2 2 2 2 2 2 2 2\nleft_child=7 3 6 4 -2 -5 -3 -1 -9 -10\nright_child=1 2 -4 5 -6 -7 -8 8 9 -11\nleaf_value=0.022115142338053197 0.0052325158889558725 0.0035357152070539062 -0.012788980090152568 0.0016391177175269474 0.025380292576137425 -0.017503465269533301 0.015808765390065354 0.022063286155459626 -0.0034010508712186836 0.016753857311178823\nleaf_weight=68.585892617702484 2263.6534464806318 113.71940486133099 34.63816936314106 491.18403205275536 65.322802677750587 46.826388150453568 299.72955636680126 45.124417304992676 71.943248406052589 47.830927595496178\nleaf_count=156 6304 316 113 1423 149 148 733 109 204 115\ninternal_value=0.00601408 0.00549256 0.0104746 0.00470931 0.00580977 -4.98691e-05 0.0124582 0.0133488 0.00957018 0.00469076\ninternal_weight=3548.56 3315.07 448.087 2866.99 2328.98 538.01 413.449 233.484 164.899 119.774\ninternal_count=9770 9186 1162 8024 6453 1571 1049 584 428 319\nis_linear=0\nshrinkage=0.035\n\n\nTree=51\nnum_leaves=8\nnum_cat=0\nsplit_feature=30 2 22 4 32 27 22\nsplit_gain=10.9241 21.194 19.1086 10.6354 9.20224 9.49289 9.19911\nthreshold=20.553826742362961 -40.586566570153529 -0.0091511281894356995 -0.005600490981092149 1.8000963509093406 0.0067220113626518503 0.016418627943857903\ndecision_type=2 2 2 2 2 2 2\nleft_child=1 -1 -2 -4 5 -3 -6\nright_child=2 4 3 -5 6 -7 -8\nleaf_value=0.031306498723259586 -0.02908362214674198 0.0037467926526657527 -0.0068470707733307807 0.021094020429876712 0.0076883458354118656 0.010247831995379366 0.021267616722091452\nleaf_weight=39.079102382063866 29.162624269723892 2189.5107707977295 40.658573791384697 26.799399182200432 834.66382926702499 315.31284703314304 65.797199189662933\nleaf_count=84 106 6128 130 66 2228 857 161\ninternal_value=0.00564191 0.00596835 -0.00590118 0.0043481 0.00566744 0.00457032 0.00870697\ninternal_weight=3540.98 3444.36 96.6206 67.458 3405.28 2504.82 900.461\ninternal_count=9760 9458 302 196 9374 6985 2389\nis_linear=0\nshrinkage=0.035\n\n\nTree=52\nnum_leaves=11\nnum_cat=0\nsplit_feature=6 1 4 22 6 7 27 0 2 1\nsplit_gain=13.1437 23.4411 16.9267 23.4499 16.4528 16.4768 13.7578 12.0407 8.32226 10.9447\nthreshold=0.026379619455561356 0.0094054923781549029 -0.0027053228155151494 -0.0077992591033139496 0.037239717277430411 14.237380038068954 0.0016597694463975001 24.761683541598259 23.112182543755988 0.010320559078005602\ndecision_type=2 2 2 2 2 2 2 2 2 2\nleft_child=1 2 6 -4 8 7 -1 -6 9 -2\nright_child=4 -3 3 -5 5 -7 -8 -9 -10 -11\nleaf_value=-0.011801705714322678 0.015462351788736046 -0.023711418534730178 -0.0026333109456739183 0.0090924790785198578 0.014581257965339513 -0.018367898190750648 0.0017997684221056499 0.0027729783693210418 -0.0012990567582276886 0.00056576389375861957\nleaf_weight=100.00641398131847 451.25150667130947 37.618173241615295 265.71119228005409 962.86678075790405 135.17159782350063 36.958660408854485 926.02508409321308 482.74165342748165 50.721038058400154 70.389622271060944\nleaf_count=306 1145 128 762 2577 344 122 2632 1372 150 200\ninternal_value=0.00489087 0.00332078 0.00378367 0.00655355 0.00781554 0.00400953 0.000460436 0.00538114 0.0121495 0.0134638\ninternal_weight=3519.46 2292.23 2254.61 1228.58 1227.23 654.872 1026.03 617.913 572.362 521.641\ninternal_count=9738 6405 6277 3339 3333 1838 2938 1716 1495 1345\nis_linear=0\nshrinkage=0.035\n\n\nTree=53\nnum_leaves=13\nnum_cat=0\nsplit_feature=31 30 31 7 27 1 31 28 5 5 5 23\nsplit_gain=15.2238 17.0725 17.1599 15.7246 19.823 21.2421 19.6954 12.475 12.7895 9.45963 7.74709 7.61768\nthreshold=3.2767834741435613 23.405768361205912 3.585813192997731 11.053635748767347 0.0060724979667063509 0.0098944793056415514 0.17166833122487399 0.99500000000000011 0.037790283868985509 0.023013816030567801 -0.030931411445691098 0.0013410025280223502\ndecision_type=2 2 2 2 2 2 2 2 2 2 2 2\nleft_child=3 2 9 4 6 -6 -1 8 -5 -2 -4 -9\nright_child=1 -3 10 7 5 -7 -8 11 -10 -11 -12 -13\nleaf_value=-0.010621800735145027 -0.025850329818878779 -0.02950217736006638 0.016482732235309799 0.007629580698495648 0.028294929805242477 0.0030888599498240447 0.0030128766593706547 0.019705141049426753 -0.0036649161383365096 0.00041077812864774333 0.00028339134734802152 0.0065815190371640497\nleaf_weight=144.97138430178165 38.611208975315094 26.204959154129028 56.491112813353539 1427.1308892816305 73.077630385756493 93.020737871527672 1165.5179386138916 159.08602537214756 133.35111297667027 28.678537085652351 98.808096587657928 85.432383969426155\nleaf_count=462 133 100 145 3853 170 266 3237 373 410 83 284 227\ninternal_value=0.00499892 -0.00332867 -0.000113495 0.00563216 0.00294672 0.0143026 0.00149494 0.00782421 0.00666044 -0.0147646 0.00626616 0.0151796\ninternal_weight=3530.38 248.794 222.589 3281.59 1476.59 166.098 1310.49 1805 1560.48 67.2897 155.299 244.518\ninternal_count=9743 745 645 8998 4135 436 3699 4863 4263 216 429 600\nis_linear=0\nshrinkage=0.035\n\n\nTree=54\nnum_leaves=9\nnum_cat=0\nsplit_feature=32 7 22 30 1 29 29 30\nsplit_gain=13.3253 18.8153 18.0211 11.5502 15.1359 10.5577 15.4354 9.71187\nthreshold=1.8022354735966599 11.415957395126926 -0.00010704684064844999 22.274984347727784 0.0059978240495051011 3.7356833398698184 3.4684798381422985 -4.0195408011257738\ndecision_type=2 2 2 2 2 2 2 2\nleft_child=3 2 -2 5 -5 6 -1 -7\nright_child=1 -3 -4 4 -6 7 -8 -9\nleaf_value=0.0043945668488611367 -0.012171623604474649 0.029385668912072643 0.017181781496138325 0.0090807761176044909 -0.024513462116765344 -0.00029297628756745479 -0.0098439750836090845 0.016324472947091863\nleaf_weight=2964.2574151903391 42.671970024704933 62.347967654466629 60.920971497893333 27.721717819571495 37.546261072158813 58.153636366128922 95.231313526630402 160.47703225910664\nleaf_count=8203 129 139 149 79 136 166 290 407\ninternal_value=0.00467541 0.0143397 0.00505631 0.00419055 -0.0102702 0.00448258 0.00394715 0.0119072\ninternal_weight=3509.33 165.941 103.593 3343.39 65.268 3278.12 3059.49 218.631\ninternal_count=9698 417 278 9281 215 9066 8493 573\nis_linear=0\nshrinkage=0.035\n\n\nTree=55\nnum_leaves=10\nnum_cat=0\nsplit_feature=30 7 28 23 5 0 7 5 26\nsplit_gain=12.4706 27.4319 9.925 16.8362 24.0359 15.6468 13.6238 15.769 14.1323\nthreshold=22.274984347727784 12.297823588422697 0.99500000000000011 0.0017296545301745503 0.0064691267433728003 38.488302870832648 12.35925928766847 0.045881417462859307 0.0102824123203863\ndecision_type=2 2 2 2 2 2 2 2 2\nleft_child=2 -2 6 4 -4 -5 8 -8 -1\nright_child=1 -3 3 5 -6 -7 7 -9 -10\nleaf_value=0.004860944900961315 0.0095216183754104605 -0.033772960606579056 0.037373238272352262 -0.0065145343673720137 0.0099327819763160661 0.020492406575011841 0.0010054485628298363 -0.02071573978462583 0.020919076765140484\nleaf_weight=2447.4847784787416 39.157904133200645 31.434862658381462 49.972800567746162 99.987767174839973 176.43008291721344 34.514881819486618 531.34300430119038 43.343145400285721 68.296976074576378\nleaf_count=6736 109 123 97 292 449 84 1511 153 171\ninternal_value=0.00454247 -0.00991096 0.00484189 0.0103364 0.0161427 0.000490006 0.00419597 -0.000659834 0.00530641\ninternal_weight=3521.97 70.5928 3451.37 360.906 226.403 134.503 3090.47 574.686 2515.78\ninternal_count=9725 232 9493 922 546 376 8571 1664 6907\nis_linear=0\nshrinkage=0.035\n\n\nTree=56\nnum_leaves=12\nnum_cat=0\nsplit_feature=32 29 28 30 7 28 6 1 27 3 24\nsplit_gain=17.702 12.8786 12.1397 12.4196 12.5016 11.5491 10.3764 23.0923 13.5062 10.038 7.81039\nthreshold=1.4068298609892416 0.37047245617099994 0.03500000000000001 2.9058143825191221 10.279605599048748 0.36500000000000005 0.026379619455561356 0.0094054923781549029 0.0086186053565391017 0.0014079567078441502 -0.00057497557031844983\ndecision_type=2 2 2 2 2 2 2 2 2 2 2\nleft_child=1 5 3 4 -2 10 7 -4 -8 -7 -1\nright_child=2 -3 6 -5 -6 9 8 -9 -10 -11 -12\nleaf_value=0.011885242220332033 -0.0030978187027530502 0.018172658003284922 0.0034198067421572654 0.032929245554105292 0.0178745463280999 -0.0060116882991256733 0.0086610732665201844 -0.025476287803482909 -0.0026712523878094302 -0.024303520140952224 -0.010528123343863452\nleaf_weight=53.997795611619949 58.494557976722717 27.501083627343178 1940.1935856193304 33.229956790804863 83.217041254043579 120.99311549961567 963.54212194681168 33.465601548552513 147.7061430811882 52.93792237341404 28.07983672618866\nleaf_count=153 162 76 5344 71 197 397 2549 114 444 191 92\ninternal_value=0.0042273 -0.00414334 0.00495742 0.0139149 0.00923217 -0.00661557 0.00444397 0.00291542 0.0071506 -0.0117061 0.00414078\ninternal_weight=3543.36 283.51 3259.85 174.942 141.712 256.009 3084.91 1973.66 1111.25 173.931 82.0776\ninternal_count=9790 909 8881 430 359 833 8451 5458 2993 588 245\nis_linear=0\nshrinkage=0.035\n\n\nTree=57\nnum_leaves=11\nnum_cat=0\nsplit_feature=27 30 27 7 23 28 5 29 26 3\nsplit_gain=11.8337 25.9807 20.0567 22.2248 16.3857 12.2928 12.7302 11.9474 13.5352 10.2848\nthreshold=0.0086186053565391017 8.9983230819687545 0.0071121477925672515 12.67775153822401 0.0052117587843444014 0.99500000000000011 0.045881417462859307 -0.66325115097442489 0.012002728531823102 -0.0075952642505262491\ndecision_type=2 2 2 2 2 2 2 2 2 2\nleft_child=2 7 5 4 -4 6 -1 -2 -9 -7\nright_child=1 -3 3 -5 -6 9 -8 8 -10 -11\nleaf_value=0.0036826097797733421 0.0027372068348788616 0.020731584917651001 0.031555037359682493 -0.0094872065057799836 0.006278884183626844 0.00069927216283774104 -0.013658880830566506 -0.03092077428620188 -0.0034450815432386971 0.014291209489013735\nleaf_weight=2788.9895624667406 45.481461510062218 37.61602309346199 87.866340801119804 32.111173763871193 50.115642011165619 95.966437488794327 51.795706674456596 50.58658392727375 39.277133479714394 240.41733893752098\nleaf_count=7723 133 97 196 97 134 270 171 183 119 588\ninternal_value=0.00428351 -0.00461341 0.00474552 0.0164296 0.022511 0.00411393 0.0033605 -0.0117835 -0.0191204 0.0104375\ninternal_weight=3520.22 172.961 3347.26 170.093 137.982 3177.17 2840.79 135.345 89.8637 336.384\ninternal_count=9711 532 9179 427 330 8752 7894 435 302 858\nis_linear=0\nshrinkage=0.035\n\n\nTree=58\nnum_leaves=12\nnum_cat=0\nsplit_feature=30 27 24 24 5 4 23 27 30 27 30\nsplit_gain=9.98058 19.984 25.9319 18.6349 11.3471 13.7219 20.6477 12.161 12.9559 12.6668 6.33819\nthreshold=-10.890060262761999 0.0083828983189620006 -0.060564942017870098 0.020985661676272551 -0.0019460978490556998 -0.00067018661462359987 0.0063623229150785009 0.0027067273528886006 14.644874192551116 0.0027921469199975505 -4.0195408011257738\ndecision_type=2 2 2 2 2 2 2 2 2 2 2\nleft_child=1 2 -1 -4 7 10 -7 8 -2 -9 -6\nright_child=4 -3 3 -5 5 6 -8 9 -10 -11 -12\nleaf_value=0.039312815272140554 -0.0023850377109718912 -0.014198799386469917 0.0032017793426149781 0.017939361639954788 0.02703042761880569 0.0050968856785924476 -0.023040576489023981 0.023492731972204726 -0.027037990407769625 0.0023202417416805783 0.0083132966361937465\nleaf_weight=34.581187441945076 377.46612328290939 42.81780669093132 310.00950053334236 159.06792420148849 48.380549669265747 1512.0704544484615 31.621851325035095 35.060957163572311 27.135363757610321 908.33527104556561 43.757419392466545\nleaf_count=72 1091 142 865 396 105 4135 107 85 96 2544 110\ninternal_value=0.00413878 0.00848883 0.0104488 0.00823439 0.00333833 0.00529724 0.00450369 0.00095639 -0.00410965 0.00313486 0.0183637\ninternal_weight=3530.3 546.476 503.659 469.077 2983.83 1635.83 1543.69 1348 404.601 943.396 92.138\ninternal_count=9748 1475 1333 1261 8273 4457 4242 3816 1187 2629 215\nis_linear=0\nshrinkage=0.035\n\n\nTree=59\nnum_leaves=12\nnum_cat=0\nsplit_feature=5 30 2 5 5 27 30 23 31 30 27\nsplit_gain=9.63043 19.5359 18.7638 14.2598 15.6171 20.3494 12.7269 16.9278 14.4091 11.6629 4.65962\nthreshold=-0.049579327452029642 0.5086891373795962 34.60330150402789 -0.011635029518118048 -0.029126874945675146 0.0052965224779279009 8.3097336924686704 0.0026958424812992504 3.2315907058852527 3.0029042077058929 0.0081981571230912518\ndecision_type=2 2 2 2 2 2 2 2 2 2 2\nleft_child=1 10 -3 4 5 -2 7 -5 -8 -6 -1\nright_child=3 2 -4 6 9 -7 8 -9 -10 -11 -12\nleaf_value=0.033616415051268778 0.013098730613286477 -0.016040301140136364 0.018744770286629155 0.0019126566671545751 0.00047064531364183327 -0.0063324258901854523 0.012986884293540307 0.0091843343528943185 -0.0044789155996926202 -0.0093156589093627978 0.015423392032418102\nleaf_weight=38.986336067318916 200.67424803972244 40.323600053787231 34.158222198486328 1419.8827295601368 432.09314356744289 97.145694226026535 390.61467304825783 542.21287250518799 67.053843319416046 226.27374447882175 37.593827366828918\nleaf_count=80 524 128 89 3953 1238 285 1008 1420 200 703 93\ninternal_value=0.0041215 0.0127523 -4.10947e-06 0.0037306 0.000107926 0.0067488 0.00516005 0.00392758 0.0104161 -0.00289652 0.0250444\ninternal_weight=3527.01 151.062 74.4818 3375.95 956.187 297.82 2419.76 1962.1 457.669 658.367 76.5802\ninternal_count=9721 390 217 9331 2750 809 6581 5373 1208 1941 173\nis_linear=0\nshrinkage=0.035\n\n\nTree=60\nnum_leaves=10\nnum_cat=0\nsplit_feature=5 2 32 30 1 32 27 0 1\nsplit_gain=10.5739 11.0364 10.0369 11.9473 9.20315 13.771 11.8648 9.1555 7.54259\nthreshold=-0.049579327452029642 31.29529500671752 1.8022354735966599 2.8138888928817578 0.0096376092144205509 1.7998923501590587 0.0096088011506391523 20.75001200682598 0.0052588556012077006\ndecision_type=2 2 2 2 2 2 2 2 2\nleft_child=4 2 7 -4 -1 -6 -7 -2 -3\nright_child=1 8 3 -5 5 6 -8 -9 -10\nleaf_value=0.023957075406988982 0.0065327403744862176 -0.001659769770330265 0.0045418736553633019 0.024442247810288618 0.023793517045069778 -0.019159875268717392 0.011956217714527154 0.0022991687038336219 -0.025289669693716828\nleaf_weight=57.580940380692482 858.99141769111156 49.410913571715355 93.497841402888298 61.369786769151688 32.783367410302162 30.207878783345222 27.88018573820591 2323.7208866328001 24.275448977947235\nleaf_count=132 2228 150 248 142 78 98 73 6579 83\ninternal_value=0.00397642 0.00357455 0.00387206 0.0125565 0.0131019 0.00599951 -0.00421644 0.00344457 -0.00972571\ninternal_weight=3559.72 3411.27 3337.58 154.868 148.452 90.8714 58.0881 3182.71 73.6864\ninternal_count=9811 9430 9197 390 381 249 171 8807 233\nis_linear=0\nshrinkage=0.035\n\n\nTree=61\nnum_leaves=10\nnum_cat=0\nsplit_feature=2 28 26 27 27 5 30 2 26\nsplit_gain=9.70925 14.0296 10.5239 17.098 15.1273 12.0352 8.73414 8.89622 6.64848\nthreshold=23.112182543755988 0.39500000000000007 0.013224567577671301 0.0083828983189620006 0.0067220113626518503 -0.051767929380852742 13.085612801169576 37.140663450278545 0.0041088765030485004\ndecision_type=2 2 2 2 2 2 2 2 2\nleft_child=2 -2 3 4 -1 -5 7 -3 -8\nright_child=1 6 -4 5 -6 -7 8 -9 -10\nleaf_value=0.0037919453632517105 -0.024813849966073401 0.00027709379545627015 0.018712108215410733 0.0096916001452757652 0.013666708098725777 -0.016068799794723271 -0.021972752751528307 0.019673921530361429 1.5200564887844359e-06\nleaf_weight=2871.9571574181318 29.919232949614525 144.40501789748669 59.558915436267853 29.172490045428276 203.09967744350433 83.733788505196571 31.443366318941116 35.364682123064995 34.468111932277679\nleaf_count=7874 103 418 151 75 513 284 109 88 103\ninternal_value=0.00369842 -0.00259332 0.00423408 0.00395671 0.00444952 -0.0093555 0.00018814 0.00419997 -0.0106008\ninternal_weight=3523.12 275.6 3247.52 3187.96 3075.06 112.906 245.681 179.77 65.9115\ninternal_count=9718 821 8897 8746 8387 359 718 506 212\nis_linear=0\nshrinkage=0.035\n\n\nTree=62\nnum_leaves=14\nnum_cat=0\nsplit_feature=4 2 32 27 23 2 25 28 32 8 8 30 23\nsplit_gain=8.78521 16.1353 22.3279 15.1965 11.8249 10.4748 16.232 19.818 14.5124 10.0458 19.0419 18.1623 8.52338\nthreshold=0.025645250880444954 -21.912949663174548 1.7996985466149662 0.0052304201292212001 -0.0071462873994485995 13.704902209364533 0.0038467990168651505 0.085000000000000006 1.7995767801902776 0.93339073470174672 0.86493823843267015 -6.6379571321969664 -0.024751472959870346\ndecision_type=2 2 2 2 2 2 2 2 2 2 2 2 2\nleft_child=5 2 -2 -4 12 9 7 -7 -8 10 -1 -11 -3\nright_child=1 4 3 -5 -6 6 8 -9 -10 11 -12 -13 -14\nleaf_value=0.0063619688827893806 0.026719697337695282 -0.010094687583667137 -0.012928985700240151 0.0083920519942546606 0.006496147871666501 0.014495490135603957 -0.013182680759830296 -0.0078226379384243906 0.0093645315796192351 0.018148739700737077 -0.0022035593550832613 0.0058348207674353888 -0.035560434299891405\nleaf_weight=1439.6577603965998 41.363407894968987 40.198882281780243 77.449082851409912 84.58216156065464 25.871051132678986 57.181525945663452 38.831706434488297 298.43601703643799 285.13830998539925 205.28789977729321 406.71316307783127 519.48559211194515 27.91300992667675\nleaf_count=3823 94 127 241 230 77 141 122 904 763 506 1199 1408 104\ninternal_value=0.00430337 -0.0014415 0.00408954 -0.00179448 -0.0133655 0.00483027 0.000957926 -0.0041936 0.00661896 0.00585166 0.00447311 0.00934769 -0.020945\ninternal_weight=3548.11 297.378 203.395 162.031 93.9829 3250.73 679.588 355.618 323.97 2571.14 1846.37 724.773 68.1119\ninternal_count=9739 873 565 471 308 8866 1930 1045 885 6936 5022 1914 231\nis_linear=0\nshrinkage=0.035\n\n\nTree=63\nnum_leaves=12\nnum_cat=0\nsplit_feature=28 29 32 25 25 3 30 28 24 30 12\nsplit_gain=10.6787 9.61982 8.38881 13.5661 17.8494 11.847 9.79169 11.5422 10.7793 7.66803 5.51967\nthreshold=0.025000000000000005 0.77238257546299816 1.8003302394013574 0.0017689717146956501 0.0027780981935288007 -0.0021025404807851499 -16.800188913404003 0.85500000000000009 -0.047349450492790844 0.61211122665358542 1.0000000180025095e-35\ndecision_type=2 2 2 2 2 2 2 2 2 2 2\nleft_child=1 9 6 5 -5 -4 8 -8 -2 10 -1\nright_child=2 -3 3 4 -6 -7 7 -9 -10 -11 -12\nleaf_value=-0.010919288878256538 0.025947374295877262 0.026072294460079238 0.0027249047694735771 -0.0089088208157930612 0.0082781568547204368 0.026436900336996395 0.00033195750515499473 0.0053429769251685938 0.0055986536880335142 0.01922277054506024 0.0094671962428248338\nleaf_weight=31.885617896914482 40.252985328435898 45.199815332889557 40.994159936904907 95.911259695887566 311.69417735934258 71.557200700044632 1877.4161898195744 804.45696641504765 147.90401124954224 35.931898787617683 31.150436282157898\nleaf_count=91 97 98 112 283 817 161 5372 2139 402 86 81\ninternal_value=0.00352813 0.0128352 0.00312765 0.00721718 0.00421352 0.0179312 0.002383 0.0018378 0.0100846 0.0065543 -0.000799754\ninternal_weight=3534.35 144.168 3390.19 520.157 407.605 112.551 2870.03 2681.87 188.157 98.968 63.0361\ninternal_count=9739 356 9383 1373 1100 273 8010 7511 499 258 172\nis_linear=0\nshrinkage=0.035\n\n\nTree=64\nnum_leaves=10\nnum_cat=0\nsplit_feature=32 7 22 30 25 5 1 4 29\nsplit_gain=11.8328 16.2319 16.1568 10.5845 13.3186 9.96763 21.5649 12.4171 4.72542\nthreshold=1.8022354735966599 11.500566962059507 -0.0018740776945924498 22.274984347727784 0.0057551630702418009 -0.029126874945675146 0.0096376092144205509 -0.010478534821176248 -0.11803697255335394\ndecision_type=2 2 2 2 2 2 2 2 2\nleft_child=3 2 -2 5 -5 6 -1 -7 -4\nright_child=1 -3 8 4 -6 7 -8 -9 -10\nleaf_value=0.014134596673924551 -0.014760833198439469 0.027217257253014347 0.021868894325532635 0.0017713502553245771 -0.030937496022682906 -0.0026315703651271791 -0.0027683550979054061 0.0039298572853587706 0.0036333782315134213\nleaf_weight=288.60314318537712 34.539062738418579 61.098252773284912 40.147447600960732 39.747624725103378 23.459961965680122 410.75077684223652 134.9406683743 2474.733325406909 31.892167389392853\nleaf_count=731 105 136 94 118 90 1197 386 6781 84\ninternal_value=0.00391613 0.012974 0.00459917 0.003461 -0.010607 0.0037339 0.00874725 0.00299403 0.0140042\ninternal_weight=3539.91 167.677 106.579 3372.24 63.2076 3309.03 423.544 2885.48 72.0396\ninternal_count=9722 419 283 9303 208 9095 1117 7978 178\nis_linear=0\nshrinkage=0.035\n\n\nTree=65\nnum_leaves=15\nnum_cat=0\nsplit_feature=5 1 27 22 22 28 24 8 27 24 27 27 1 22\nsplit_gain=10.5429 18.0049 18.0238 20.5166 16.1328 31.6273 15.2553 11.2816 15.5125 13.7416 9.80061 