{
  "model_type": "lightgbm_regime",
  "feature_names": [
    "er_120d",
    "chop_30d",
    "ret_ac_60d",
    "vol_regime_30_90",
    "adx_60d",
    "natr_7d",
    "ret_7d",
    "ret_30d",
    "realized_vol_7d",
    "realized_vol_30d",
    "range_pos_30d",
    "volume_z_30d"
  ],
  "labels": [
    "trend_up",
    "trend_down",
    "chop",
    "high_vol",
    "low_opportunity"
  ],
  "booster_text": "tree\nversion=v4\nnum_class=5\nnum_tree_per_iteration=5\nlabel_index=0\nmax_feature_idx=11\nobjective=multiclass num_class:5\nfeature_names=er_120d chop_30d ret_ac_60d vol_regime_30_90 adx_60d natr_7d ret_7d ret_30d realized_vol_7d realized_vol_30d range_pos_30d volume_z_30d\nfeature_infos=[2.4836904328246386e-05:0.067936380082561601] [34.406882221873438:57.068793032575087] [-0.19055827025795791:0.14676445358863069] [0.56898506655431003:1.6074256694130524] [0.0005945026688308:11.881847669992949] [0.022527970970668401:0.95549084858569078] [-0.2738877545768062:1.1886996024985801] [-0.46720765220118388:4.134981361585246] [0.0010109120564024:0.018190774618366101] [0.0013845595968042001:0.0104679050378544] [0.0026152147381880001:0.99948328311718559] [-1.049986853108666:23.839846244539828]\ntree_sizes=563 243 1300 1163 1061 225 225 981 991 884 582 226 1096 1198 883 583 226 1094 1299 992 583 226 1202 1406 1201 583 226 1415 1625 995 475 226 1092 1626 1208 582 226 1624 1610 1198 472 226 1624 1514 1100 583 226 1304 1298 1101 583 226 1626 1417 981 582 226 1524 1311 1414 584 226 1315 1518 995 579 226 1100 1307 790 583 226 1631 1302 676 581 226 1520 1302 1209 582 226 1295 1192 993 576 226 1307 1413 1099 584 226 1409 1735 1318 472 226 1307 1519 786 583 227 1431 1622 992 582 227 1520 1309 891 227 227 783 1532 1211 472 227 1206 1506 1094 478 227 1422 1526 1001 581 227 1108 1307 783 583 227 1637 1533 992 472 227 1525 1309 789 580 227 1195 1524 891 476 227 892 1091 1107 227 227 995 1534 991 479 227 1110 1429 998 227 227 997 1620 1103 579 227 895 1322 1206 583 227 798 1531 890 474 227 795 1103 997 582 227 1007 1322 994 583 227 891 998 993 580 227 999 1003 1308 474 227 1202 1419 789 583 227 790 1007 1213 584 227 1306 1724 1318 584 227 1640 997 999 479 227 1318 1747 1314 583 227 1629 1620 894 584 227 1108 683 997 579 227 682 900 1317 584 227 1216 1003 898 583 227 1727 1314 994 581 227 1201 995 678 473 227 784 997 1007 581 227 899 1105 1107 470 227 899 1206 1322 584 227 1739 1312 998 582 227 1099 1527 999 585 227 1741 1012 1217 587 227 1629 1638 1218 474 227 1540 1109 986 478 227 1223 1318 999 578 227 1524 1535 1413 587 227 1105 1216 785 582 227 688 904 1521 584 227 1753 793 681 586 227 783 795 683 587 227 673 895 677 586 227 1418 1531 1213 581 227 1536 1631 1103 579 227 1645 692 891 479 227 1092 1422 1111 584 227 1636 903 887 471 227 1205 1002 786 471 227 1103 1209 895 469 227 1097 1216 1317 478 227 1418 998 995 583 227 787 788 786 473 227 1536 1737 995 583 227 1205 785 996 479 227 1217 1739 1321 479 227 1105 1532 787 582 227 797 1633 997 583 227 1738 1532 995 471 227 1210 1634 681 585 227 1522 1115 1219 478 227 686 1002 790 477 227 1309 1301 995 584 227 794 993 678 475 227 1320 897 790 582 227 1737 1323 892 475 227 1746 1424 1104 476 227 894 786 1219 477 227 783 1518 682 477 227 1113 1408 993 471 227 1728 1419 788 473 227 1650 1743 1426 582 227 679 679 1106 583 227 901 1639 788 581 227 1742 1526 1318 581 227 1639 1315 1220 584 227 788 790 1100 580 227 1414 1424 991 473 227 996 1212 1217 470 227 1005 1000 998 475 227 1311 1312 689 477 227 898 1002 1544 479 227 993 789 1332 477 227 788 682 1101 581 227 1105 897 1526 477 227 1115 1099 997 475 227 1000 1207 1000 476 227 1741 1423 1108 371 227 786 798 1005 473 227 783 793 784 476 227 1208 1213 996 371 227 1754 1321 788 477 227 1311 1627 1215 474 227 1537 1113 1327 370 227 890 1212 901 583 227 1522 1424 1107 584 227 1745 1639 992 471 227 687 895 1116 476 227 1644 1318 1212 473 227 1523 1530 1002 474 227 1638 1633 1215 478 227 895 1001 1006 475 227 682 793 900 472 227 1211 996 1315 478 227 1434 993 1223 474 227 1639 1113 1110 479 227 1541 1430 1435 478 227 1530 1624 1330 586 227 1529 1204 897 585 227 1102 1436 1007 475 227 901 1642 1001 480 227 1001 1524 1115 583 227 1332 1529 1209 478 227 996 684 796 370 227 1114 787 797 478 227 1317 786 1004 479 227 794 787 902 475 227 1318 789 1110 584 227 1105 1753 798 582 227 1308 1405 689 477 227 793 1211 1223 369 227 1000 1000 1111 480 227 1419 1528 1104 371 227 1116 1635 796 371 227 790 786 1011 476 227 1419 1218 795 481 227 1416 1425 1112 371 227 1000 1113 1109 582 227 1207 1103 1223 476 227 1111 1635 1226 479 227 1630 1312 1441 472 227 1111 1105 799 584 227 1426 1749 1433 479 227 1198 1544 1113 473 227 991 1096 898 477 227 793 898 1112 479 227 1210 1735 1222 371 227 1653 1339 1221 371 227 1101 995 1018 478 227 797 1435 1327 473 227 1419 1315 1438 586 227 789 1630 690 586 227 1317 1004 1119 372 227 1315 1114 1448 479 227 1537 690 1221 478 227 1525 1652 1008 481 227 1111 1112 1434 477 227 901 1433 1542 481 227 1529 1107 905 584 227 1761 1544 796 588 227 1313 1334 1011 474 227 1203 1117 1007 482 227 1115 1110 1109 587 227 1225 1215 1447 588 227 1423 1632 1226 482 227 1635 1096 1110 588 227 1645 1638 1437 227 227 1002 1102 1011\n\nTree=0\nnum_leaves=4\nnum_cat=0\nsplit_feature=2 6 4\nsplit_gain=2.5555 1.46248 0.501416\nthreshold=-0.026271584661701396 0.044709811234680451 4.9765669159423167\ndecision_type=2 2 2\nleft_child=1 -1 -3\nright_child=-2 2 -4\nleaf_value=-7.5423991954734353 -7.5546055748752812 -7.5368517639875101 -7.4574088471953761\nleaf_weight=0.32777026027906719 1.688918041763827 0.07943922805134207 0.026702261529862881\nleaf_count=491 2530 119 40\ninternal_value=-7.53064 -7.48839 -7.46524\ninternal_weight=2.12283 0.433912 0.106141\ninternal_count=3180 650 159\nis_linear=0\nshrinkage=1\n\n\nTree=1\nnum_leaves=1\nnum_cat=0\nsplit_feature=\nsplit_gain=\nthreshold=\ndecision_type=\nleft_child=\nright_child=\nleaf_value=-34.538776391283193\nleaf_weight=\nleaf_count=3743\ninternal_value=\ninternal_weight=\ninternal_count=\nis_linear=0\nshrinkage=1\n\n\nTree=2\nnum_leaves=11\nnum_cat=0\nsplit_feature=7 6 9 3 11 2 7 10 10 11\nsplit_gain=75.6831 23.1361 9.80342 18.71 28.0434 7.10681 6.29137 3.78542 5.99518 0.357289\nthreshold=0.55538658182527045 0.07599581971760426 0.0055379739541636507 0.91149675179514345 0.023493374556841903 -0.020947708964030396 -0.3085658201989388 0.21215932753499822 0.33874423027944339 -0.4933260347479842\ndecision_type=2 2 2 2 2 2 2 2 2 2\nleft_child=2 -2 7 4 -4 -3 -5 9 -9 -1\nright_child=1 5 3 6 -6 -7 -8 8 -10 -11\nleaf_value=-0.031190341143478708 -0.043555728375806617 -0.26061484729247919 -0.2003500694547658 -0.077955665739757929 -0.025590598521514608 -0.11039514920330906 -0.027458172951073587 -0.050097418938211999 -0.024613029313526012 -0.0072064577958400565\nleaf_weight=1.8125632405281091 1.9485054835677136 1.948505483567714 2.0391336455941227 3.8516968861222294 2.582902617752552 2.3563322126865391 20.21008013188839 17.536549352109432 74.677605509757996 15.134903058409689\nleaf_count=40 43 43 45 85 57 52 446 387 1648 334\ninternal_value=-0.03818 -0.164142 -0.0316012 -0.052082 -0.117783 -0.207461 -0.0367974 -0.0261443 -0.029533 -0.00922705\ninternal_weight=144.099 6.25334 137.845 28.6838 4.62204 4.30484 24.0618 109.162 92.2142 16.9475\ninternal_count=3180 138 3042 633 102 95 531 2409 2035 374\nis_linear=0\nshrinkage=1\n\n\nTree=3\nnum_leaves=10\nnum_cat=0\nsplit_feature=7 6 8 0 2 1 1 2 5\nsplit_gain=94.5314 25.3214 13.8179 13.6823 13.8684 6.66517 11.1104 4.03781 3.35501\nthreshold=0.55538658182527045 0.07599581971760426 0.0049354694681698012 0.021011260049114553 0.00054860998247545009 49.257596577012052 49.470996348671186 -0.020947708964030396 0.25644012706426295\ndecision_type=2 2 2 2 2 2 2 2 2\nleft_child=2 -2 5 4 -4 8 -7 -3 -1\nright_child=1 7 3 -5 -6 6 -8 -9 -10\nleaf_value=-3.4864765995335141 -3.4471983830033417 -3.20487295160593 -3.4756726689430457 -3.3615919651184298 -3.4194397532965342 -3.395801265924395 -3.4677905375568456 -3.371710297170798 -3.4406163507324949\nleaf_weight=42.439002871513367 1.6410765498876561 1.6410765498876569 15.265828371047979 2.0608868300914756 11.373042136430739 2.7478491067886344 40.110964044928551 1.9845576882362368 2.0990514010190955\nleaf_count=1112 43 43 400 54 298 72 1051 52 55\ninternal_value=-3.45737 -3.30601 -3.46546 -3.44175 -3.45118 -3.47334 -3.46189 -3.25802 -3.484\ninternal_weight=121.363 5.26671 116.097 28.6998 26.6389 87.3969 42.8588 3.62563 44.5381\ninternal_count=3180 138 3042 752 698 2290 1123 95 1167\nis_linear=0\nshrinkage=1\n\n\nTree=4\nnum_leaves=9\nnum_cat=0\nsplit_feature=5 3 3 10 2 7 1 1\nsplit_gain=8.11638 5.96251 12.6696 6.81126 1.35461 1.3152 0.613461 0.744844\nthreshold=0.16860490332476508 0.84220547115886568 1.0458039110486854 0.81758150490068326 0.012134846915874553 -0.21385747014708423 51.577895374987911 51.934982733399885\ndecision_type=2 2 2 2 2 2 2 2\nleft_child=1 4 3 -3 -1 -4 -2 -8\nright_child=6 2 5 -5 -6 -7 7 -9\nleaf_value=-5.2082384300164755 -5.2119603336360614 -5.0903323188643066 -5.1594722924791787 -5.1979134165645666 -5.1591695265175259 -5.2078507594320147 -5.1588634587648841 -5.1983602376154732\nleaf_weight=3.5566096287220748 8.6334955301135761 4.0587192233651859 0.292897263541818 0.85079681314527977 0.28592351917177428 3.3195023201406002 0.27894977480173 0.89961302373558283\nleaf_count=510 1238 582 42 122 41 476 40 129\ninternal_value=-5.18285 -5.16201 -5.14471 -5.10832 -5.2004 -5.19965 -5.20862 -5.18217\ninternal_weight=22.1765 12.3644 8.52192 4.90952 3.84253 3.6124 9.81206 1.17856\ninternal_count=3180 1773 1222 704 551 518 1407 169\nis_linear=0\nshrinkage=1\n\n\nTree=5\nnum_leaves=1\nnum_cat=0\nsplit_feature=\nsplit_gain=\nthreshold=\ndecision_type=\nleft_child=\nright_child=\nleaf_value=0\nleaf_weight=\nleaf_count=3743\ninternal_value=\ninternal_weight=\ninternal_count=\nis_linear=0\nshrinkage=1\n\n\nTree=6\nnum_leaves=1\nnum_cat=0\nsplit_feature=\nsplit_gain=\nthreshold=\ndecision_type=\nleft_child=\nright_child=\nleaf_value=0\nleaf_weight=\nleaf_count=3743\ninternal_value=\ninternal_weight=\ninternal_count=\nis_linear=0\nshrinkage=1\n\n\nTree=7\nnum_leaves=8\nnum_cat=0\nsplit_feature=7 3 7 4 10 1 0\nsplit_gain=52.8608 20.4129 11.7543 13.7182 11.2078 10.9855 5.62781\nthreshold=0.52515379302677445 1.2949020129830686 -0.30346474809716945 5.2410587621143261 0.80425395496400831 54.246299934393953 0.027589314572360205\ndecision_type=2 2 2 2 2 2 2\nleft_child=2 -2 3 -1 -3 6 -4\nright_child=1 4 5 -5 -6 -7 -8\nleaf_value=-0.08980605932191249 0.010276730602563273 -0.035947919091658433 0.012850438978133955 0.023321567344242355 -0.16360651217095082 -0.063329001665144422 -0.036051996099500133\nleaf_weight=3.1697129942476741 2.1753843352198583 2.3615898303687572 122.31792689859867 2.343068566173315 3.630722276866436 2.2429765835404387 2.9415244087576857\nleaf_count=68 44 45 2747 51 62 49 64\ninternal_value=0.000667376 -0.0922616 0.00701947 -0.0455258 -0.125632 0.00962795 0.0114256\ninternal_weight=141.183 8.1677 133.015 5.51278 5.99231 127.502 125.259\ninternal_count=3130 151 2979 119 107 2860 2811\nis_linear=0\nshrinkage=0.04\n\n\nTree=8\nnum_leaves=8\nnum_cat=0\nsplit_feature=7 8 7 11 11 8 1\nsplit_gain=66.1322 20.3634 16.2602 18.7689 11.4201 12.0159 8.82002\nthreshold=0.52515379302677445 0.0079518511220857523 -0.30346474809716945 0.023493374556841903 2.2228422735207976 0.0042566180745805511 49.224011704815346\ndecision_type=2 2 2 2 2 2 2\nleft_child=2 -2 3 -1 6 -6 -4\nright_child=1 -3 4 -5 5 -7 -8\nleaf_value=0.12810107150917927 0.022880351505317486 0.16184431432642321 -0.027718118600919404 -0.013419745264034064 -0.0076291311084398976 0.074723209760914774 -0.0035736078757718911\nleaf_weight=1.9350311271846283 3.1580944694578639 3.8820998184382915 50.536831215023994 2.719374168664217 6.6042133346199972 3.760871734470129 46.287761710584164\nleaf_count=49 74 77 1358 70 178 99 1225\ninternal_value=-0.000737474 0.110107 -0.00862863 0.0576661 -0.0120137 0.0261973 -0.0163302\ninternal_weight=118.884 7.04019 111.844 4.65441 107.19 10.3651 96.8246\ninternal_count=3130 151 2979 119 2860 277 2583\nis_linear=0\nshrinkage=0.04\n\n\nTree=9\nnum_leaves=7\nnum_cat=0\nsplit_feature=5 3 3 11 1 3\nsplit_gain=8.53475 9.3424 11.9251 8.84682 0.690928 0.687133\nthreshold=0.16860490332476508 0.84220547115886568 1.092397631011907 1.1996918821600084 51.577895374987911 0.99487696946166471\ndecision_type=2 2 2 2 2 2\nleft_child=1 -1 3 -3 -2 -6\nright_child=4 2 -4 -5 5 -7\nleaf_value=-0.025354407246512261 -0.028667540466169816 0.090180750489313968 -0.023041199020022548 -0.017352951355187305 -0.014094024770427371 0.024496418455542436\nleaf_weight=3.7171349232085076 8.1683405581861717 5.1467661191709322 2.5226076208055019 1.1694892938248811 0.77925032703205832 0.27355968579649925\nleaf_count=549 1197 700 373 159 112 40\ninternal_value=0.00259887 0.0233039 0.044264 0.0706199 -0.0251159 0.00298169\ninternal_weight=21.7771 12.556 8.83886 6.31626 9.22115 1.05281\ninternal_count=3130 1781 1232 859 1349 152\nis_linear=0\nshrinkage=0.04\n\n\nTree=10\nnum_leaves=4\nnum_cat=0\nsplit_feature=2 0 3\nsplit_gain=2.50589 1.32373 0.539261\nthreshold=-0.026271584661701396 0.0048941279835334507 0.8839220286774877\ndecision_type=2 2 2\nleft_child=1 2 -1\nright_child=-2 -3 -4\nleaf_value=-0.0026106258673583198 -0.019819881057330773 -0.0074768731517819292 0.075542607817843901\nleaf_weight=0.088778328383341765 1.6250029454240573 0.30467362579656765 0.041441185050643981\nleaf_count=136 2500 453 63\ninternal_value=0.00459122 0.0460494 0.0670939\ninternal_weight=2.0599 0.434893 0.13022\ninternal_count=3152 652 199\nis_linear=0\nshrinkage=0.04\n\n\nTree=11\nnum_leaves=1\nnum_cat=0\nsplit_feature=\nsplit_gain=\nthreshold=\ndecision_type=\nleft_child=\nright_child=\nleaf_value=0\nleaf_weight=\nleaf_count=3743\ninternal_value=\ninternal_weight=\ninternal_count=\nis_linear=0\nshrinkage=1\n\n\nTree=12\nnum_leaves=9\nnum_cat=0\nsplit_feature=7 8 3 9 6 11 6 7\nsplit_gain=45.3189 13.1191 10.7465 16.77 19.3017 5.02638 1.71025 1.86664\nthreshold=0.55538658182527045 0.0079518511220857523 1.107517938435896 0.0055379739541636507 -0.018958765857268394 3.9317184579934414 0.13537918923776457 0.40012735032140206\ndecision_type=2 2 2 2 2 2 2 2\nleft_child=2 -2 3 5 -5 -1 7 -4\nright_child=1 -3 6 4 -6 -7 -8 -9\nleaf_value=0.0092473814955633307 -0.017086391542154144 -0.11848070883223645 0.03194552045127505 -0.069439331762553264 0.011542643699621132 -0.033394968176299993 -0.0076779038177634505 -0.0065408703261118223\nleaf_weight=82.197966944426298 3.6059232801198942 5.2505930662155151 25.504815403372056 9.8315621986985224 7.892266370356082 3.7011923417448989 1.7682204619050015 1.8491025753319252\nleaf_count=1883 65 73 588 205 172 83 40 43\ninternal_value=-0.000347695 -0.08312 0.00575491 -0.000354884 -0.0346882 0.00704687 0.026785 0.0292049\ninternal_weight=141.602 8.85652 132.745 103.623 17.7238 85.8992 29.1221 27.3539\ninternal_count=3152 138 3014 2343 377 1966 671 631\nis_linear=0\nshrinkage=0.04\n\n\nTree=13\nnum_leaves=10\nnum_cat=0\nsplit_feature=6 8 8 2 6 3 1 6 11\nsplit_gain=55.0812 17.3087 13.8834 24.9899 19.4514 11.1296 10.1015 9.9789 7.39771\nthreshold=0.27058781809740756 0.0058895280757327506 0.0064474616959469509 -0.0011719904445713998 0.063111576651660603 1.2171962673387144 49.224011704815346 -0.020095388314126144 4.1104429101561371\ndecision_type=2 2 2 2 2 2 2 2 2\nleft_child=1 6 3 -3 -4 -2 8 -8 -1\nright_child=5 2 4 -5 -6 -7 7 -9 -10\nleaf_value=-0.02825969306330188 0.030327692986983967 -0.0026469728795791006 -0.022860128892118903 0.1673529493154613 0.073758325086576232 0.1666556299398905 0.022985147335731395 -0.014139990597065168 0.04405392221735336\nleaf_weight=48.269464265555143 2.0456222072243682 2.7141806855797768 10.058489713817833 1.7586397379636789 3.7820819318294516 2.5589796267449856 18.159631680697203 28.299985658377409 1.504168152809142\nleaf_count=1334 53 69 256 42 71 39 487 761 40\ninternal_value=-0.000155557 -0.00609434 0.0285685 0.0825598 0.00673288 0.122309 -0.0129167 0.000549634 -0.0252497\ninternal_weight=119.151 114.547 18.3134 4.47282 13.8406 4.6046 96.2332 46.4596 49.7736\ninternal_count=3152 3060 438 111 327 92 2622 1248 1374\nis_linear=0\nshrinkage=0.04\n\n\nTree=14\nnum_leaves=7\nnum_cat=0\nsplit_feature=5 3 3 11 5 10\nsplit_gain=10.852 6.3926 10.502 7.29451 0.891932 0.347102\nthreshold=0.16860490332476508 0.84220547115886568 1.092397631011907 1.1996918821600084 0.065120562175815869 0.72025917820624907\ndecision_type=2 2 2 2 2 2\nleft_child=1 4 3 -3 5 -1\nright_child=-2 2 -4 -5 -6 -7\nleaf_value=-0.007423067354788173 -0.02901731390431839 0.081568142447248138 -0.022776172894130618 -0.016867769278332161 -0.024211477852768878 0.025079584922627234\nleaf_weight=0.29997429437935652 9.1902959258295578 5.6113235517404956 2.424812454264611 1.1010918687097726 3.0425494131632149 0.26062681246548891\nleaf_count=46 1372 704 371 153 466 40\ninternal_value=0.00236468 0.0254664 0.0420064 0.0653275 -0.0164909 0.0140755\ninternal_weight=21.9307 12.7404 9.13723 6.71242 3.60315 0.560601\ninternal_count=3152 1780 1228 857 552 86\nis_linear=0\nshrinkage=0.04\n\n\nTree=15\nnum_leaves=4\nnum_cat=0\nsplit_feature=2 6 6\nsplit_gain=2.53869 1.40566 0.475486\nthreshold=-0.026271584661701396 0.044709811234680451 0.072798880238867755\ndecision_type=2 2 2\nleft_child=1 -1 -3\nright_child=-2 2 -4\nleaf_value=-0.0076500110705897267 -0.019812188198979255 0.076375214942545358 -0.0022658329213077833\nleaf_weight=0.31395453831646625 1.6233857087208887 0.03344130190089345 0.076149709464516491\nleaf_count=485 2549 50 99\ninternal_value=0.00474712 0.0466716 0.0689361\ninternal_weight=2.04693 0.423546 0.109591\ninternal_count=3183 634 149\nis_linear=0\nshrinkage=0.04\n\n\nTree=16\nnum_leaves=1\nnum_cat=0\nsplit_feature=\nsplit_gain=\nthreshold=\ndecision_type=\nleft_child=\nright_child=\nleaf_value=0\nleaf_weight=\nleaf_count=3743\ninternal_value=\ninternal_weight=\ninternal_count=\nis_linear=0\nshrinkage=1\n\n\nTree=17\nnum_leaves=9\nnum_cat=0\nsplit_feature=6 9 0 5 7 11 1 8\nsplit_gain=42.6914 18.8226 16.555 8.14917 7.19438 4.90754 4.61879 4.5531\nthreshold=0.27058781809740756 0.0055379739541636507 0.010788187643578201 0.20520952455695821 -0.30346474809716945 3.9317184579934414 48.665608988011805 0.0036042091155638004\ndecision_type=2 2 2 2 2 2 2 2\nleft_child=1 5 4 -4 -3 6 -1 -7\nright_child=-2 2 3 -5 -6 7 -8 -9\nleaf_value=0.022493760675704078 -0.096969063004958042 -0.034136202877864764 -0.083494223473007043 -0.025068921450999492 0.021491221771303425 0.010789492672512939 0.00507123790335939 -0.061050259978276254\nleaf_weight=43.390687081962824 6.2665542028844348 4.224291484802964 6.1311467587947872 11.145517654716967 12.048114024102686 2.2611724212765685 55.632102001458406 1.8962353840470312\nleaf_count=1038 91 79 129 206 274 50 1276 40\ninternal_value=-0.00248864 0.00251418 -0.0230919 -0.0492368 0.00591015 0.0109817 0.0128542 -0.0274614\ninternal_weight=142.996 136.729 33.5491 17.2767 16.2724 103.18 99.0228 4.15741\ninternal_count=3183 3092 688 335 353 2404 2314 90\nis_linear=0\nshrinkage=0.04\n\n\nTree=18\nnum_leaves=11\nnum_cat=0\nsplit_feature=7 8 0 8 2 1 1 1 1 0\nsplit_gain=51.4565 13.2182 10.8108 10.7749 9.94003 8.43527 6.67016 6.1913 6.95124 0.537665\nthreshold=0.52515379302677445 0.0042408507951481504 0.020797671857006306 0.0080715757965610004 0.013795711644792001 48.474507586526876 45.504882082705556 49.257596577012052 49.470996348671186 0.025731969212821754\ndecision_type=2 2 2 2 2 2 2 2 2 2\nleft_child=1 7 4 6 -3 -4 -2 9 -9 -1\nright_child=3 2 5 -5 -6 -7 -8 8 -10 -11\nleaf_value=-0.030630846389430456 -0.022454869788919887 -0.0087006560425200007 0.004532146649577691 0.11341048077422596 0.034033833776126989 0.11574463371356436 0.06484382671120878 0.050847459788959437 -0.010465427376927846 -0.0032760211051373039\nleaf_weight=30.683806505054235 2.0637168698012816 28.330461136996746 2.0047566294670101 6.2644842974841595 11.404504034668205 1.6405197270214555 1.7820865809917448 2.2542248405516139 32.418125029653311 1.4575063921511162\nleaf_count=894 45 771 50 78 284 40 37 58 885 41\ninternal_value=0.00213413 -0.00608483 0.0109558 0.0841989 0.00409915 0.0687244 0.0230314 -0.0171473 -0.00516551 -0.0295267\ninternal_weight=120.304 110.194 43.3802 10.1103 39.735 3.64528 3.8458 66.8137 34.6723 32.1413\ninternal_count=3183 3023 1145 160 1055 90 82 1878 943 935\nis_linear=0\nshrinkage=0.04\n\n\nTree=19\nnum_leaves=8\nnum_cat=0\nsplit_feature=5 3 3 10 2 1 6\nsplit_gain=8.66535 5.58322 8.85008 5.80125 1.32977 0.675924 0.711509\nthreshold=0.16860490332476508 0.84220547115886568 1.092397631011907 0.81758150490068326 0.012134846915874553 51.577895374987911 0.042239655833208309\ndecision_type=2 2 2 2 2 2 2\nleft_child=1 4 3 -3 -1 -2 -7\nright_child=5 2 -4 -5 -6 6 -8\nleaf_value=-0.024589307683456386 -0.028580687811068654 0.071176519521927148 -0.022528548488905096 -0.016499217206641742 0.024224769428751416 -0.014320436786252631 0.024910023568727093\nleaf_weight=3.2463521892204912 7.9577975044958276 6.2750385212711972 2.3387277680449188 1.0509475287981329 0.27968747308477748 0.80196794634684898 0.2643586304038763\nleaf_count=513 1215 743 375 138 41 118 40\ninternal_value=0.00366195 0.023631 0.0383279 0.058128 -0.0162205 -0.0249727 0.00275379\ninternal_weight=22.2149 13.1908 9.66471 7.32599 3.52604 9.02412 1.06633\ninternal_count=3183 1810 1256 881 554 1373 158\nis_linear=0\nshrinkage=0.04\n\n\nTree=20\nnum_leaves=4\nnum_cat=0\nsplit_feature=2 6 8\nsplit_gain=2.43464 1.42273 0.538216\nthreshold=-0.026271584661701396 0.044709811234680451 0.0032529894177038003\ndecision_type=2 2 2\nleft_child=1 -1 -3\nright_child=-2 2 -4\nleaf_value=-0.0078766649542808438 -0.019577114383035658 0.076440324424175699 -0.0025607167412418901\nleaf_weight=0.32629336661193553 1.5738474165555087 0.032820778724271804 0.08691920735873282\nleaf_count=509 2525 48 109\ninternal_value=0.00507655 0.0454478 0.068021\ninternal_weight=2.01988 0.446033 0.11974\ninternal_count=3191 666 157\nis_linear=0\nshrinkage=0.04\n\n\nTree=21\nnum_leaves=1\nnum_cat=0\nsplit_feature=\nsplit_gain=\nthreshold=\ndecision_type=\nleft_child=\nright_child=\nleaf_value=0\nleaf_weight=\nleaf_count=3743\ninternal_value=\ninternal_weight=\ninternal_count=\nis_linear=0\nshrinkage=1\n\n\nTree=22\nnum_leaves=10\nnum_cat=0\nsplit_feature=6 9 3 0 6 3 5 1 8\nsplit_gain=28.0647 15.2976 20.2232 12.3941 11.4965 3.29994 3.6293 3.21993 1.72782\nthreshold=0.27058781809740756 0.0055379739541636507 0.91688902546086348 0.013928091146443552 -0.018958765857268394 1.107517938435896 0.16860490332476508 42.993774262930714 0.0059474867455309001\ndecision_type=2 2 2 2 2 2 2 2 2\nleft_child=1 5 4 -4 -3 6 -1 -2 -7\nright_child=7 2 3 -5 -6 8 -8 -9 -10\nleaf_value=0.0022678466629812741 -0.090608910332204515 -0.11977316099817778 0.016343028740159034 -0.035038633094521397 -0.0035805225278528318 0.0310855505531249 0.020061690203637187 -0.022602049735860601 -0.0066780649829142093\nleaf_weight=58.299950540065765 4.6826384514570227 3.3908208087086678 17.480747409164909 11.677998848259447 2.0671496987342826 15.373065888881685 25.964768707752228 2.4326787255704403 1.8393149562180031\nleaf_count=1364 50 60 385 202 42 382 620 43 43\ninternal_value=-0.000735802 0.00354774 -0.0190661 -0.00471466 -0.0831352 0.0113728 0.00792171 -0.073008 0.026905\ninternal_weight=143.209 136.094 34.6167 29.1587 5.45797 101.477 84.2647 7.11532 17.2124\ninternal_count=3191 3098 689 587 102 2409 1984 93 425\nis_linear=0\nshrinkage=0.04\n\n\nTree=23\nnum_leaves=12\nnum_cat=0\nsplit_feature=8 10 8 9 9 1 1 4 11 5 7\nsplit_gain=38.4328 18.2009 11.6431 9.14347 12.7567 4.60396 9.56796 8.47226 4.4188 1.69621 0.694645\nthreshold=0.0049354694681698012 0.81187070600820621 0.0070091348056695009 0.0048374166220407503 0.0070495261101203013 49.309086760761438 49.470996348671186 5.2982603920074487 4.1104429101561371 0.25644012706426295 0.40012735032140206\ndecision_type=2 2 2 2 2 2 2 2 2 2 2\nleft_child=5 3 10 -2 -5 8 -7 -8 9 -1 -3\nright_child=1 2 -4 4 -6 6 7 -9 -10 -11 -12\nleaf_value=-0.028953542551651414 -0.027822733279408301 0.024563536297194863 0.10574434576812379 0.045421071730801163 -0.015402991262751017 0.059228180394937581 -0.019672107790908812 0.02663184068673537 0.031175724402614083 0.0073078281593687983 -0.0057337544313682117\nleaf_weight=37.667099609971046 5.3840783387422588 1.6547501385211929 6.3593988940119743 16.20983794331551 7.5158566422760478 2.3908434808254233 31.507175169885159 6.9318178817629805 1.3821331448853005 1.800614658743142 1.6621149554848669\nleaf_count=1130 149 42 75 392 167 59 867 189 35 47 39\ninternal_value=0.000401985 0.0327014 0.0775703 0.0157058 0.0263095 -0.0151456 -0.0054366 -0.0108584 -0.024488 -0.0271595 0.01157\ninternal_weight=120.466 38.786 9.67626 29.1098 23.7257 81.6797 40.8298 38.439 40.8498 39.4677 3.31687\ninternal_count=3191 864 156 708 559 2327 1115 1056 1212 1177 81\nis_linear=0\nshrinkage=0.04\n\n\nTree=24\nnum_leaves=10\nnum_cat=0\nsplit_feature=5 3 3 10 4 0 3 8 2\nsplit_gain=7.47097 6.69501 11.948 8.39481 2.08354 2.39991 1.4175 1.26951 1.2585\nthreshold=0.13959209916646068 0.97485608983628691 0.84220547115886568 0.68856608355913063 1.9188847449924258 0.0021142903371891503 1.042503172315816 0.0042731144256412008 0.011307874768324752\ndecision_type=2 2 2 2 2 2 2 2 2\nleft_child=1 2 8 -4 5 -2 -7 -3 -1\nright_child=4 7 3 -5 -6 6 -8 -9 -10\nleaf_value=-0.022975513413027063 0.050790965250294605 -0.024337953778594171 0.12144389395875176 -9.4318502660412873e-05 -0.02871091768701893 -0.023436633214922797 0.017468742142088958 0.023200334170925176 0.025175780684609201\nleaf_weight=2.5019191205501579 0.35203176736831565 3.0985812162980442 2.3330654897727077 1.2482916354201732 8.2728822906501573 2.6796094626188283 1.2597817224450407 0.30312226898968209 0.25849801441654552\nleaf_count=408 52 434 254 154 1223 393 197 37 39\ninternal_value=0.00179989 0.0266464 0.0484615 0.0883075 -0.0180123 0.00414045 -0.00946718 -0.0157935 -0.0129706\ninternal_weight=22.3078 9.74348 6.34177 3.58136 12.5643 4.29142 3.93939 3.4017 2.76042\ninternal_count=3191 1326 855 408 1865 642 590 471 447\nis_linear=0\nshrinkage=0.04\n\n\nTree=25\nnum_leaves=4\nnum_cat=0\nsplit_feature=2 6 6\nsplit_gain=2.45322 1.36102 0.527644\nthreshold=-0.026271584661701396 0.044709811234680451 0.067222047613825872\ndecision_type=2 2 2\nleft_child=1 -1 -3\nright_child=-2 2 -4\nleaf_value=-0.0075670608987532667 -0.019417173446299108 0.076124601085680435 -0.0025259918817352647\nleaf_weight=0.30950076662702497 1.5412060709204523 0.035835593822412193 0.08563890220830217\nleaf_count=489 2527 48 108\ninternal_value=0.00567198 0.046263 0.0678662\ninternal_weight=1.97218 0.430975 0.121474\ninternal_count=3172 645 156\nis_linear=0\nshrinkage=0.04\n\n\nTree=26\nnum_leaves=1\nnum_cat=0\nsplit_feature=\nsplit_gain=\nthreshold=\ndecision_type=\nleft_child=\nright_child=\nleaf_value=0\nleaf_weight=\nleaf_count=3743\ninternal_value=\ninternal_weight=\ninternal_count=\nis_linear=0\nshrinkage=1\n\n\nTree=27\nnum_leaves=12\nnum_cat=0\nsplit_feature=9 6 3 11 2 11 8 10 10 3 11\nsplit_gain=24.0385 11.3083 14.251 22.9279 6.47473 5.2449 10.1375 3.66476 9.61587 1.10882 0.144921\nthreshold=0.0055379739541636507 0.27058781809740756 0.91149675179514345 0.061156293437035755 -0.020144846348414597 2.9181727655126699 0.0042566180745805511 0.26478689092432356 0.33874423027944339 0.86047721083570405 -0.22404743813919728\ndecision_type=2 2 2 2 2 2 2 2 2 2 2\nleft_child=5 2 3 -2 -4 7 9 10 -9 -7 -1\nright_child=1 -3 4 -5 -6 6 -8 8 -10 -11 -12\nleaf_value=0.016485107375679053 -0.13413437946570139 -0.073262831201319586 -0.02974215404805915 0.013713233316172597 0.0087269423589578198 -0.0085804948694455287 -0.069391851886149755 -0.027720022425910477 0.013771088782515633 0.025611462992039757 0.030858758116498432\nleaf_weight=5.7883012667298344 2.7707113623619071 5.9221589155495158 9.5820494927465933 2.7207822017371655 19.792389765381813 1.7101720161736 2.8246381916105747 9.3953655697405321 64.72951090708375 3.3792877942323685 13.596325550228356\nleaf_count=139 41 54 173 53 411 40 56 219 1574 79 333\ninternal_value=-0.000644709 -0.0262078 -0.0163954 -0.0700545 -0.00438787 0.00979114 -0.0197994 0.0124785 0.00821309 0.0145999 0.027586\ninternal_weight=142.212 40.7881 34.8659 5.49149 29.3744 101.424 7.9141 93.5095 74.1249 5.08946 19.3846\ninternal_count=3172 732 678 94 584 2440 175 2265 1793 119 472\nis_linear=0\nshrinkage=0.04\n\n\nTree=28\nnum_leaves=14\nnum_cat=0\nsplit_feature=8 0 9 2 11 0 2 4 10 5 10 4 9\nsplit_gain=34.4373 15.2039 13.7371 13.2265 13.5122 5.13947 3.10513 7.49568 12.9385 5.33977 3.02584 2.32431 1.80573\nthreshold=0.0049354694681698012 0.020613548213250354 0.0082239083719701529 -0.0021419064990904997 0.023493374556841903 0.028645147398598303 -0.020947708964030396 2.9091668179348935 0.48102443674161255 0.23643270525749924 0.81187070600820621 6.8764019579484863 0.0025742676564674506\ndecision_type=2 2 2 2 2 2 2 2 2 2 2 2 2\nleft_child=6 3 5 10 -5 -3 7 8 -1 11 -2 -8 -9\nright_child=1 2 -4 4 -6 -7 9 12 -10 -11 -12 -13 -14\nleaf_value=0.055888773939222765 -0.021198440516297091 0.12741992976741254 0.0086544459844922449 0.084297744873071581 0.0080974451934049101 0.0407440542055474 -0.02553827589223584 0.010333115964830971 -0.022095973799573031 0.027047611810884515 0.021160554090390218 0.00097609910621709666 -0.029950654937176111\nleaf_weight=6.1233299169689435 11.929466592147945 3.9034662246704084 4.4126062281429768 5.4037006944417962 9.474325090646742 3.1443288624286652 46.71994074806571 1.6086009331047524 5.7330413851886988 2.8787563759833565 2.5491244420409211 5.8684017546474925 10.020721115171908\nleaf_count=173 322 57 57 119 221 35 1372 45 169 78 60 172 292\ninternal_value=0.000871886 0.0302783 0.0674536 0.0140216 0.0393394 0.0986178 -0.0145192 -0.00219646 0.0193944 -0.0196056 -0.0128554 -0.0226165 -0.0240015\ninternal_weight=119.77 40.817 11.4604 29.3566 14.878 7.0478 78.9528 23.4857 11.8564 55.4671 14.4786 52.5883 11.6293\ninternal_count=3172 871 149 722 340 92 2301 679 342 1622 382 1544 337\nis_linear=0\nshrinkage=0.04\n\n\nTree=29\nnum_leaves=8\nnum_cat=0\nsplit_feature=5 9 11 8 5 5 1\nsplit_gain=7.73643 6.23117 3.84772 4.14515 1.98078 4.1095 1.38734\nthreshold=0.16860490332476508 0.0042429340727999009 0.44508718467513314 0.0048060873455263503 0.10824947118044512 0.10292116745034906 53.151511562359651\ndecision_type=2 2 2 2 2 2 2\nleft_child=1 4 3 -3 5 -1 -6\nright_child=-2 2 -4 -5 6 -7 -8\nleaf_value=-0.0038968652953683498 -0.028849756675757648 0.084627606058924179 -0.014006906425500587 -0.012048862713813875 -0.025967653231643309 0.073118005936648203 0.023336507868098461\nleaf_weight=4.3778026849031466 8.6943026445806009 2.6990389432758088 0.77027728827670205 0.59713953221216787 4.1674844422377646 0.44507565069943655 0.29987239046022285\nleaf_count=604 1378 344 109 73 572 57 35\ninternal_value=-0.0012939 0.0174032 0.0530945 0.0683857 -0.00186084 0.0145468 -0.0189951\ninternal_weight=22.051 13.3567 4.06646 3.29618 9.29024 4.82288 4.46736\ninternal_count=3172 1794 526 417 1268 661 607\nis_linear=0\nshrinkage=0.04\n\n\nTree=30\nnum_leaves=3\nnum_cat=0\nsplit_feature=2 11\nsplit_gain=1.40164 0.19317\nthreshold=-0.056241895514075442 0.77706430348792688\ndecision_type=2 2\nleft_child=1 -1\nright_child=-2 -3\nleaf_value=-0.0025244507018729991 -0.020700719237899862 0.03823535211982998\nleaf_weight=0.085597575060092024 1.829452965816017 0.025118755758740008\nleaf_count=134 3013 39\ninternal_value=-0.00752218 0.0328214\ninternal_weight=1.94017 0.110716\ninternal_count=3186 173\nis_linear=0\nshrinkage=0.04\n\n\nTree=31\nnum_leaves=1\nnum_cat=0\nsplit_feature=\nsplit_gain=\nthreshold=\ndecision_type=\nleft_child=\nright_child=\nleaf_value=0\nleaf_weight=\nleaf_count=3743\ninternal_value=\ninternal_weight=\ninternal_count=\nis_linear=0\nshrinkage=1\n\n\nTree=32\nnum_leaves=9\nnum_cat=0\nsplit_feature=6 9 3 11 2 11 8 5\nsplit_gain=22.39 11.4834 9.78457 19.4077 8.34428 5.35557 7.87999 3.83244\nthreshold=0.27058781809740756 0.0055379739541636507 0.91688902546086348 0.023493374556841903 -0.019947299459477746 3.9317184579934414 0.0035490575749058503 0.16699764791102165\ndecision_type=2 2 2 2 2 2 2 2\nleft_child=1 5 3 -3 -4 7 -7 -1\nright_child=-2 2 4 -5 -6 6 -8 -9\nleaf_value=0.0085977562901306988 -0.060964983345236139 -0.10840598750515762 -0.031093878091357465 0.016112264560070831 0.012185559077394086 0.022521918693175325 -0.070525614296713279 0.02584530694578481\nleaf_weight=62.330255553126335 7.6572511680424205 3.4437319897115222 9.9594789110124129 3.234353069216013 19.424503736197948 2.1111997142434111 2.0141944140195847 31.134678408503532\nleaf_count=1538 86 45 174 63 408 49 39 784\ninternal_value=0.00140076 0.00540005 -0.0136363 -0.0538549 -0.00302425 0.0125014 -0.0278042 0.014556\ninternal_weight=141.31 133.652 36.0621 6.67809 29.384 97.5903 4.12539 93.4649\ninternal_count=3186 3100 690 108 582 2410 88 2322\nis_linear=0\nshrinkage=0.04\n\n\nTree=33\nnum_leaves=14\nnum_cat=0\nsplit_feature=8 10 3 2 11 2 10 4 11 11 4 3 11\nsplit_gain=28.6875 14.4815 9.05312 8.75963 9.84817 5.54041 9.26488 14.1233 3.51834 2.05727 1.75637 0.756243 0.115201\nthreshold=0.0049354694681698012 0.81187070600820621 1.2086093398126212 -0.0094909929611246991 0.023493374556841903 -0.020947708964030396 0.46955233412631076 2.9091668179348935 3.3387979572153212 0.2022442532911394 5.2982603920074487 0.94926597744944463 0.9130793830012619\ndecision_type=2 2 2 2 2 2 2 2 2 2 2 2 2\nleft_child=5 3 -3 9 -5 6 7 -1 10 -2 -7 -10 -8\nright_child=1 2 -4 4 -6 8 12 -9 11 -11 -12 -13 -14\nleaf_value=0.062152837757372015 -0.02482598604256403 0.0049084733482567177 0.088370311132179011 0.06337634648316455 0.00383176337945009 -0.029181281279018027 -0.029352466235836819 -0.015004978716324479 -0.004180068801691977 0.0047576669635297506 -0.0098177110911297823 0.029340292758180377 -0.010816480171913761\nleaf_weight=6.071115171536805 7.7308706138283032 3.0166765451431257 6.7027878202497959 6.7800131421536234 10.689252967014907 40.023878253996372 8.2654728889465314 7.5349755864590406 1.5311663821339601 6.1247726939618587 10.816081026569007 1.4532906934618948 2.2983589619398108\nleaf_count=163 192 71 65 143 255 1212 250 224 41 137 326 39 68\ninternal_value=-0.00160396 0.0251025 0.0653403 0.0109824 0.0291219 -0.015798 0.000150244 0.0213214 -0.0228317 -0.0123088 -0.0253306 0.0154098 -0.0266037\ninternal_weight=119.039 41.0444 9.71946 31.3249 17.4693 77.9943 24.1699 13.6061 53.8244 13.8556 50.84 2.98446 10.5638\ninternal_count=3186 863 136 727 398 2323 705 387 1618 329 1538 80 318\nis_linear=0\nshrinkage=0.04\n\n\nTree=34\nnum_leaves=10\nnum_cat=0\nsplit_feature=5 6 6 0 10 2 9 1 11\nsplit_gain=6.66378 5.1244 8.28715 6.50599 6.56531 4.19625 1.35431 0.619713 0.765328\nthreshold=0.16622447470284998 0.058289242805552657 -0.020095388314126144 0.011561188614154701 0.8015290405945602 -0.017852435725728599 0.0017290055911887002 51.577895374987911 0.95204143310210709\ndecision_type=2 2 2 2 2 2 2 2 2\nleft_child=1 2 5 4 -3 -1 -4 -2 -9\nright_child=7 3 6 -5 -6 -7 -8 8 -10\nleaf_value=-0.0055388116529415318 -0.028436105154307709 0.13137092047678617 0.019703191092853265 -0.015268409699413229 -0.010944821081894818 0.067915936624695056 -0.02772180817038469 -0.015049734940735087 0.025319874483197374\nleaf_weight=1.7077851793728767 7.6286558546125871 0.9086184119805687 0.39093361375853675 0.90162398386746634 0.51553508313372731 2.5172633333131662 6.1869709421880543 0.87862911541014888 0.255362952593714\nleaf_count=232 1251 121 49 123 78 314 846 132 40\ninternal_value=0.000668926 0.0182016 0.00440994 0.0616743 0.0965903 0.0428475 -0.0226751 -0.0247733 0.0016461\ninternal_weight=21.8914 13.1287 10.803 2.32578 1.42415 4.22505 6.5779 8.76265 1.13399\ninternal_count=3186 1763 1441 322 199 546 895 1423 172\nis_linear=0\nshrinkage=0.04\n\n\nTree=35\nnum_leaves=4\nnum_cat=0\nsplit_feature=8 4 6\nsplit_gain=2.19801 1.69602 0.470636\nthreshold=0.0030808167901629005 4.9765669159423167 0.022987356812342853\ndecision_type=2 2 2\nleft_child=1 -1 -3\nright_child=-2 2 -4\nleaf_value=-0.0089629531750707002 -0.018723095961813291 -0.0021904066138628956 0.077590157694080772\nleaf_weight=0.38881938258418824 1.408480084617622 0.073443853354547173 0.021986401407048106\nleaf_count=683 2324 129 37\ninternal_value=0.00670739 0.0434542 0.0702416\ninternal_weight=1.89273 0.48425 0.0954303\ninternal_count=3173 849 166\nis_linear=0\nshrinkage=0.04\n\n\nTree=36\nnum_leaves=1\nnum_cat=0\nsplit_feature=\nsplit_gain=\nthreshold=\ndecision_type=\nleft_child=\nright_child=\nleaf_value=0\nleaf_weight=\nleaf_count=3743\ninternal_value=\ninternal_weight=\ninternal_count=\nis_linear=0\nshrinkage=1\n\n\nTree=37\nnum_leaves=14\nnum_cat=0\nsplit_feature=9 0 9 11 8 4 4 8 11 10 10 7 0\nsplit_gain=21.4806 12.5097 8.99238 8.91543 8.74828 7.82715 7.14438 6.31066 5.70068 3.87927 6.88525 2.69632 1.94291\nthreshold=0.0055379739541636507 0.010788187643578201 0.0062756825279328011 3.9317184579934414 0.0055677825945488011 3.426369558047432 0.91799770248145418 0.0036042091155638004 1.1576019712454848 0.24283277941448858 0.33874423027944339 -0.31610965438741973 0.0024990221092839006\ndecision_type=2 2 2 2 2 2 2 2 2 2 2 2 2\nleft_child=3 2 4 9 -2 6 -3 -5 -7 12 -11 -4 -1\nright_child=1 5 11 7 -6 8 -8 -9 -10 10 -12 -13 -14\nleaf_value=-0.0097035731423104118 0.013748360354939837 -0.058725124059400051 -0.01400456154137128 0.00982519651679741 -0.074910220468540678 -0.079728416067756561 0.0021131486741224059 -0.072542608742442963 -0.015672658103733354 -0.019988335623168776 0.011558912838745678 0.029944884693244092 0.031098911397308113\nleaf_weight=1.6416231468319917 2.7419042363762882 3.6863010786473778 2.2263718582689771 2.13337193801999 2.9868345335125923 9.3688581101596338 8.8647036626934987 2.703037790954113 3.5621870830655089 12.410203017294405 63.690437909215689 9.0259383246302569 15.616776440292595\nleaf_count=41 61 63 41 50 51 109 158 46 36 290 1623 207 397\ninternal_value=-0.00290648 -0.0263377 0.000435572 0.00738937 -0.0367394 -0.043522 -0.0187704 -0.0407514 -0.0644743 0.0102887 0.00622178 0.0208158 0.0268989\ninternal_weight=140.659 42.4631 16.981 98.1955 5.72874 25.482 12.551 4.83641 12.931 93.359 76.1006 11.2523 17.2584\ninternal_count=3173 726 360 2447 112 366 221 96 145 2351 1913 248 438\nis_linear=0\nshrinkage=0.04\n\n\nTree=38\nnum_leaves=14\nnum_cat=0\nsplit_feature=8 9 9 6 2 1 1 4 3 3 5 7 5\nsplit_gain=30.7864 12.7872 8.57242 11.7508 6.75569 6.15773 9.24359 13.1222 6.86645 5.14954 4.85401 3.3366 3.70464\nthreshold=0.0049354694681698012 0.0055379739541636507 0.0062756825279328011 0.07139102697138841 0.012134846915874553 49.309086760761438 49.689648449063711 2.6425418501606495 0.77511270646462482 1.1696009203778903 0.16699764791102165 -0.2828737999078445 0.25644012706426295\ndecision_type=2 2 2 2 2 2 2 2 2 2 2 2 2\nleft_child=5 9 4 -4 -3 11 7 -7 -8 10 -2 -1 -13\nright_child=1 2 3 -5 -6 6 8 -9 -10 -11 -12 12 -14\nleaf_value=0.020816788826830863 0.039469157627190742 0.03636651184854342 -0.001990065435006252 0.058585886773673733 0.1150210003112697 0.098368956624689807 0.021377849978072506 -0.02215683188126787 -0.01838254800337101 0.048577360458076646 -0.02052032503208797 -0.029557003271475479 0.020518876038875592\nleaf_weight=1.8405005559325207 1.6626095138490189 5.1759125515818614 10.27313954755664 9.0976073108613473 3.525153923779726 2.2950583584606639 8.436849892139433 2.0353658497333527 25.987364625558257 1.8436268083751191 11.233739679679273 33.441362366080284 1.8532798327505577\nleaf_count=50 46 95 228 90 61 61 239 54 758 42 307 1096 46\ninternal_value=0.00307955 0.0298188 0.0452062 0.0279392 0.0768044 -0.0121965 -0.000942773 0.0481908 -0.00830948 -0.00049641 -0.0105027 -0.0236083 -0.0264347\ninternal_weight=118.702 42.8118 28.0718 19.3707 8.70107 75.8898 38.7546 4.33042 34.4242 14.74 12.8963 37.1351 35.2946\ninternal_count=3173 869 474 318 156 2304 1112 115 997 395 353 1192 1142\nis_linear=0\nshrinkage=0.04\n\n\nTree=39\nnum_leaves=10\nnum_cat=0\nsplit_feature=5 2 10 3 6 8 9 6 5\nsplit_gain=6.5103 4.83214 5.14584 6.14816 4.84628 2.01139 1.47971 0.365934 0.8582\nthreshold=0.16622447470284998 -0.0114415688836079 0.7865789073863817 1.092397631011907 0.068712700842884458 0.0031617306239715005 0.0062070677975114008 0.19583880718468802 0.23643270525749924\ndecision_type=2 2 2 2 2 2 2 2 2\nleft_child=1 4 3 -3 6 -6 -1 -2 -9\nright_child=7 2 -4 -5 5 -7 -8 8 -10\nleaf_value=-0.0271407687163761 -0.028116104574942506 0.074569067968425565 -0.018754811583161043 -0.016888536764651556 -0.0088617425533829997 0.076040604944924775 0.023547617427578105 0.023064505853225833 -0.017868202214007423\nleaf_weight=5.3635040516965091 6.9592957436107081 4.1703560822643357 1.3971687690354881 1.106378588825464 0.37993338610976923 0.40597770502790809 0.2947575245052575 0.3067240766249596 1.2460637460462747\nleaf_count=741 1197 480 211 188 55 48 33 54 166\ninternal_value=0.00104722 0.0182374 0.0397472 0.0557575 -0.00638609 0.0530165 -0.0213602 -0.024577 -0.003915\ninternal_weight=21.6302 13.1181 6.6739 5.27673 6.44417 0.785911 5.65826 8.51208 1.55279\ninternal_count=3173 1756 879 668 877 103 774 1417 220\nis_linear=0\nshrinkage=0.04\n\n\nTree=40\nnum_leaves=3\nnum_cat=0\nsplit_feature=2 1\nsplit_gain=1.40734 0.173005\nthreshold=-0.056241895514075442 50.940278760717874\ndecision_type=2 2\nleft_child=1 -1\nright_child=-2 -3\nleaf_value=-0.002263257008309471 -0.02049580279119937 0.038212826535544399\nleaf_weight=0.076067911810241751 1.7791795817320233 0.025447791791521013\nleaf_count=121 3047 41\ninternal_value=-0.00701625 0.033363\ninternal_weight=1.8807 0.101516\ninternal_count=3209 162\nis_linear=0\nshrinkage=0.04\n\n\nTree=41\nnum_leaves=1\nnum_cat=0\nsplit_feature=\nsplit_gain=\nthreshold=\ndecision_type=\nleft_child=\nright_child=\nleaf_value=0\nleaf_weight=\nleaf_count=3743\ninternal_value=\ninternal_weight=\ninternal_count=\nis_linear=0\nshrinkage=1\n\n\nTree=42\nnum_leaves=14\nnum_cat=0\nsplit_feature=9 0 9 3 11 5 1 6 1 3 0 1 2\nsplit_gain=15.9017 8.02825 7.50777 5.31961 5.23508 4.44985 8.74319 7.32674 3.53498 7.08012 3.34593 2.32409 2.23598\nthreshold=0.0055379739541636507 0.010788187643578201 0.0062756825279328011 1.0246924716031554 3.9317184579934414 0.19294515973942725 49.224011704815346 0.16794153251792451 49.007260620654215 1.0045230622652561 0.028115854532342954 49.470996348671186 0.041352614120136959\ndecision_type=2 2 2 2 2 2 2 2 2 2 2 2 2\nleft_child=4 2 3 -2 8 6 -3 -7 10 -10 -1 -6 -4\nright_child=1 5 12 -5 11 7 -8 -9 9 -11 -12 -13 -14\nleaf_value=0.021012336103821166 -0.060238093227812081 -0.010140607984634644 0.029690731028069229 0.011325389432170756 -0.041975647660326076 -0.00047611987966761729 -0.10004928152281536 -0.046680960323165412 -0.0059427560527672918 0.027720712083522669 -0.028089914566213504 0.0075583195858923988 -0.0094328424129694211\nleaf_weight=41.68209096044302 3.181867919862273 3.4156789444386986 8.3387505821883661 2.3072088770568371 3.6632319949567309 11.562807191163303 3.1243555247783661 9.4929568320512754 36.683738220483065 12.620488338172434 1.5007895193994034 1.8486884608864782 2.5816245786845675\nleaf_count=1130 52 63 192 49 64 189 46 82 887 321 37 41 56\ninternal_value=-0.000826305 -0.020535 0.00166789 -0.0330482 0.00814167 -0.0333342 -0.060665 -0.0224795 0.0104852 0.00305391 0.0187087 -0.0267526 0.0204263\ninternal_weight=142.004 44.0053 16.4095 5.48908 97.999 27.5958 6.54003 21.0558 92.4871 49.3042 43.1829 5.51192 10.9204\ninternal_count=3209 729 349 101 2480 380 109 271 2375 1208 1167 105 248\nis_linear=0\nshrinkage=0.04\n\n\nTree=43\nnum_leaves=13\nnum_cat=0\nsplit_feature=9 7 10 9 11 7 6 10 1 1 1 5\nsplit_gain=21.3391 11.0115 12.3789 10.0332 8.68924 7.62082 5.76802 5.50317 5.109 7.17526 4.66899 1.4227\nthreshold=0.0055379739541636507 0.22730459569475303 0.13156327128056197 0.0081123738484629518 2.2228422735207976 0.2617605282870033 -0.041230766380714538 0.82695892820615169 49.309086760761438 49.689648449063711 51.605419104719445 0.26887663528061656\ndecision_type=2 2 2 2 2 2 2 2 2 2 2 2\nleft_child=4 2 -2 -3 8 6 -6 -5 11 -10 -4 -1\nright_child=1 3 10 7 5 -7 -8 -9 9 -11 -12 -13\nleaf_value=-0.030476436195077474 0.077227086550962526 0.083703157310314996 -0.012447216521826674 -0.018209874564241144 0.039946669427718323 0.071399136760807752 -0.022081900397306481 0.045358985022932716 0.035617194771613084 -0.013089463677416067 0.029060285013701614 -0.0050037180069009866\nleaf_weight=30.30750423297286 2.5466913394629982 6.6370561998337489 17.920513918623332 3.5437690950930119 2.7386229448020449 2.363606182858347 5.6923166904598466 3.3619717434048653 4.7232513967901459 30.928166631609201 4.6338132321834555 4.4443543776869765\nleaf_count=1029 48 67 441 55 73 49 163 29 124 925 89 117\ninternal_value=2.26531e-05 0.0241266 0.0077435 0.0518716 -0.0116029 0.0204946 0.000166098 0.0145607 -0.0167424 -0.00584088 -0.00304774 -0.0274499\ninternal_weight=119.842 38.6438 25.101 13.5428 81.1978 10.7945 8.43094 6.90574 70.4033 35.6514 22.5543 34.7519\ninternal_count=3209 729 578 151 2480 285 236 84 2195 1049 530 1146\nis_linear=0\nshrinkage=0.04\n\n\nTree=44\nnum_leaves=9\nnum_cat=0\nsplit_feature=5 3 3 10 8 2 1 3\nsplit_gain=8.29528 5.15692 8.40559 6.27497 5.77302 1.386 0.658634 0.724015\nthreshold=0.16860490332476508 0.84220547115886568 0.97485608983628691 0.24283277941448858 0.0040004017280151506 0.020134193579553504 51.577895374987911 1.0005894092047558\ndecision_type=2 2 2 2 2 2 2 2\nleft_child=1 5 3 -3 -4 -1 -2 -8\nright_child=6 2 4 -5 -6 -7 7 -9\nleaf_value=-0.024320380965878914 -0.028183929993161383 -0.015223145383996713 -0.025497650547345464 0.084962411309724303 0.051656980432589199 0.026031606530545898 -0.014329102498886026 0.025335329951378271\nleaf_weight=3.1055542826652558 7.0906062172725779 0.89322999166324546 3.8057930748909712 4.3935619969852269 1.2916999761946497 0.23977111699059594 0.80273056728765346 0.25502084800973535\nleaf_count=534 1226 93 536 460 166 30 124 40\ninternal_value=0.00592882 0.0242844 0.0373563 0.0683066 -0.000681285 -0.0155513 -0.0242732 0.00289873\ninternal_weight=21.878 13.7296 10.3843 5.28679 5.09749 3.34533 8.14836 1.05775\ninternal_count=3209 1819 1255 553 702 564 1390 164\nis_linear=0\nshrinkage=0.04\n\n\nTree=45\nnum_leaves=4\nnum_cat=0\nsplit_feature=2 6 5\nsplit_gain=2.37053 1.34727 0.495888\nthreshold=-0.026271584661701396 0.044709811234680451 0.13740707285134868\ndecision_type=2 2 2\nleft_child=1 -1 -3\nright_child=-2 2 -4\nleaf_value=-0.0074267746116283709 -0.018661867428531903 0.07608628556766478 -0.0023762008291470199\nleaf_weight=0.30203885817900311 1.3975806186499538 0.036202701448928565 0.080151021131314337\nleaf_count=508 2509 49 100\ninternal_value=0.00776317 0.0469575 0.0683244\ninternal_weight=1.81597 0.418393 0.116354\ninternal_count=3166 657 149\nis_linear=0\nshrinkage=0.04\n\n\nTree=46\nnum_leaves=1\nnum_cat=0\nsplit_feature=\nsplit_gain=\nthreshold=\ndecision_type=\nleft_child=\nright_child=\nleaf_value=0\nleaf_weight=\nleaf_count=3743\ninternal_value=\ninternal_weight=\ninternal_count=\nis_linear=0\nshrinkage=1\n\n\nTree=47\nnum_leaves=11\nnum_cat=0\nsplit_feature=7 4 7 3 3 0 9 8 6 0\nsplit_gain=16.864 11.627 9.41871 6.24136 5.13771 8.83997 4.90196 4.62656 4.19499 2.05216\nthreshold=0.22327484043456045 2.7891195374911457 -0.37647161018260566 1.0615241744165502 1.4111614911174277 0.019906776727988153 0.0056992190962143014 0.0021850848651630505 0.10508640017117227 0.0095160107489980026\ndecision_type=2 2 2 2 2 2 2 2 2 2\nleft_child=2 6 -1 7 5 -3 9 -4 -5 -2\nright_child=1 4 3 8 -6 -7 -8 -9 -10 -11\nleaf_value=-0.065914314844971941 -0.010134024842331236 -0.023198237021728935 0.026866014929786013 0.030206196377078536 -0.02418579443735619 -0.11694767242120001 -0.038205383326055359 -0.00019253593637910349 -0.02567556520805804 0.021265138995706447\nleaf_weight=1.7327103726565827 4.3919564988464179 3.8155213072895995 10.835904974490402 24.630682446062568 8.6719854436814767 2.899830125272274 3.3210444264113894 69.256758844479918 1.5968468934297551 8.4756545294076187\nleaf_count=24 116 82 289 657 64 35 47 1606 35 211\ninternal_value=8.4771e-05 -0.0251701 0.00762806 0.0094296 -0.0489227 -0.0735919 -0.00106048 0.00375443 0.0259858 0.0105901\ninternal_weight=139.629 31.576 108.053 106.32 15.3873 6.71535 16.1887 80.0927 26.2275 12.8676\ninternal_count=3166 555 2611 2587 181 117 374 1895 692 327\nis_linear=0\nshrinkage=0.04\n\n\nTree=48\nnum_leaves=11\nnum_cat=0\nsplit_feature=7 4 7 9 1 3 7 3 0 5\nsplit_gain=20.1157 12.2791 10.9432 6.27291 6.17702 6.55829 6.09343 5.54416 9.49552 3.71274\nthreshold=0.22730459569475303 2.7891195374911457 -0.37647161018260566 0.0056992190962143014 49.257596577012052 1.0246924716031554 -0.30346474809716945 1.4111614911174277 0.019906776727988153 0.27207504578550151\ndecision_type=2 2 2 2 2 2 2 2 2 2\nleft_child=2 3 -1 9 6 -6 -4 8 -3 -2\nright_child=1 7 4 -5 5 -7 -8 -9 -10 -11\nleaf_value=0.07278632315620627 -0.025096237728690185 0.022895753631715098 0.01989182812922656 0.045283910314632199 0.0067609928460773371 -0.02697148802663064 -0.027746177247190466 0.027768548634609591 0.12712501559792366 0.024766837615280039\nleaf_weight=1.5609679576009501 8.3566332645714301 3.1407052166759959 4.1323521994054309 2.9462770186364642 36.935564018785954 11.186690581962464 36.519657088443637 8.1852964833378774 2.6600923407822847 2.3234642315655938\nleaf_count=24 270 76 92 46 992 330 1186 64 35 51\ninternal_value=0.000139655 0.0294052 -0.00902984 0.00179117 -0.0112632 -0.00147003 -0.0225424 0.0543942 0.0823571 -0.0130568\ninternal_weight=117.948 27.6125 90.3352 13.6264 88.7743 48.1223 40.652 13.9861 5.8008 10.6801\ninternal_count=3166 542 2624 367 2600 1322 1278 175 111 321\nis_linear=0\nshrinkage=0.04\n\n\nTree=49\nnum_leaves=9\nnum_cat=0\nsplit_feature=5 9 3 7 2 2 1 6\nsplit_gain=4.19785 6.60606 4.41779 4.23615 2.43451 4.20615 0.709167 0.69803\nthreshold=0.16860490332476508 0.0042429340727999009 1.092397631011907 0.072228856154007967 -0.010074255647700347 -0.0066313413916227497 51.577895374987911 0.038481984178166902\ndecision_type=2 2 2 2 2 2 2 2\nleft_child=1 4 3 -3 -1 -6 -2 -8\nright_child=6 2 -4 -5 5 -7 7 -9\nleaf_value=-0.026581123520037907 -0.02804867954597532 0.020755184095037404 -0.016297557308839111 0.11033373982008779 0.068061537674821579 -0.0089102073844330842 -0.013643407841182842 0.02582001100045922\nleaf_weight=4.73537782067433 6.8309618858620516 2.6249949433840807 1.0272442577406762 0.90923301316797722 0.51797110633924592 3.8153265286237019 0.73617577599361528 0.24451927235350013\nleaf_count=688 1219 265 167 95 70 508 116 38\ninternal_value=-0.00224553 0.0109916 0.0454648 0.0630516 -0.00914151 0.0113269 -0.0239685 0.00426423\ninternal_weight=21.4418 13.6301 4.56147 3.53423 9.06868 4.3333 7.81166 0.980695\ninternal_count=3166 1793 527 360 1266 578 1373 154\nis_linear=0\nshrinkage=0.04\n\n\nTree=50\nnum_leaves=4\nnum_cat=0\nsplit_feature=2 6 5\nsplit_gain=2.40805 1.29229 0.500768\nthreshold=-0.026271584661701396 0.044709811234680451 0.13817642045024234\ndecision_type=2 2 2\nleft_child=1 -1 -3\nright_child=-2 2 -4\nleaf_value=-0.0071396567079498223 -0.018631869141235137 0.076102953055453809 -0.0023987991528299176\nleaf_weight=0.28701347211608674 1.3922313682560341 0.036042581254150718 0.080971174931619316\nleaf_count=491 2553 46 97\ninternal_value=0.00804371 0.0477655 0.0682649\ninternal_weight=1.79626 0.404027 0.117014\ninternal_count=3187 634 143\nis_linear=0\nshrinkage=0.04\n\n\nTree=51\nnum_leaves=1\nnum_cat=0\nsplit_feature=\nsplit_gain=\nthreshold=\ndecision_type=\nleft_child=\nright_child=\nleaf_value=0\nleaf_weight=\nleaf_count=3743\ninternal_value=\ninternal_weight=\ninternal_count=\nis_linear=0\nshrinkage=1\n\n\nTree=52\nnum_leaves=14\nnum_cat=0\nsplit_feature=9 0 7 11 5 6 6 7 9 5 0 3 3\nsplit_gain=18.0531 8.51149 8.0596 5.69961 5.18591 8.07712 5.77528 5.09403 4.75794 4.58808 7.26113 6.11881 2.28276\nthreshold=0.0055379739541636507 0.010788187643578201 -0.351657668440089 2.2228422735207976 0.19294515973942725 -0.019206553341408847 0.27058781809740756 0.2617605282870033 0.0042263338930685511 0.14448185765843327 0.0021142903371891503 0.99487696946166471 0.93182450313098075\ndecision_type=2 2 2 2 2 2 2 2 2 2 2 2 2\nleft_child=3 2 -2 9 5 -3 -6 8 -5 11 -11 -1 -4\nright_child=1 4 12 7 6 -7 -8 -9 -10 10 -12 -13 -14\nleaf_value=-0.0056041785778897504 -0.053184586574550149 -0.099260906061877915 -0.021216890082321149 0.018509568726172137 -0.0073883974426374385 -0.01493291567524016 -0.049059234271561447 -0.053147364975837941 -0.035326321231360751 -0.025918032300992253 0.028575665263087996 0.027172209483399958 0.019334505348848143\nleaf_weight=31.905150339007378 2.5850991532206562 3.4319921918213367 1.7916384823620308 6.736361211165784 15.033080086112024 3.7914032153785255 7.6323082707822314 3.0444041341543189 2.9768239725381136 3.6312441583722821 33.358293356373906 11.625762075185774 12.821507552638648\nleaf_count=822 36 45 29 169 218 67 48 49 63 98 906 337 300\ninternal_value=-0.00161209 -0.0215463 0.000952296 0.00857254 -0.0341038 -0.0621973 -0.0229007 -0.0154271 0.000252973 0.0125176 0.0226846 0.003563 0.0133222\ninternal_weight=140.365 47.087 17.1982 93.278 29.8888 7.2234 22.6654 12.7576 9.71319 80.5204 36.9895 43.5309 14.6131\ninternal_count=3187 743 365 2444 378 112 266 281 232 2163 1004 1159 329\nis_linear=0\nshrinkage=0.04\n\n\nTree=53\nnum_leaves=12\nnum_cat=0\nsplit_feature=8 6 5 7 0 11 8 2 10 7 11\nsplit_gain=26.2387 8.37722 12.4503 7.65763 4.40189 3.83506 7.67514 5.55871 2.08103 2.81522 0.729468\nthreshold=0.0049354694681698012 0.27058781809740756 0.17503087131035433 -0.3085658201989388 0.011956780421657551 2.0038387928649382 0.0042566180745805511 -0.024731082483710146 0.48102443674161255 -0.075038952835864092 0.44508718467513314\ndecision_type=2 2 2 2 2 2 2 2 2 2 2\nleft_child=5 2 4 -4 -2 8 7 -7 9 -1 -10\nright_child=1 -3 3 -5 -6 6 -8 -9 10 -11 -12\nleaf_value=-0.021617429135666312 0.015355430868991542 0.056231137216851586 0.046365602129721108 -0.0036632350821468413 0.096303970083924814 0.040419836367282629 0.06657667119936321 -0.028201057657976467 -0.029541783705095012 0.0015573148477040742 -0.013395693230959944\nleaf_weight=16.13241153396666 2.1614408120512953 9.1976444534957391 4.9048406686633781 27.959295256063346 2.6305445395410061 1.6282505393028257 1.7362156212329862 5.9882005769759399 21.271992402151231 16.18434932269156 8.9256492592394334\nleaf_count=520 58 78 90 603 47 46 41 186 726 490 302\ninternal_value=0.000802846 0.023808 0.0146388 0.00495205 0.0687469 -0.0143163 0.00882159 -0.0105428 -0.0178623 -0.010313 -0.0253518\ninternal_weight=118.721 46.8538 37.6561 32.8641 4.79199 71.8671 9.35267 7.61645 62.5144 32.3168 30.1976\ninternal_count=3187 876 798 693 105 2311 273 232 2038 1010 1028\nis_linear=0\nshrinkage=0.04\n\n\nTree=54\nnum_leaves=8\nnum_cat=0\nsplit_feature=5 3 3 11 2 1 3\nsplit_gain=7.12747 4.33682 6.22191 5.38066 1.3616 0.6212 0.741237\nthreshold=0.16860490332476508 0.84220547115886568 1.092397631011907 1.1996918821600084 0.022731185416313655 51.577895374987911 1.0101586124619015\ndecision_type=2 2 2 2 2 2 2\nleft_child=1 4 3 -3 -1 -2 -7\nright_child=5 2 -4 -5 -6 6 -8\nleaf_value=-0.024136375363129278 -0.027960978858179275 0.059956043189443559 -0.021530261127324927 -0.017872795868198243 0.025757041467580954 -0.014651441963995079 0.025286415256602562\nleaf_weight=3.0125836855731936 6.6696556597016743 7.1559937065467221 2.0285222716629496 1.2464456618763504 0.24541709478944529 0.83607827359810449 0.25605908641591668\nleaf_count=535 1215 708 372 159 27 132 39\ninternal_value=0.00486772 0.0217085 0.033562 0.0477377 -0.0152116 -0.023921 0.002323\ninternal_weight=21.4508 13.689 10.431 8.40244 3.258 7.76179 1.09214\ninternal_count=3187 1801 1239 867 562 1386 171\nis_linear=0\nshrinkage=0.04\n\n\nTree=55\nnum_leaves=4\nnum_cat=0\nsplit_feature=2 8 3\nsplit_gain=2.37919 1.29203 0.56539\nthreshold=-0.026271584661701396 0.0030808167901629005 0.8839220286774877\ndecision_type=2 2 2\nleft_child=1 2 -1\nright_child=-2 -3 -4\nleaf_value=-0.0026629075801817312 -0.018499436834796067 -0.0071592165956478986 0.076953295573744557\nleaf_weight=0.090720546548254899 1.3688132177921941 0.28799334546783939 0.027959053462836891\nleaf_count=151 2569 445 45\ninternal_value=0.00834362 0.0476154 0.0681163\ninternal_weight=1.77549 0.406673 0.11868\ninternal_count=3210 641 196\nis_linear=0\nshrinkage=0.04\n\n\nTree=56\nnum_leaves=1\nnum_cat=0\nsplit_feature=\nsplit_gain=\nthreshold=\ndecision_type=\nleft_child=\nright_child=\nleaf_value=0\nleaf_weight=\nleaf_count=3743\ninternal_value=\ninternal_weight=\ninternal_count=\nis_linear=0\nshrinkage=1\n\n\nTree=57\nnum_leaves=13\nnum_cat=0\nsplit_feature=7 3 9 11 11 4 8 3 11 7 7 2\nsplit_gain=11.4021 5.56595 5.66045 10.5213 5.36669 5.19232 6.89706 4.66817 3.40525 3.87996 2.88377 0.225871\nthreshold=0.40915279391683285 1.107517938435896 0.0056618523891816012 0.12606121744375948 2.9181727655126699 2.7891195374911457 0.0095196192758499019 1.3428515591935397 0.67551849861712554 -0.026478579299042296 1.1425406859727707 0.010903491291531502\ndecision_type=2 2 2 2 2 2 2 2 2 2 2 2\nleft_child=1 2 4 -4 -1 7 10 11 -3 -10 -7 -2\nright_child=5 8 3 -5 -6 6 -8 -9 9 -11 -12 -13\nleaf_value=0.0080922472039243326 0.026009712753206793 0.031024595350557255 -0.039423239814639764 0.016542738966435832 -0.026802912767665412 -0.081313033723387121 -0.0013128037092752904 -0.038651761398781848 0.025217611177443956 -0.028334726475804751 -0.028915363112132299 0.0046133415388186624\nleaf_weight=69.163934964686632 3.4661746658384827 15.57474513910711 13.025689309462907 7.9874892942607394 6.8611972071230403 4.4025702029466611 4.9449637755751601 2.1843740679323673 3.2338419295847416 3.4371143970638505 4.9720937795937061 1.5716920513659713\nleaf_count=1824 76 442 205 147 148 50 30 27 93 86 38 44\ninternal_value=-0.00117577 0.00372525 -0.000481235 -0.0183645 0.0046359 -0.0272756 -0.0404572 0.000601581 0.0213058 -0.00247128 -0.0589884 0.0212042\ninternal_weight=140.826 119.284 97.0383 21.0132 76.0251 21.5419 14.3196 7.22224 22.2457 6.67096 9.37466 5.03787\ninternal_count=3210 2945 2324 352 1972 265 118 147 621 179 88 120\nis_linear=0\nshrinkage=0.04\n\n\nTree=58\nnum_leaves=11\nnum_cat=0\nsplit_feature=8 11 9 9 0 10 1 1 7 0\nsplit_gain=19.1791 10.199 10.9829 8.71259 8.34918 4.60127 4.47636 7.50904 5.05582 0.720507\nthreshold=0.0042408507951481504 2.1070977457628195 0.0055834090102218513 0.0062756825279328011 0.0032231393159068002 0.61264903971198248 49.257596577012052 49.442490266370669 -0.031391086714911788 0.027589314572360205\ndecision_type=2 2 2 2 2 2 2 2 2 2\nleft_child=6 2 4 -4 -2 -3 9 -8 -9 -1\nright_child=1 5 3 -5 -6 -7 7 8 -10 -11\nleaf_value=-0.029866738363689253 0.042061733746916387 0.010944970609385804 0.048185188314797164 0.0061871405471086065 -0.024680872773413434 0.072241375819985965 0.052903123100690362 0.0084922133728478275 -0.024721768994118844 0.0016916225621153205\nleaf_weight=24.337127286940817 2.6399933937937048 3.3634453397244197 11.974157115444539 21.125304508954287 17.562733825296164 5.6299191024154425 2.1727719455957439 11.387075586244469 17.73423518799245 1.1038570310920466\nleaf_count=911 81 74 178 360 548 74 52 343 555 34\ninternal_value=0.000336982 0.0155418 0.00841613 0.022348 -0.0143868 0.0527062 -0.0163381 -0.00588653 -0.0118836 -0.0284853\ninternal_weight=119.031 62.2956 53.3022 33.0995 20.2027 8.99336 56.7351 31.2941 29.1213 25.441\ninternal_count=3210 1315 1167 538 629 148 1895 950 898 945\nis_linear=0\nshrinkage=0.04\n\n\nTree=59\nnum_leaves=12\nnum_cat=0\nsplit_feature=5 3 3 10 7 4 3 4 5 6 4\nsplit_gain=6.96518 4.59753 8.30933 4.63968 2.76294 1.38293 1.91008 0.945072 0.901906 0.537811 0.770723\nthreshold=0.14898323251402942 0.97485608983628691 0.84220547115886568 0.24283277941448858 -0.18295898111423006 0.91799770248145418 1.0360376508825071 0.62895968294286897 0.065120562175815869 0.19583880718468802 1.9832851565553864\ndecision_type=2 2 2 2 2 2 2 2 2 2 2\nleft_child=1 2 8 -4 -3 6 -2 -8 -1 -7 -11\nright_child=5 4 3 -5 -6 9 7 -9 -10 10 -12\nleaf_value=0.017281238252682782 -0.017106202528394631 0.037342960905334475 -0.013136937676604845 0.081461200474139892 -0.024623791456499837 -0.028292464179615139 -0.0065583467186805444 0.057890932146311379 -0.022208369199659385 0.024057194563055467 -0.015803581938443344\nleaf_weight=0.45965134911239358 1.1338636018335808 0.61264221603050861 0.6867762287147342 4.205994788557291 3.2539083338342607 7.3018344209995103 0.25621412368491281 0.24538612505421042 2.2333488804288208 0.28357136063277699 0.9631419675424695\nleaf_count=83 182 66 70 379 488 1286 46 35 398 47 130\ninternal_value=0.00455678 0.0249607 0.0413876 0.0682069 -0.0091495 -0.0185684 0.0103798 0.0425265 -0.0126138 -0.0246137 -6.47831e-05\ninternal_weight=21.6363 11.4523 7.58577 4.89277 3.86655 10.184 1.63546 0.5016 2.693 8.54855 1.24671\ninternal_count=3210 1484 930 449 554 1726 263 81 481 1463 177\nis_linear=0\nshrinkage=0.04\n\n\nTree=60\nnum_leaves=4\nnum_cat=0\nsplit_feature=2 0 6\nsplit_gain=2.30426 1.31172 0.556534\nthreshold=-0.026271584661701396 0.0048941279835334507 0.044709811234680451\ndecision_type=2 2 2\nleft_child=1 2 -1\nright_child=-2 -3 -4\nleaf_value=-0.0026282189960896013 -0.018125699681888933 -0.007265567438513516 0.076815505480931176\nleaf_weight=0.089435922447592131 1.305086104723159 0.29352715457207523 0.029259351023938507\nleaf_count=156 2501 458 37\ninternal_value=0.00920775 0.0473025 0.0681149\ninternal_weight=1.71731 0.412222 0.118695\ninternal_count=3152 651 193\nis_linear=0\nshrinkage=0.04\n\n\nTree=61\nnum_leaves=1\nnum_cat=0\nsplit_feature=\nsplit_gain=\nthreshold=\ndecision_type=\nleft_child=\nright_child=\nleaf_value=0\nleaf_weight=\nleaf_count=3743\ninternal_value=\ninternal_weight=\ninternal_count=\nis_linear=0\nshrinkage=1\n\n\nTree=62\nnum_leaves=11\nnum_cat=0\nsplit_feature=9 7 10 9 1 10 10 5 11 9\nsplit_gain=15.3854 7.09448 10.9796 9.71511 6.66121 3.77804 8.45294 12.3899 8.48475 0.524051\nthreshold=0.0055379739541636507 0.22730459569475303 0.13156327128056197 0.0081123738484629518 51.577895374987911 0.21215932753499822 0.4025880856962602 0.15977198675960616 0.38366811800141226 0.0050183388975715013\ndecision_type=2 2 2 2 2 2 2 2 2 2\nleft_child=5 2 -2 -3 -4 9 7 -7 -8 -1\nright_child=1 3 4 -5 -6 6 8 -9 -10 -11\nleaf_value=0.030368018975974333 -0.062027439899845785 -0.063925380193885925 0.014593233619646637 -0.0042700002449797929 -0.029606808217061659 -0.036169630715907626 0.027901264605817832 0.024416988225148723 -0.0030940533509109607 0.0025189315645883417\nleaf_weight=11.668639494106172 3.8976344950497177 9.5392382796853799 19.827550277113918 7.7197231277823439 6.4002865552902213 14.478592904284598 29.116520743817091 7.4419902935624114 26.281554587185383 1.3903908804059018\nleaf_count=336 52 75 426 74 93 359 831 198 671 37\ninternal_value=-0.000987367 -0.0192191 -0.00703428 -0.0389375 0.00311602 0.00867711 0.00513481 -0.0154327 0.0134026 0.027793\ninternal_weight=137.762 47.3844 30.1255 17.259 26.2278 90.3777 77.3187 21.9206 55.3981 13.059\ninternal_count=3152 720 571 149 519 2432 2059 557 1502 373\nis_linear=0\nshrinkage=0.04\n\n\nTree=63\nnum_leaves=13\nnum_cat=0\nsplit_feature=8 4 9 11 1 8 1 4 0 0 7 9\nsplit_gain=19.388 7.89513 6.50799 5.68835 5.61441 6.58208 7.65803 4.90652 2.05558 2.03252 1.93298 1.36268\nthreshold=0.0049354694681698012 6.1737571261097584 0.0048374166220407503 -0.5172277103183035 49.257596577012052 0.0031472970456642504 49.664285516931962 5.4953190099487701 0.035155096111154159 0.027589314572360205 -0.29499290658958016 0.0041648037669503512\ndecision_type=2 2 2 2 2 2 2 2 2 2 2 2\nleft_child=4 2 11 -4 9 7 -7 -6 -3 10 -1 -2\nright_child=1 8 3 -5 5 6 -8 -9 -10 -11 -12 -13\nleaf_value=0.011038962531777644 0.012975408930987167 -0.028581521919574006 -0.015576904191894819 0.038019210736263069 -0.030516184541669426 0.061190303508744305 0.0011562864093976925 0.024869983539731896 0.013004109826274488 0.015352583297827739 -0.028994071748959495 -0.025576932195589677\nleaf_weight=1.5612673424184382 1.4547809623181809 5.0924604497849932 2.9636677429080001 32.296272421255708 13.031355408951638 3.165579071268442 18.712205775082111 2.3368461430072776 2.0694535225629807 1.3324949331581581 28.996957845985889 3.4041595086455345\nleaf_count=42 40 127 56 521 417 76 560 67 12 39 1096 99\ninternal_value=0.000987812 0.0204874 0.0273199 0.033209 -0.0124494 -0.00176516 0.0121378 -0.0210894 -0.0164442 -0.0244948 -0.0266637 -0.0137897\ninternal_weight=116.418 47.2808 40.1189 35.2599 69.1367 37.246 21.8778 15.3682 7.16191 31.8907 30.5582 4.85894\ninternal_count=3152 855 716 577 2297 1120 636 484 139 1177 1138 139\nis_linear=0\nshrinkage=0.04\n\n\nTree=64\nnum_leaves=8\nnum_cat=0\nsplit_feature=3 3 6 2 4 4 6\nsplit_gain=2.80334 4.80502 4.9572 5.10404 1.90909 1.82507 1.74624\nthreshold=0.84220547115886568 0.97485608983628691 -0.049006290318203839 0.012134846915874553 0.68413251505851724 0.52075722230209942 0.10879546423162272\ndecision_type=2 2 2 2 2 2 2\nleft_child=-1 2 -2 -4 5 -3 -6\nright_child=1 4 3 -5 6 -7 -8\nleaf_value=-0.02599135050857555 -0.021113193733972829 -0.012890424743745093 0.059206913198816276 -0.018026176839008205 -0.027827030100039108 0.054892732584491143 0.013381623643977198\nleaf_weight=4.2173763641621944 1.8988623577170072 0.66759848687797596 5.0361247602850217 1.2638355302624402 6.3994922088459134 0.28809651732444763 1.461297442903742\nleaf_count=771 273 104 534 139 1088 38 205\ninternal_value=-0.000179805 0.00730541 0.0277609 0.0433663 -0.0126072 0.025163 -0.0195208\ninternal_weight=21.2327 17.0153 8.19882 6.29996 8.81648 0.955695 7.86079\ninternal_count=3152 2381 946 673 1435 142 1293\nis_linear=0\nshrinkage=0.04\n\n\nTree=65\nnum_leaves=4\nnum_cat=0\nsplit_feature=2 8 4\nsplit_gain=2.2924 1.2948 0.576236\nthreshold=-0.026271584661701396 0.0030808167901629005 4.9765669159423167\ndecision_type=2 2 2\nleft_child=1 2 -1\nright_child=-2 -3 -4\nleaf_value=-0.0027291781460652793 -0.018120160503595235 -0.0072394109833192966 0.076661082387358387\nleaf_weight=0.093187030026456452 1.304190904687857 0.29215739914798178 0.030722726602107286\nleaf_count=152 2555 453 49\ninternal_value=0.00916312 0.047087 0.0676503\ninternal_weight=1.72026 0.416067 0.12391\ninternal_count=3209 654 201\nis_linear=0\nshrinkage=0.04\n\n\nTree=66\nnum_leaves=1\nnum_cat=0\nsplit_feature=\nsplit_gain=\nthreshold=\ndecision_type=\nleft_child=\nright_child=\nleaf_value=0\nleaf_weight=\nleaf_count=3743\ninternal_value=\ninternal_weight=\ninternal_count=\nis_linear=0\nshrinkage=1\n\n\nTree=67\nnum_leaves=9\nnum_cat=0\nsplit_feature=6 8 2 4 5 2 1 0\nsplit_gain=13.8525 7.75201 6.83946 10.4397 6.43426 7.14161 2.05009 0.437707\nthreshold=0.27058781809740756 0.004224789093197151 -0.025929726087564494 1.3184073077057437 0.40190282119594045 0.011785693137398351 53.611083658218305 0.028115854532342954\ndecision_type=2 2 2 2 2 2 2 2\nleft_child=1 2 3 -1 5 -3 -4 -2\nright_child=7 4 6 -5 -6 -7 -8 -9\nleaf_value=-0.077410728825035302 -0.054186930677728257 -0.0044874766816073554 0.018931542477849318 0.0029208529020896307 0.028867057901937009 -0.036236933541189342 -0.015943357719342344 -0.026758523166062684\nleaf_weight=2.1899379305541506 5.5219213366508466 41.491020757704973 49.662540372461081 13.380097400397061 5.4934367202222338 14.78322167880833 2.1171466317027798 5.5947359204292297\nleaf_count=50 60 870 1416 366 105 260 50 32\ninternal_value=-0.00283604 0.00099389 0.0103071 -0.0123677 -0.00916342 -0.0133151 0.0172305 -0.0437306\ninternal_weight=140.234 129.117 67.3497 15.57 61.7677 56.2742 51.7797 11.1167\ninternal_count=3209 3117 1882 416 1235 1130 1466 92\nis_linear=0\nshrinkage=0.04\n\n\nTree=68\nnum_leaves=11\nnum_cat=0\nsplit_feature=8 6 8 9 1 3 3 11 1 1\nsplit_gain=22.7424 6.84774 6.90245 8.88142 4.53448 4.15608 13.8994 3.7147 1.51906 0.593472\nthreshold=0.0049354694681698012 0.27058781809740756 0.0092361112206939527 0.0048374166220407503 49.257596577012052 1.0045230622652561 0.96147544518320627 4.1104429101561371 41.265433132771868 52.752820954585935\ndecision_type=2 2 2 2 2 2 2 2 2 2\nleft_child=4 2 3 -2 7 6 -6 8 -1 -7\nright_child=1 -3 -4 -5 5 9 -8 -9 -10 -11\nleaf_value=0.0051107912391207475 -0.022077442062425769 0.051810372868063448 -0.028286189438327062 0.029303846712464107 -0.0067922169349498955 -0.028975540335978271 0.068250126000926864 0.025316536796574998 -0.028840070135227203 0.00083317440448071531\nleaf_weight=1.9760016556829274 5.7326743714511386 9.5764975734055025 4.3585050236433736 30.322740253061056 24.684644050896171 7.5201389957219344 3.6724922917783251 1.6091506648808707 28.037062671035528 1.1591060701757667\nleaf_count=76 183 74 74 550 722 256 108 35 1095 36\ninternal_value=0.00258119 0.0228599 0.0149144 0.0207591 -0.0123 -0.00264574 0.00492018 -0.0231795 -0.0265121 -0.0253198\ninternal_weight=118.649 49.9904 40.4139 36.0554 68.6586 37.0364 28.3571 31.6222 30.0131 8.67925\ninternal_count=3209 881 807 733 2328 1122 830 1206 1171 292\nis_linear=0\nshrinkage=0.04\n\n\nTree=69\nnum_leaves=6\nnum_cat=0\nsplit_feature=8 11 2 2 11\nsplit_gain=5.41169 4.16532 3.53061 7.20556 3.35515\nthreshold=0.0048060873455263503 1.1996918821600084 -0.018267003880022146 -0.0066313413916227497 -0.38580525094196283\ndecision_type=2 2 2 2 2\nleft_child=1 2 4 -4 -1\nright_child=-2 -3 3 -5 -6\nleaf_value=0.036288162998062021 -0.027419662280080779 -0.023663929427631111 0.080792237100959688 0.0082109146682764738 -0.024552610984572936\nleaf_weight=1.2209603770170359 5.7491485010832539 2.7813284660223863 2.8235409178305408 5.729238950880247 3.2128417671192429\nleaf_count=154 949 462 363 769 512\ninternal_value=0.00296591 0.0150193 0.0244037 0.0381214 -0.00420363\ninternal_weight=21.5171 15.7679 12.9866 8.55278 4.4338\ninternal_count=3209 2260 1798 1132 666\nis_linear=0\nshrinkage=0.04\n\n\nTree=70\nnum_leaves=4\nnum_cat=0\nsplit_feature=8 4 6\nsplit_gain=2.22746 1.53486 0.432423\nthreshold=0.0030808167901629005 4.9765669159423167 0.022987356812342853\ndecision_type=2 2 2\nleft_child=1 -1 -3\nright_child=-2 2 -4\nleaf_value=-0.0080155352022466455 -0.017793688721771762 -0.0020058858155491809 0.077768037952352306\nleaf_weight=0.33401494874851789 1.2511685585777739 0.066846125264419243 0.020329964230768383\nleaf_count=677 2317 131 34\ninternal_value=0.00990123 0.0468032 0.071018\ninternal_weight=1.67236 0.421191 0.0871761\ninternal_count=3159 842 165\nis_linear=0\nshrinkage=0.04\n\n\nTree=71\nnum_leaves=1\nnum_cat=0\nsplit_feature=\nsplit_gain=\nthreshold=\ndecision_type=\nleft_child=\nright_child=\nleaf_value=0\nleaf_weight=\nleaf_count=3743\ninternal_value=\ninternal_weight=\ninternal_count=\nis_linear=0\nshrinkage=1\n\n\nTree=72\nnum_leaves=14\nnum_cat=0\nsplit_feature=0 0 4 8 10 0 11 11 11 4 9 9 5\nsplit_gain=10.63 4.59203 7.60817 4.99109 4.27316 10.3306 16.7267 3.63911 4.55716 3.32853 3.23076 0.947171 0.931036\nthreshold=0.022235741061096503 0.026968969954065055 3.426369558047432 0.0050213215763927508 0.33874423027944339 0.0059626310307485013 0.12606121744375948 0.3766256182170345 0.45419911287675807 0.93838958428355779 0.0063805225242836014 0.0037889068324713504 0.18300069819553577\ndecision_type=2 2 2 2 2 2 2 2 2 2 2 2 2\nleft_child=4 3 12 11 5 6 -1 9 -9 -6 -7 -2 -3\nright_child=1 2 -4 -5 7 10 -8 8 -10 -11 -12 -13 -14\nleaf_value=-0.068998058917356803 0.0079723870614897135 -0.00095602536084834339 -0.030804511880341494 -0.076887865789526638 -0.0033499203338101581 0.016256860594803614 0.01117218930558962 -0.047404189385948724 0.0050968525322733407 0.02413312450875886 -0.018942805318226858 -0.026169913718525992 0.029026936836675312\nleaf_weight=7.5053853429853898 1.9209622014313965 2.2749042026698616 10.96682497859001 3.4782597906887531 8.6057372316718084 22.047345122322444 7.6884472817182541 1.894891327247026 29.701152173802257 33.096537962555885 4.2135839182883492 1.5707887168973682 4.5435813758522272\nleaf_count=173 57 51 72 30 225 547 177 52 713 882 85 33 62\ninternal_value=-2.21036e-05 -0.0232637 -0.0112242 -0.0487219 0.00514939 -0.00503756 -0.0302452 0.010901 0.00059054 0.0185161 0.0101214 -0.00979357 0.0201807\ninternal_weight=139.508 24.7553 17.7853 6.97001 114.753 41.4548 15.1938 73.2983 31.596 41.7023 26.2609 3.49175 6.81849\ninternal_count=3159 305 185 120 2854 982 350 1872 765 1107 632 90 113\nis_linear=0\nshrinkage=0.04\n\n\nTree=73\nnum_leaves=11\nnum_cat=0\nsplit_feature=9 8 5 9 1 1 4 1 11 1\nsplit_gain=12.0757 8.49448 6.44842 5.07284 3.28254 9.07952 4.46239 3.37687 0.629314 0.56787\nthreshold=0.0048374166220407503 0.0042408507951481504 0.55273644937400157 0.0049736609013279007 49.257596577012052 49.470996348671186 6.7613236216144772 41.907946732510162 5.0464587072323619 51.629267729679626\ndecision_type=2 2 2 2 2 2 2 2 2 2\nleft_child=4 9 3 -3 7 -6 -7 -1 -9 -2\nright_child=1 2 -4 -5 5 6 -8 8 -10 -11\nleaf_value=0.019637168069032065 -0.028664528735687918 0.069039043368312 -0.028453647905471297 0.017326043073599775 0.055985387598483129 -0.018089388735017406 0.024370389365369928 -0.029700938176801465 2.584965862634005e-05 0.00072526155049225827\nleaf_weight=1.8941354528069521 6.9022585321217758 2.4354428425431243 3.6986625753343096 45.910723689943552 2.5088598579168346 25.622981540858749 3.7600823752582064 23.189780993387107 1.1939410585910071 1.1573901735246179\nleaf_count=51 248 62 57 747 57 838 107 935 26 31\ninternal_value=-0.00116874 0.0113136 0.0172734 0.0212774 -0.0140395 -0.0051424 -0.0120326 -0.024253 -0.0283017 -0.0248299\ninternal_weight=118.274 60.1045 52.0448 48.3462 58.1698 31.8919 29.3831 26.2779 24.3837 8.05965\ninternal_count=3159 1145 866 809 2014 1002 945 1012 961 279\nis_linear=0\nshrinkage=0.04\n\n\nTree=74\nnum_leaves=5\nnum_cat=0\nsplit_feature=5 11 3 3\nsplit_gain=8.81847 4.15027 4.16597 5.68013\nthreshold=0.16860490332476508 1.1996918821600084 1.092397631011907 0.84220547115886568\ndecision_type=2 2 2 2\nleft_child=1 2 3 -1\nright_child=-2 -3 -4 -5\nleaf_value=-0.010565038380873238 -0.028252909053451535 -0.021653083163227175 -0.019551900842905399 0.055437003223750676\nleaf_weight=2.342547923326495 7.2467779198195776 2.0563326696865252 1.5538668956141908 8.0276898229494673\nleaf_count=434 1384 322 310 709\ninternal_value=0.00522092 0.0232999 0.0321276 0.0409098\ninternal_weight=21.2272 13.9804 11.9241 10.3702\ninternal_count=3159 1775 1453 1143\nis_linear=0\nshrinkage=0.04\n\n\nTree=75\nnum_leaves=4\nnum_cat=0\nsplit_feature=2 0 3\nsplit_gain=2.29302 1.25951 0.465839\nthreshold=-0.026271584661701396 0.0048941279835334507 0.8839220286774877\ndecision_type=2 2 2\nleft_child=1 2 -1\nright_child=-2 -3 -4\nleaf_value=-0.0022585638809529082 -0.01776005552455711 -0.006973403280600924 0.075490870171948471\nleaf_weight=0.075897745758993662 1.2460149763792285 0.27843854710226879 0.041941694566048682\nleaf_count=124 2536 443 65\ninternal_value=0.0103784 0.0482082 0.0681915\ninternal_weight=1.64229 0.396278 0.117839\ninternal_count=3168 632 189\nis_linear=0\nshrinkage=0.04\n\n\nTree=76\nnum_leaves=1\nnum_cat=0\nsplit_feature=\nsplit_gain=\nthreshold=\ndecision_type=\nleft_child=\nright_child=\nleaf_value=0\nleaf_weight=\nleaf_count=3743\ninternal_value=\ninternal_weight=\ninternal_count=\nis_linear=0\nshrinkage=1\n\n\nTree=77\nnum_leaves=13\nnum_cat=0\nsplit_feature=7 7 5 6 8 0 10 10 8 4 6 7\nsplit_gain=8.76156 9.01065 4.98359 7.77147 3.76539 4.46224 2.69246 2.352 2.83592 2.34312 1.74758 1.50302\nthreshold=0.22327484043456045 -0.39195591011768394 0.17286944729788828 -0.020095388314126144 0.0050478320651676008 0.029315372802025154 0.85425661069141567 0.7865789073863817 0.0043599983652508013 1.5294427145093732 0.16794153251792451 0.28744586471632405\ndecision_type=2 2 2 2 2 2 2 2 2 2 2 2\nleft_child=1 -1 3 -3 7 9 -7 8 -2 -6 -4 -9\nright_child=4 2 10 -5 5 6 -8 11 -10 -11 -12 -13\nleaf_value=-0.068086520354491975 -0.042068800586280146 -0.018985658547194612 0.020515267190517782 0.0100895026936793 -0.010607917154257938 0.013261237003144671 -0.023508661964629571 -0.011989826338308392 0.018638147151211589 -0.048655645595311298 -0.0064354661444718598 0.027212635732214163\nleaf_weight=1.6363857537508 2.1019305866211639 21.795625992119312 35.628234431147575 40.462918234989047 4.2024636454880264 5.5068464130163175 5.3165974020957947 1.5055186264216898 1.2953519709408281 10.549087718129156 3.8401756640523663 4.6447483543306589\nleaf_count=14 64 549 847 1118 77 51 30 42 39 120 82 135\ninternal_value=-0.000839727 0.00504331 0.00687103 -0.000228424 -0.0178135 -0.0255624 -0.00526124 0.00339931 -0.0199472 -0.0391781 0.0177988 0.0172816\ninternal_weight=138.486 103.363 101.727 62.2585 35.1225 25.575 10.8234 9.54755 3.39728 14.7516 39.4684 6.15027\ninternal_count=3168 2610 2596 1667 558 278 81 280 103 197 929 177\nis_linear=0\nshrinkage=0.04\n\n\nTree=78\nnum_leaves=11\nnum_cat=0\nsplit_feature=7 7 1 3 3 6 3 1 11 5\nsplit_gain=11.0604 10.1628 12.6893 7.98942 6.40026 6.3304 9.34954 6.08037 2.1264 1.46001\nthreshold=0.22730459569475303 -0.39195591011768394 49.257596577012052 1.0045230622652561 1.0592547299961776 0.034716691835471207 1.4111614911174277 48.418679730078331 0.2022442532911394 0.29596101925860679\ndecision_type=2 2 2 2 2 2 2 2 2 2\nleft_child=1 -1 9 -4 7 8 -7 -2 -6 -3\nright_child=4 2 3 -5 5 6 -8 -9 -10 -11\nleaf_value=0.071954319004483069 -0.028431078419274586 -0.030447069446023049 0.013383255817079449 -0.023775643039892842 -0.025434954700807637 0.069506306760918707 0.012912370239699978 0.045479997779733612 0.019533210447940954 -0.0081972755861256848\nleaf_weight=1.5466811470687378 6.0786172188818481 29.774764697998762 36.569876872003078 11.308202331885694 3.1781154386699226 8.4236845858395117 10.392742734402416 1.4135642722249029 1.8972996454685924 6.6436768602579823\nleaf_count=14 190 1120 978 362 80 132 63 29 50 150\ninternal_value=0.000462755 -0.00698088 -0.00925579 0.00429992 0.0204098 0.0302282 0.0404772 -0.0107727 -0.00817666 -0.0267157\ninternal_weight=117.227 85.8432 84.2965 47.8781 31.384 23.8918 18.8164 7.49218 5.07542 36.4184\ninternal_count=3168 2624 2610 1340 544 325 195 219 130 1270\nis_linear=0\nshrinkage=0.04\n\n\nTree=79\nnum_leaves=10\nnum_cat=0\nsplit_feature=5 7 10 3 0 0 0 9 3\nsplit_gain=4.61231 4.60613 5.78764 6.31068 1.62097 2.16058 1.82235 0.405549 0.914704\nthreshold=0.16860490332476508 0.014738210159386101 0.81758150490068326 1.0458039110486854 0.013714385968960753 0.016943749778936906 0.0029193066140775505 0.0070495261101203013 1.1429803563410386\ndecision_type=2 2 2 2 2 2 2 2 2\nleft_child=1 4 3 -3 6 -6 -1 -2 -9\nright_child=7 2 -4 -5 5 -7 -8 8 -10\nleaf_value=0.017504999340040718 -0.027272115004109414 0.077307467718460629 -0.019853336263744158 -0.016822938775785494 0.045665860019923558 -0.01601825665059357 -0.026594276067063178 0.025981747930533681 -0.017195705244551648\nleaf_weight=1.255961277056487 5.6029526684433213 3.6740883504971862 1.6084383132401852 1.0954523535910992 0.95298328087665118 0.98175963340327144 4.6962481213267893 0.24110603844746936 1.1470415694639085\nleaf_count=163 1149 414 239 180 111 102 583 43 184\ninternal_value=0.00157248 0.0143956 0.0371788 0.0565193 -0.00613896 0.0195725 -0.0161096 -0.0231195 -0.00195708\ninternal_weight=21.256 14.2649 6.37798 4.76954 7.88695 1.93474 5.95221 6.9911 1.38815\ninternal_count=3168 1792 833 594 959 213 746 1376 227\nis_linear=0\nshrinkage=0.04\n\n\nTree=80\nnum_leaves=4\nnum_cat=0\nsplit_feature=8 4 6\nsplit_gain=2.21756 1.50833 0.398542\nthreshold=0.0030808167901629005 4.9765669159423167 0.022987356812342853\ndecision_type=2 2 2\nleft_child=1 -1 -3\nright_child=-2 2 -4\nleaf_value=-0.0078270878853340282 -0.017471500098357396 -0.0018547827835531504 0.07760414526649223\nleaf_weight=0.32362696935888391 1.2013293009076731 0.061501079879235476 0.021854729420738295\nleaf_count=679 2306 122 33\ninternal_value=0.0109307 0.0475991 0.0713813\ninternal_weight=1.60831 0.406983 0.0833558\ninternal_count=3140 834 155\nis_linear=0\nshrinkage=0.04\n\n\nTree=81\nnum_leaves=1\nnum_cat=0\nsplit_feature=\nsplit_gain=\nthreshold=\ndecision_type=\nleft_child=\nright_child=\nleaf_value=0\nleaf_weight=\nleaf_count=3743\ninternal_value=\ninternal_weight=\ninternal_count=\nis_linear=0\nshrinkage=1\n\n\nTree=82\nnum_leaves=11\nnum_cat=0\nsplit_feature=7 1 7 3 5 1 3 7 2 10\nsplit_gain=10.4517 9.92932 8.51441 6.19442 4.88928 4.85183 4.84625 4.66342 0.341634 0.212079\nthreshold=0.22327484043456045 54.246299934393953 -0.39195591011768394 1.042503172315816 0.16795731775983658 48.322574795771878 1.042503172315816 1.1425406859727707 0.014624248196519552 0.86936847599417744\ndecision_type=2 2 2 2 2 2 2 2 2 2\nleft_child=1 2 -1 5 9 8 -4 -6 -2 -5\nright_child=3 -3 6 4 7 -7 -8 -9 -10 -11\nleaf_value=-0.062691757200180651 0.028095885634025826 -0.059632833307650554 0.0032383662786161565 0.02115337336653747 -0.049904137320533344 -0.039218748090763249 0.02370353034182136 -0.01426243224627669 0.0038641076986720996 0.00071938575573677363\nleaf_weight=1.7681231424212445 5.3117677550762874 2.7567007094621649 71.941732909530401 1.778650578111413 13.72053910046816 1.6252698637545107 24.123947964981198 11.599438745528458 1.5077548082917926 1.2512792404741047\nleaf_count=14 134 45 1778 52 188 34 739 73 46 37\ninternal_value=-0.00242566 0.0042738 0.00665966 -0.0203693 -0.0290944 0.00890069 0.00856882 -0.0347384 0.0239177 0.0149872\ninternal_weight=137.385 100.591 97.8338 36.7947 28.3499 8.44479 96.0657 25.32 6.81952 3.02993\ninternal_count=3140 2576 2531 564 350 214 2517 261 180 89\nis_linear=0\nshrinkage=0.04\n\n\nTree=83\nnum_leaves=10\nnum_cat=0\nsplit_feature=7 7 3 1 6 7 3 1 10\nsplit_gain=13.897 9.25008 9.15172 7.46416 7.3832 5.14192 4.57703 3.97035 1.19128\nthreshold=0.22730459569475303 -0.39195591011768394 1.0592547299961776 54.246299934393953 0.034716691835471207 1.1425406859727707 0.7968587828159347 48.418679730078331 0.66621332568810365\ndecision_type=2 2 2 2 2 2 2 2 2\nleft_child=1 -1 7 6 8 -6 -3 -2 -4\nright_child=2 3 4 -5 5 -7 -8 -9 -10\nleaf_value=0.066244373297303316 -0.028402979309610912 0.0072967868448293336 0.0094768876083708362 0.050571727368694655 0.063038141499154959 0.02088942693041556 -0.016428049725559803 0.033496953333662066 -0.023905497608511909\nleaf_weight=1.6780662946403015 6.0135432705283156 15.665983160957692 2.581407971680167 2.2258092518895856 10.529224822297694 10.206223882734774 63.674640528857708 1.2609703261405227 2.4633331149816513\nleaf_count=14 190 480 68 45 146 60 2050 29 58\ninternal_value=0.00160463 -0.00712603 0.0231554 -0.00941951 0.0340558 0.0442076 -0.011711 -0.0149217 -0.00808175\ninternal_weight=116.299 83.2445 33.0547 81.5664 25.7802 20.7354 79.3406 7.27451 5.04474\ninternal_count=3140 2589 551 2575 332 206 2530 219 126\nis_linear=0\nshrinkage=0.04\n\n\nTree=84\nnum_leaves=8\nnum_cat=0\nsplit_feature=5 3 3 2 2 1 6\nsplit_gain=5.70863 3.16256 4.25086 3.47799 1.36503 0.747796 0.660839\nthreshold=0.16860490332476508 0.84220547115886568 1.092397631011907 0.018870999935578402 0.023435855924285903 51.577895374987911 0.052979712115705603\ndecision_type=2 2 2 2 2 2 2\nleft_child=1 4 3 -3 -1 -2 -7\nright_child=5 2 -4 -5 -6 6 -8\nleaf_value=-0.023569889620211212 -0.027464902614542219 0.046477953813988018 -0.020436977623104109 -0.016904543791216191 0.026803407134063342 -0.012764891445770648 0.026319574357715984\nleaf_weight=2.7502286634407969 5.8726969531271598 8.5447887852787954 1.7479687118902791 1.0978745534084726 0.22323441877961148 0.65824219025671471 0.23385768057778478\nleaf_count=523 1217 745 367 108 24 120 36\ninternal_value=0.00537497 0.0192913 0.0284084 0.0383512 -0.0139942 -0.0228532 0.00597607\ninternal_weight=21.1289 14.3641 11.3906 9.64266 2.97346 6.7648 0.8921\ninternal_count=3140 1767 1220 853 547 1373 156\nis_linear=0\nshrinkage=0.04\n\n\nTree=85\nnum_leaves=4\nnum_cat=0\nsplit_feature=4 4 3\nsplit_gain=2.23332 1.58527 0.26369\nthreshold=4.9765669159423167 5.3861802216766428 0.95269634777653744\ndecision_type=2 2 2\nleft_child=-1 2 -2\nright_child=1 -3 -4\nleaf_value=-0.017482240760373038 0.076936066613913209 -0.0080056421770136957 -0.001244018861729771\nleaf_weight=1.2030481097172012 0.028120060189394391 0.33343794278334826 0.040426462946925312\nleaf_count=2416 41 657 76\ninternal_value=0.0109849 0.0478823 0.0728141\ninternal_weight=1.60503 0.401984 0.0685465\ninternal_count=3190 774 117\nis_linear=0\nshrinkage=0.04\n\n\nTree=86\nnum_leaves=1\nnum_cat=0\nsplit_feature=\nsplit_gain=\nthreshold=\ndecision_type=\nleft_child=\nright_child=\nleaf_value=0\nleaf_weight=\nleaf_count=3743\ninternal_value=\ninternal_weight=\ninternal_count=\nis_linear=0\nshrinkage=1\n\n\nTree=87\nnum_leaves=11\nnum_cat=0\nsplit_feature=0 7 9 9 3 0 4 9 10 2\nsplit_gain=8.51892 6.33467 3.54678 6.1122 4.8639 3.39042 6.89771 3.37404 1.90224 0.073772\nthreshold=0.022235741061096503 -0.39195591011768394 0.0032350726831435004 0.0034774166302950003 0.70651220311754714 0.026968969954065055 3.426369558047432 0.0053849263486778513 0.64594021594904982 -0.018267003880022146\ndecision_type=2 2 2 2 2 2 2 2 2 2\nleft_child=1 -1 4 -4 -3 7 9 8 -2 -7\nright_child=5 2 3 -5 -6 6 -8 -9 -10 -11\nleaf_value=-0.052311546123094924 0.020041719089226886 -0.028890009365919789 -0.033362303689018241 0.0052513080674924471 0.025844622669736049 0.027566175998455355 -0.027165351521610117 -0.060085036704921387 -0.029587416349215034 0.009610759635280056\nleaf_weight=2.0739407539367667 1.5357136651873617 2.1162343975156572 6.1156740337610236 83.401342920958996 20.531495193019509 3.6003311965614593 11.48138305172324 4.6052362285554409 1.4467601776123045 2.0805646926164618\nleaf_count=15 41 58 166 2027 622 52 73 40 45 51\ninternal_value=-0.000211019 0.00443831 0.00594061 0.00227385 0.0197247 -0.0210099 -0.0100561 -0.0417299 -0.00541705 0.023413\ninternal_weight=138.989 114.239 112.165 89.517 22.6477 24.75 17.1623 7.58771 2.98247 5.6809\ninternal_count=3190 2888 2873 2193 680 302 176 126 86 103\nis_linear=0\nshrinkage=0.04\n\n\nTree=88\nnum_leaves=12\nnum_cat=0\nsplit_feature=8 5 1 9 1 0 1 4 5 1 5\nsplit_gain=11.6649 4.60428 6.32086 5.16556 3.92585 5.30728 5.23211 5.88918 3.82665 3.7953 0.676588\nthreshold=0.004959853433435051 0.16995717191850157 51.533001119812312 0.0055379739541636507 49.257596577012052 0.031028233645182906 49.470996348671186 6.7613236216144772 0.52303549146735595 45.995608598648595 0.27883444099918403\ndecision_type=2 2 2 2 2 2 2 2 2 2 2\nleft_child=4 2 -2 9 5 10 -6 -8 -5 -3 -1\nright_child=1 3 -4 8 6 -7 7 -9 -10 -11 -12\nleaf_value=-0.027074811138094335 -0.00050688585464522698 0.013821446254272568 0.08416768227601297 0.022007087062755039 0.039245236743345679 0.043526500653182518 -0.013616210935100872 0.035058237680819324 -0.015338641466739916 -0.029103095686224167 0.0034821288631421594\nleaf_weight=26.308141672983773 2.4426674805581561 4.7239663712680322 2.3002683483064175 31.530478578060865 3.3165079578757277 0.99093921482562919 29.739201234653592 3.5986294317990533 4.3522619400173417 7.2104737665504217 0.98731276579201122\nleaf_count=1137 57 113 35 383 73 26 967 100 69 208 22\ninternal_value=0.00013743 0.0140029 0.0480644 0.00970904 -0.0111269 -0.0220507 -0.00233517 -0.00749411 0.0171843 -0.0123575 -0.0258855\ninternal_weight=117.501 52.5601 4.74294 47.8172 64.9407 28.2864 36.6543 33.3378 35.8827 11.9344 27.2955\ninternal_count=3190 865 92 773 2325 1185 1140 1067 452 321 1159\nis_linear=0\nshrinkage=0.04\n\n\nTree=89\nnum_leaves=9\nnum_cat=0\nsplit_feature=8 9 7 3 6 1 8 8\nsplit_gain=3.77215 5.80859 3.24286 4.58148 4.09828 2.17881 2.7422 1.31357\nthreshold=0.0048060873455263503 0.0042429340727999009 0.072228856154007967 1.0542256024303878 0.09200467018644036 47.307154990593816 0.0031746496967588003 0.0013608425628961003\ndecision_type=2 2 2 2 2 2 2 2\nleft_child=1 5 4 -4 -3 6 -1 -7\nright_child=-2 2 3 -5 -6 7 -8 -9\nleaf_value=0.043009555879891199 -0.027093476605661283 -0.008045395269201585 0.1028263241377091 -0.011197376548081981 0.068678410953430927 0.022724088201466899 -0.018464275253545683 -0.023584594266314367\nleaf_weight=1.554742031730717 5.3184447127860031 3.6278808340430251 1.0142683724407104 0.53381738392636169 0.50852356594987203 0.31419904204085458 1.3441441224422304 7.3506609562318772\nleaf_count=220 940 464 91 93 72 37 222 1051\ninternal_value=-0.000680705 0.00903439 0.0383447 0.0745442 0.0129215 -0.00868988 0.0170806 -0.0192828\ninternal_weight=21.5667 16.2482 5.68449 1.54809 4.1364 10.5637 2.89889 7.66486\ninternal_count=3190 2250 720 184 536 1530 442 1088\nis_linear=0\nshrinkage=0.04\n\n\nTree=90\nnum_leaves=4\nnum_cat=0\nsplit_feature=2 0 6\nsplit_gain=2.23298 1.25203 0.506352\nthreshold=-0.026271584661701396 0.0048941279835334507 0.044709811234680451\ndecision_type=2 2 2\nleft_child=1 2 -1\nright_child=-2 -3 -4\nleaf_value=-0.0024070732368346951 -0.017214897333316586 -0.0068827863946210165 0.076486472761217256\nleaf_weight=0.08129901348729629 1.1633244502882005 0.27382816554745659 0.032379002019297332\nleaf_count=145 2509 445 37\ninternal_value=0.0118986 0.0487153 0.0685658\ninternal_weight=1.55083 0.387506 0.113678\ninternal_count=3136 627 182\nis_linear=0\nshrinkage=0.04\n\n\nTree=91\nnum_leaves=1\nnum_cat=0\nsplit_feature=\nsplit_gain=\nthreshold=\ndecision_type=\nleft_child=\nright_child=\nleaf_value=0\nleaf_weight=\nleaf_count=3743\ninternal_value=\ninternal_weight=\ninternal_count=\nis_linear=0\nshrinkage=1\n\n\nTree=92\nnum_leaves=12\nnum_cat=0\nsplit_feature=0 8 7 10 10 5 4 7 11 7 11\nsplit_gain=6.9354 5.7205 6.84831 6.64875 3.92133 6.429 3.52822 7.06184 5.07793 4.04697 3.42032\nthreshold=0.022235741061096503 0.0058895280757327506 -0.3085658201989388 0.61264903971198248 0.4025880856962602 0.17286944729788828 2.8516056032891601 1.1425406859727707 0.09658388418750416 0.21529129999421848 0.42289756400172868\ndecision_type=2 2 2 2 2 2 2 2 2 2 2\nleft_child=1 4 -3 -4 5 -1 8 -8 -2 -10 -6\nright_child=6 2 3 -5 10 -7 7 -9 9 -11 -12\nleaf_value=-0.013518955456051963 0.027664682967882537 -0.05813356584809478 0.016875683615427718 -0.028839077599175873 0.023790319449354187 0.019783736139762927 -0.062691897644759131 -0.0093652987247586483 -0.058063690011951039 0.010558849725298086 0.0025776149451802962\nleaf_weight=25.284234980121255 4.5144230145961064 3.6222710516303804 10.515168761834504 8.1415832284837943 28.762019976973534 13.338993279263375 5.6232139058411148 11.025767635554073 1.9815205279737709 2.0700409412384033 21.019728936254978\nleaf_count=635 89 42 220 105 883 370 62 63 46 40 581\ninternal_value=-0.00117504 0.00317979 -0.0145203 -0.00352594 0.00775292 -0.00180845 -0.0196832 -0.0299081 0.00123906 -0.0278532 0.0150607\ninternal_weight=135.899 110.684 22.279 18.6568 88.405 38.6232 25.215 16.649 8.56598 4.05156 49.7817\ninternal_count=3136 2836 367 325 2469 1005 300 125 175 86 1464\nis_linear=0\nshrinkage=0.04\n\n\nTree=93\nnum_leaves=15\nnum_cat=0\nsplit_feature=9 11 2 7 2 9 7 3 2 2 2 4 1 5\nsplit_gain=10.3006 5.09313 7.64443 8.32134 4.65168 12.9635 4.81839 6.88591 3.84336 3.48337 2.43371 2.09518 2.38551 0.459831\nthreshold=0.0048374166220407503 0.28416803180718114 -0.00037370754696439997 -0.06692716792377619 0.0060549681996192014 0.0062756825279328011 0.47804213752014785 1.0160756113392042 0.021086637148264153 0.041352614120136959 -0.020947708964030396 6.8764019579484863 50.254044120517371 0.090608219702599968\ndecision_type=2 2 2 2 2 2 2 2 2 2 2 2 2 2\nleft_child=1 11 3 -3 6 8 7 -2 -6 -7 -8 -1 -13 -4\nright_child=4 2 13 -5 5 9 10 -9 -10 -11 -12 12 -14 -15\nleaf_value=-0.027983180890025654 0.012931615964510881 -0.027081318476687245 -0.0029980593864684375 0.030035739280497444 0.076207067090497835 -0.027815711741114094 0.030717639893643182 -0.027467933720484325 0.021561646966688337 0.023128917877858719 3.2571658174921354e-05 -0.020590195403002064 0.035564648379364405 -0.02948435347465066\nleaf_weight=22.781505050137643 13.435074774548413 4.7168924137949988 1.4476144146174181 14.108305472880602 5.7345460113137978 5.0583605449646702 11.332478677853944 11.761774027720092 4.5109195578843355 2.4195345100015402 6.2252473086118689 1.692254247143864 1.2301618456840513 8.7055636364966613\nleaf_count=900 328 169 58 453 83 126 72 339 81 59 49 67 32 320\ninternal_value=0.00104746 -0.0114243 0.000182391 0.0150802 0.0123265 0.0289807 0.0049181 -0.00625536 0.0562044 -0.0105483 0.020426 -0.0240265 0.00608831 -0.0263154\ninternal_weight=115.16 54.6823 28.9784 18.8252 60.4779 17.7234 42.7546 25.1968 10.2455 7.4779 17.5577 25.7039 2.92242 10.1532\ninternal_count=3136 1999 1000 622 1137 349 788 667 164 185 121 999 99 378\nis_linear=0\nshrinkage=0.04\n\n\nTree=94\nnum_leaves=11\nnum_cat=0\nsplit_feature=8 3 3 10 8 2 0 2 6 1\nsplit_gain=4.47476 4.8615 4.28843 4.30567 1.42216 1.23551 0.906814 0.540501 0.532679 0.873945\nthreshold=0.0040134212891118513 0.97485608983628691 0.84220547115886568 0.81758150490068326 0.0038955150655940007 0.010903491291531502 0.0019728503432366001 0.018202829122244451 0.19583880718468802 47.894749184174337\ndecision_type=2 2 2 2 2 2 2 2 2 2\nleft_child=1 2 5 -4 -3 -1 7 -2 -8 -10\nright_child=6 4 3 -5 -6 -7 8 -9 9 -11\nleaf_value=-0.021875387128518092 -0.0097358360410735884 -0.025423321500990168 0.061393202991466729 -0.016003220985990739 0.02506038942689803 0.026461636470954054 -0.028034768227626242 0.028727152637161392 -0.016146484257891929 0.026732293205631946\nleaf_weight=2.1337633503135316 0.43396462174132278 3.755479529965668 4.890486435033381 0.98624066961929191 0.26070666033774603 0.23095274437218893 6.7114081943873316 0.18512395676225424 1.00523169292137 0.22526579396799196\nleaf_count=442 85 619 405 125 40 39 1160 42 140 39\ninternal_value=0.000405049 0.0154299 0.0317992 0.0479661 -0.0178036 -0.0106931 -0.0204713 0.0124048 -0.0241348 0.000168896\ninternal_weight=20.8186 12.2576 8.24144 5.87673 4.01619 2.36472 8.56099 0.619089 7.94191 1.2305\ninternal_count=3136 1670 1011 530 659 481 1466 127 1339 179\nis_linear=0\nshrinkage=0.04\n\n\nTree=95\nnum_leaves=3\nnum_cat=0\nsplit_feature=4 4\nsplit_gain=0.799786 0.591683\nthreshold=5.3450804820688367 5.4953190099487701\ndecision_type=2 2\nleft_child=-1 -2\nright_child=1 -3\nleaf_value=-0.01750582354916699 0.038398571933787456 -0.0076543889459408437\nleaf_weight=1.2066411788982803 0.022740388609236217 0.31421121829771437\nleaf_count=2497 35 633\ninternal_value=-0.00370216 0.0218499\ninternal_weight=1.54359 0.336952\ninternal_count=3165 668\nis_linear=0\nshrinkage=0.04\n\n\nTree=96\nnum_leaves=1\nnum_cat=0\nsplit_feature=\nsplit_gain=\nthreshold=\ndecision_type=\nleft_child=\nright_child=\nleaf_value=0\nleaf_weight=\nleaf_count=3743\ninternal_value=\ninternal_weight=\ninternal_count=\nis_linear=0\nshrinkage=1\n\n\nTree=97\nnum_leaves=11\nnum_cat=0\nsplit_feature=0 0 10 3 1 6 0 3 10 7\nsplit_gain=5.73046 4.75454 4.64003 9.58215 11.9106 5.28819 4.47891 4.21842 3.49938 3.51169\nthreshold=0.023355678867738653 0.026968969954065055 0.4025880856962602 0.80517454464188454 50.326899499569805 0.2836456350474415 0.0084582404979690017 1.1007345023057697 0.83707385229185349 0.48956685640531589\ndecision_type=2 2 2 2 2 2 2 2 2 2\nleft_child=2 -2 3 4 -1 6 -4 -5 9 -3\nright_child=1 8 5 7 -6 -7 -8 -9 -10 -11\nleaf_value=0.016162550660261839 -0.048626457786673863 -0.020428602158441479 0.023221249845050133 -0.0049107585451003072 -0.071392878376964231 -0.030588383876011618 0.0015283550847222517 0.028443914080859112 -0.024508411436181494 0.026556411892903271\nleaf_weight=3.3330960590392333 5.7727325633168247 3.2393951676785964 27.001458626240492 32.987323855981231 6.1330861672759056 4.2496978417038909 33.717953713610768 6.3864601403474799 9.4303130153566581 5.5802214927971363\nleaf_count=100 73 60 837 751 120 45 846 213 74 46\ninternal_value=-0.002522 -0.0198549 0.00127768 -0.00794586 -0.0419654 0.00822674 0.011395 0.00106991 -0.00870072 0.00897613\ninternal_weight=137.832 24.0227 113.809 48.84 9.46618 64.9691 60.7194 39.3738 18.2499 8.81962\ninternal_count=3165 253 2912 1184 220 1728 1683 964 180 106\nis_linear=0\nshrinkage=0.04\n\n\nTree=98\nnum_leaves=13\nnum_cat=0\nsplit_feature=8 1 1 5 11 9 11 9 8 5 10 1\nsplit_gain=7.70427 6.77264 6.91891 15.0055 6.10466 8.31381 5.29868 3.34371 2.72544 0.885446 0.713112 0.0199519\nthreshold=0.0042408507951481504 49.257596577012052 51.510498570378147 0.12972715581263358 2.1070977457628195 0.0048374166220407503 -0.12614210587795033 0.0051916703685318012 0.0038506285707387007 0.24206502307927638 0.89769937940823985 48.665608988011805\ndecision_type=2 2 2 2 2 2 2 2 2 2 2 2\nleft_child=1 9 3 -3 5 10 -7 -6 -4 11 -2 -1\nright_child=4 2 8 -5 7 6 -8 -9 -10 -11 -12 -13\nleaf_value=-0.03068292849137981 -0.029482806307425558 0.046732108683828426 -0.029648641013969083 -0.02417803403339483 0.060709917075331708 0.027648587651238767 0.00068923610411022746 0.014806728004270367 0.014340262239369279 0.006535648856629891 0.0028534698666621643 -0.014772227852090323\nleaf_weight=16.0207316139713 9.0109567362815124 10.459323989227419 9.2901163399219495 7.3611472453922024 4.3861581180244666 19.594874268397685 27.02206534519792 6.4943508803844452 2.2294616997241965 0.83872848190367122 1.0371121298521746 3.0741161480545989\nleaf_count=757 343 335 315 237 75 308 460 68 68 25 31 143\ninternal_value=0.00204999 -0.00986256 0.00245832 0.0177127 0.0107572 0.00519197 0.0123639 0.0368637 -0.0206698 -0.0272487 -0.026189 -0.028984\ninternal_weight=116.819 49.2736 29.34 17.8205 67.5455 56.665 46.6169 10.8805 11.5196 19.9336 10.0481 19.0948\ninternal_count=3165 1880 955 572 1285 1142 768 143 383 925 374 900\nis_linear=0\nshrinkage=0.04\n\n\nTree=99\nnum_leaves=6\nnum_cat=0\nsplit_feature=8 11 2 11 11\nsplit_gain=5.17371 3.95709 3.87454 6.61641 2.67362\nthreshold=0.0048060873455263503 1.1996918821600084 -0.010074255647700347 -0.21785981443029237 -0.3672800239390121\ndecision_type=2 2 2 2 2\nleft_child=1 2 4 -4 -1\nright_child=-2 -3 3 -5 -6\nleaf_value=0.033571635388188678 -0.026836224210806281 -0.023131192648581708 -0.0098960550814103099 0.067900901460228577 -0.01325833789070807\nleaf_weight=1.9175548395141992 5.0242482961621127 2.557868175674229 2.2269398493226618 4.5126733379438537 4.9088008815888315\nleaf_count=217 934 448 275 587 704\ninternal_value=0.00532876 0.0163334 0.0248516 0.0442375 0.00250515\ninternal_weight=21.1481 16.1238 13.566 6.73961 6.82636\ninternal_count=3165 2231 1783 862 921\nis_linear=0\nshrinkage=0.04\n\n\nTree=100\nnum_leaves=4\nnum_cat=0\nsplit_feature=8 4 6\nsplit_gain=2.21156 1.42176 0.403831\nthreshold=0.0030808167901629005 4.9765669159423167 0.022987356812342853\ndecision_type=2 2 2\nleft_child=1 -1 -3\nright_child=-2 2 -4\nleaf_value=-0.0074098358231495303 -0.017055449454448524 -0.0018824726682437985 0.07751894004113305\nleaf_weight=0.30118888779543351 1.1401535817421971 0.062476310937199742 0.022648941958323121\nleaf_count=685 2341 125 33\ninternal_value=0.0123222 0.0487862 0.0712126\ninternal_weight=1.52647 0.386314 0.0851253\ninternal_count=3184 843 158\nis_linear=0\nshrinkage=0.04\n\n\nTree=101\nnum_leaves=1\nnum_cat=0\nsplit_feature=\nsplit_gain=\nthreshold=\ndecision_type=\nleft_child=\nright_child=\nleaf_value=0\nleaf_weight=\nleaf_count=3743\ninternal_value=\ninternal_weight=\ninternal_count=\nis_linear=0\nshrinkage=1\n\n\nTree=102\nnum_leaves=12\nnum_cat=0\nsplit_feature=8 2 5 8 10 0 11 2 11 11 8\nsplit_gain=7.09495 7.55846 9.10646 16.1455 4.91501 4.82034 11.7561 6.00044 1.98343 2.45701 0.363928\nthreshold=0.004224789093197151 -0.025929726087564494 0.12972715581263358 0.0030686418983245007 0.94667586323628972 0.0034504309761687504 -0.17094765594157327 -0.0097973952949435995 1.1996918821600084 0.64687365587463952 0.0039511000973771011\ndecision_type=2 2 2 2 2 2 2 2 2 2 2\nleft_child=1 2 3 -1 5 6 -2 -7 9 -3 -4\nright_child=4 8 10 -5 -6 7 -8 -9 -10 -11 -12\nleaf_value=0.004554282024309941 -0.089659476902714794 0.014708622038459721 0.026608215343994532 -0.094999907888589252 -0.049841688200843982 0.007706198385988231 -0.0014129000581739376 -0.016934551970657404 0.030056616837807075 -0.011782557030959935 0.0017781512875468552\nleaf_weight=5.7847688011825067 2.7693891394883394 31.456915156915784 4.1407995764166108 3.61852484382689 3.8661946281790724 33.466633539646864 6.8154624011367542 28.290308466181159 10.209312643855808 5.9857003875076762 1.3416219912469385\nleaf_count=170 42 977 117 82 34 542 156 534 308 179 43\ninternal_value=-0.00257206 0.00731995 -0.0168018 -0.0392049 -0.0107857 -0.00800942 